<?xml version="1.0"?>
<opencv_storage>
<opencv_ml_ann_mlp>
  <format>3</format>
  <layer_sizes>
    120 256 34</layer_sizes>
  <activation_function>SIGMOID_SYM</activation_function>
  <f_param1>6.6666666666666663e-01</f_param1>
  <f_param2>1.7159000000000000e+00</f_param2>
  <min_val>-9.4999999999999996e-01</min_val>
  <max_val>9.4999999999999996e-01</max_val>
  <min_val1>-9.7999999999999998e-01</min_val1>
  <max_val1>9.7999999999999998e-01</max_val1>
  <training_params>
    <train_method>BACKPROP</train_method>
    <dw_scale>1.0000000000000001e-01</dw_scale>
    <moment_scale>1.0000000000000001e-01</moment_scale>
    <term_criteria>
      <epsilon>1.0000000000000000e-02</epsilon>
      <iterations>1000</iterations></term_criteria></training_params>
  <input_scale>
    3.3483008568721493e+00 -2.0025291326491614e+00
    3.8642597997582748e+00 -3.0537971893527267e+00
    4.2576689839574735e+00 -3.6659356131727443e+00
    4.1660749096678726e+00 -3.2702202235546167e+00
    4.3927595374338351e+00 -2.9662924791840188e+00
    4.2784936795200119e+00 -3.0123179516549947e+00
    4.5278650212706077e+00 -3.7860901724130835e+00
    5.2206054627163967e+00 -4.5921658055034218e+00
    4.4347137148533928e+00 -3.4777366637624625e+00
    3.8462264929052243e+00 -2.0107991332144692e+00
    4.8390274113755307e+00 -3.7779737062400476e+00
    4.6159851188712215e+00 -3.7934496547312642e+00
    4.9583520011843651e+00 -3.1801905860581345e+00
    4.7244079005123005e+00 -3.2463582690449457e+00
    4.6867726089557582e+00 -3.6763876291684237e+00
    4.5105515610861335e+00 -3.4073419025540397e+00
    4.5263750718899054e+00 -2.8615484096216535e+00
    4.7469523207241417e+00 -3.2597263169172099e+00
    4.3789369086371206e+00 -3.6298919318471636e+00
    4.6914056657633942e+00 -3.4403552762585674e+00
    9.0829180851221009e-03 -8.4182118317727983e-01
    9.3295567329437293e-03 -1.4200227717106895e+00
    1.0610375618387839e-02 -1.9962820225554407e+00
    1.0408269931284164e-02 -2.0318823809555400e+00
    1.0187604385646578e-02 -2.0351144870838356e+00
    1.0896716205366539e-02 -2.2671157694130164e+00
    1.1981849546283025e-02 -2.5137004272723793e+00
    1.2178562119676313e-02 -2.4533030925051689e+00
    9.8249259271955443e-03 -1.4840450315131699e+00
    9.6776876469850098e-03 -7.1414040834720038e-01
    8.9722604447007859e-03 -1.1378420359658998e+00
    9.7684067475863300e-03 -1.8388123970605001e+00
    1.1029648832050126e-02 -2.1750855594785210e+00
    1.1112868520705648e-02 -1.9392305561232466e+00
    1.0382859286734004e-02 -1.4942071125486973e+00
    1.0432646806488002e-02 -1.6166954296068903e+00
    1.1911380869977298e-02 -2.2569790029413759e+00
    1.1447770739098995e-02 -2.3350853932344409e+00
    9.9361348031527345e-03 -1.8557059008767822e+00
    9.3148086386034210e-03 -9.9410292228389840e-01
    8.2597283950441684e-03 -1.1255817493996301e+00
    8.9181166168179910e-03 -1.5548166832654717e+00
    9.9908459927878415e-03 -1.7837273207156268e+00
    9.4481193586996581e-03 -1.0385789796878862e+00
    8.9578003408222993e-03 -7.3429642094425673e-01
    8.8428129315781447e-03 -7.6517989657068131e-01
    9.1688845478705393e-03 -1.1004822239315724e+00
    9.4633993212337002e-03 -1.6184519699497346e+00
    8.6387931384361190e-03 -1.3932127321136143e+00
    8.3774617832678578e-03 -9.4176208305717757e-01
    8.2483189479879131e-03 -1.0662896077385275e+00
    8.8918628419125158e-03 -1.5545183762699635e+00
    1.0076868508563977e-02 -1.8778005895190415e+00
    9.5044094188302241e-03 -1.3237935077470171e+00
    8.9287092789794836e-03 -9.8677073463649478e-01
    8.9986435513133498e-03 -1.0470314631934363e+00
    9.6262981199670087e-03 -1.3977148603535372e+00
    9.8231944833344319e-03 -1.7005423983273098e+00
    8.5612521165009444e-03 -1.2421039822721462e+00
    8.6169436035829425e-03 -8.1360679910571898e-01
    8.5243906071352151e-03 -9.5702855654565822e-01
    9.1472518569883608e-03 -1.6269571563645713e+00
    1.0224970899857248e-02 -2.0145502396814314e+00
    9.5499128533547157e-03 -1.7317845986208020e+00
    9.7786057703433595e-03 -1.7749985439275207e+00
    1.0519085886518786e-02 -2.0658282891553759e+00
    1.1257214769443179e-02 -2.3253117018034160e+00
    1.2910092099366449e-02 -2.7688025521128421e+00
    9.7418428818353831e-03 -1.6128325502885350e+00
    9.3847644354601994e-03 -7.3813088374939928e-01
    8.6366327443614093e-03 -8.9332778179994610e-01
    9.0804389485030883e-03 -1.4768927657293838e+00
    9.7073551797957590e-03 -1.7145510663256267e+00
    9.5251813727479200e-03 -1.4500402492567617e+00
    9.4057178491306192e-03 -1.3263696523112423e+00
    9.3142605620963811e-03 -1.4406110284843805e+00
    1.0849695359193506e-02 -2.0636042806038599e+00
    1.2221336002504177e-02 -2.5567239314039822e+00
    9.4679403623258631e-03 -1.6828523668549766e+00
    9.0158821554121530e-03 -8.7443873895506541e-01
    8.2640173780002407e-03 -9.8968159722627969e-01
    8.4102233282748098e-03 -1.3310813332259614e+00
    8.8328114142457968e-03 -1.3680257934682265e+00
    9.5818879748357476e-03 -9.2105794097639737e-01
    9.6826528114115559e-03 -6.9109829286662705e-01
    8.8873201151036911e-03 -8.1675996832366549e-01
    9.2863137087461425e-03 -1.2101161998887155e+00
    1.0054571013567786e-02 -1.8715435222305274e+00
    9.2139431633966543e-03 -1.6348825294055200e+00
    8.3382598368639243e-03 -1.0409350284093313e+00
    8.6536790249892009e-03 -1.3144532445329273e+00
    9.8986219121586887e-03 -1.9380390151546116e+00
    9.9501311035571898e-03 -1.8153845625410971e+00
    9.6392493963800181e-03 -1.0399188222054228e+00
    9.0028018919192307e-03 -8.1141271825771211e-01
    8.5246571252093842e-03 -8.3123739063985125e-01
    9.1100080950917740e-03 -1.1669130862160535e+00
    9.9246770768012891e-03 -1.8129069608077004e+00
    8.8079061559318828e-03 -1.5398244018934042e+00
    8.3492693591115680e-03 -1.1224789280969707e+00
    9.0427312119364684e-03 -1.2607549089585581e+00
    1.0216319772041809e-02 -2.0510793058934031e+00
    1.1562603048724588e-02 -2.3884083543850805e+00
    1.1406234066360646e-02 -2.0628238723019683e+00
    1.0469367472526437e-02 -1.5894882946038660e+00
    1.0671767872408137e-02 -1.6808660241207358e+00
    1.1985773290636973e-02 -2.2420958753623479e+00
    1.0088011534202631e-02 -1.9358727607445751e+00
    9.4142973146872696e-03 -1.7236343318992116e+00
    9.5647075450216810e-03 -1.0118947445629547e+00
    9.1653977146880037e-03 -7.8289895609418692e-01
    9.6211369273832160e-03 -1.4466771133394869e+00
    1.1317488268124894e-02 -2.1890453456491246e+00
    1.0132861747783795e-02 -1.9258511755720551e+00
    9.4107746330580160e-03 -1.7692103006913300e+00
    9.3747346715946280e-03 -1.6964910000545415e+00
    9.7038381014387387e-03 -1.7282052995994011e+00
    1.0089120397593319e-02 -1.7797611595549481e+00
    9.5193319924818075e-03 -1.2609279451105717e+00
    9.8886346359527907e-03 -6.5334578467445859e-01</input_scale>
  <output_scale>
    5.2631578947368418e-01 4.9999999999999994e-01 5.2631578947368418e-01
    4.9999999999999994e-01 5.2631578947368418e-01 4.9999999999999994e-01
    5.2631578947368418e-01 4.9999999999999994e-01 5.2631578947368418e-01
    4.9999999999999994e-01 5.2631578947368418e-01 4.9999999999999994e-01
    5.2631578947368418e-01 4.9999999999999994e-01 5.2631578947368418e-01
    4.9999999999999994e-01 5.2631578947368418e-01 4.9999999999999994e-01
    5.2631578947368418e-01 4.9999999999999994e-01 5.2631578947368418e-01
    4.9999999999999994e-01 5.2631578947368418e-01 4.9999999999999994e-01
    5.2631578947368418e-01 4.9999999999999994e-01 5.2631578947368418e-01
    4.9999999999999994e-01 5.2631578947368418e-01 4.9999999999999994e-01
    5.2631578947368418e-01 4.9999999999999994e-01 5.2631578947368418e-01
    4.9999999999999994e-01 5.2631578947368418e-01 4.9999999999999994e-01
    5.2631578947368418e-01 4.9999999999999994e-01 5.2631578947368418e-01
    4.9999999999999994e-01 5.2631578947368418e-01 4.9999999999999994e-01
    5.2631578947368418e-01 4.9999999999999994e-01 5.2631578947368418e-01
    4.9999999999999994e-01 5.2631578947368418e-01 4.9999999999999994e-01
    5.2631578947368418e-01 4.9999999999999994e-01 5.2631578947368418e-01
    4.9999999999999994e-01 5.2631578947368418e-01 4.9999999999999994e-01
    5.2631578947368418e-01 4.9999999999999994e-01 5.2631578947368418e-01
    4.9999999999999994e-01 5.2631578947368418e-01 4.9999999999999994e-01
    5.2631578947368418e-01 4.9999999999999994e-01 5.2631578947368418e-01
    4.9999999999999994e-01 5.2631578947368418e-01 4.9999999999999994e-01
    5.2631578947368418e-01 4.9999999999999994e-01</output_scale>
  <inv_output_scale>
    1.8999999999999999e+00 -9.4999999999999996e-01
    1.8999999999999999e+00 -9.4999999999999996e-01
    1.8999999999999999e+00 -9.4999999999999996e-01
    1.8999999999999999e+00 -9.4999999999999996e-01
    1.8999999999999999e+00 -9.4999999999999996e-01
    1.8999999999999999e+00 -9.4999999999999996e-01
    1.8999999999999999e+00 -9.4999999999999996e-01
    1.8999999999999999e+00 -9.4999999999999996e-01
    1.8999999999999999e+00 -9.4999999999999996e-01
    1.8999999999999999e+00 -9.4999999999999996e-01
    1.8999999999999999e+00 -9.4999999999999996e-01
    1.8999999999999999e+00 -9.4999999999999996e-01
    1.8999999999999999e+00 -9.4999999999999996e-01
    1.8999999999999999e+00 -9.4999999999999996e-01
    1.8999999999999999e+00 -9.4999999999999996e-01
    1.8999999999999999e+00 -9.4999999999999996e-01
    1.8999999999999999e+00 -9.4999999999999996e-01
    1.8999999999999999e+00 -9.4999999999999996e-01
    1.8999999999999999e+00 -9.4999999999999996e-01
    1.8999999999999999e+00 -9.4999999999999996e-01
    1.8999999999999999e+00 -9.4999999999999996e-01
    1.8999999999999999e+00 -9.4999999999999996e-01
    1.8999999999999999e+00 -9.4999999999999996e-01
    1.8999999999999999e+00 -9.4999999999999996e-01
    1.8999999999999999e+00 -9.4999999999999996e-01
    1.8999999999999999e+00 -9.4999999999999996e-01
    1.8999999999999999e+00 -9.4999999999999996e-01
    1.8999999999999999e+00 -9.4999999999999996e-01
    1.8999999999999999e+00 -9.4999999999999996e-01
    1.8999999999999999e+00 -9.4999999999999996e-01
    1.8999999999999999e+00 -9.4999999999999996e-01
    1.8999999999999999e+00 -9.4999999999999996e-01
    1.8999999999999999e+00 -9.4999999999999996e-01
    1.8999999999999999e+00 -9.4999999999999996e-01</inv_output_scale>
  <weights>
    <_>
      1.6427848837875714e-01 2.3735299079010305e-01
      -1.4953216018129631e-01 2.4337769963828937e-01
      2.8093744745992011e-01 5.1309581813117255e-01
      -5.5034416924120899e-01 2.4923367627953569e-01
      4.5969750370740015e-01 -1.1172096069029790e-01
      4.0988912716532355e-01 4.6012666317424122e-01
      -2.4889797482723763e-01 -1.3579524572904891e-01
      1.8857982971987741e-01 5.9038058427452011e-01
      1.4215911714999724e-01 -6.5030953623135834e-01
      -9.9935924811208249e-02 9.5860179817049626e-02
      -1.8420656635840310e-01 -1.2491047954426442e-01
      4.0203453819201967e-01 2.8431080279984688e-01
      -4.5018101258694099e-01 3.9081112080520686e-01
      9.4552996361682851e-02 -7.3860618440305281e-01
      -1.0496207332359766e+00 -3.4711295713141027e-01
      6.5436292584973271e-02 4.7692417384943564e-01
      3.5939434816728100e-01 -4.4264216953273111e-01
      1.1679310920883364e-02 -4.6248999123835753e-02
      -4.4434626312898884e-01 -3.8648136124945853e-01
      -3.2228701065336118e-01 -1.0710293934215841e-01
      1.5395503453477971e-01 3.1159492270244027e-01
      -2.5992199753797431e-02 -8.7898198211915990e-01
      5.3527126717120355e-01 -7.7246194903389354e-02
      8.9124146010453958e-02 1.7203817298195548e-01
      1.8601983966841279e-01 9.7758719697899885e-02
      -4.3097385167777391e-01 5.3925926732662777e-01
      -4.3347748461054503e-01 9.6910913284139991e-02
      4.2235752404915072e-01 -5.2960120230963081e-01
      -2.6260903460789947e-01 2.6399890838908369e-01
      3.1217900367315021e-01 -2.0614646958617148e-02
      -2.8142121412333526e-01 -2.1900776878424181e-02
      -3.7513790013715609e-01 3.9890305402915466e-01
      8.5635290464951372e-02 -1.6024595259310527e-02
      -3.9757643689619965e-01 -6.2719675764498228e-01
      3.9944579291625498e-01 5.9095545688396578e-01
      1.5740446208295708e-01 1.0012102260450845e-01
      -4.6128787293457613e-01 -7.0233537494839293e-02
      -1.0395034427183936e+00 1.8589979258343858e-01
      2.5967720045276099e-01 7.1819438818741282e-02
      3.4579251699452757e-01 -2.8064836175875157e-02
      1.6739342218729775e-01 5.2016341636946739e-01
      -1.4073696154685050e-02 -6.1852820943800157e-01
      -2.5442562549614867e-01 3.8345421274294944e-01
      -4.7195842213502032e-01 2.2065337678112110e-01
      -9.3277516623846382e-02 -2.8532050598793546e-01
      -6.9355635854979726e-03 -1.7753139239516696e-01
      2.8734972485746590e-01 4.3758041207786563e-01
      -7.1170861180637235e-01 -2.9441119246872033e-01
      -5.2032855888396168e-01 -7.1013581201903764e-01
      5.2532370826126873e-01 -5.5660677329428532e-01
      -2.9808192271970652e-01 3.7191954836511792e-01
      6.9573456308020498e-01 1.4621068370528595e-01
      4.5798296167562619e-01 -5.1300458513927882e-01
      -3.8865376345730346e-01 -1.0577143464981395e-01
      -5.9814664997439582e-01 -3.4218742848249412e-01
      -1.9487519399482452e-02 8.8367348289852055e-01
      -2.3650811005713937e-02 -1.3576284598379423e-01
      1.5501469238712171e-01 -2.5979272114580032e-01
      -6.3264932126620588e-01 -5.6102127164590365e-01
      6.6575647062036958e-01 4.1879382513887753e-01
      -9.6102471725470762e-02 6.1379854922148680e-01
      6.0497342644213373e-02 -4.4306463277572544e-01
      -8.6702373328991578e-01 2.0747488292131938e-02
      9.7288555769529527e-04 1.2121946399458490e+00
      -2.5200503363565058e-01 -6.1973834896263646e-01
      -4.3928159180283322e-01 -1.0346809254197502e-01
      -9.0564743824268226e-02 1.8570497894645721e-01
      -5.8429610390916827e-02 -2.8297975486486837e-01
      1.5498496982484611e-01 1.6015633468442173e-01
      -2.5593635907613982e-01 -8.5363109480627919e-01
      -7.0151882769576956e-01 -3.8553850366220771e-01
      2.8604121112727854e-01 -1.1396138443517063e-01
      1.2375318191949666e-01 4.5061725205146863e-01
      -5.8996934455472250e-01 -1.0266985647964813e-01
      7.6639055708209536e-01 1.9764448002765422e-01
      2.9500126170825253e-01 -4.7782293151471011e-01
      -1.6721198935296100e-01 -8.3977304416647386e-02
      -5.2817386324914617e-01 -5.7130199752992072e-01
      5.7559584053527535e-01 -9.4750334284770266e-01
      5.0633264880877871e-01 -3.8476265871118176e-01
      -1.4898952241741126e-01 2.9666912407679502e-01
      1.4640871103798106e-01 1.3296907344120341e+00
      -6.0770054668465023e-01 -2.3429932303643786e-01
      -6.7875538620993559e-01 -6.3895085727804857e-01
      2.6297002846056439e-01 -1.2359867192849025e-02
      -4.1570996138569943e-01 -2.2202713915583958e-01
      8.2618714061255927e-01 -2.0980855553812502e-01
      3.0420452516486840e-01 -9.0009179656090443e-01
      8.4850822514960608e-02 -1.3728328758519768e+00
      -4.7536114673265789e-01 4.1579538626731172e-01
      -1.4374829464803247e-02 4.7829766099693249e-02
      9.1821406454182064e-01 2.7805050718068967e-02
      -7.9452103410775438e-02 5.6537243492539702e-01
      3.1422629493711862e-01 1.2722075716269435e-01
      4.0972170192898549e-01 -4.4391890975268949e-01
      -1.0930455317714094e+00 6.0701537088718971e-01
      -5.5651375260476421e-02 5.8644263389557076e-02
      -7.2050173839612774e-01 -2.1133767543829743e-01
      -1.4312728069106923e-01 -7.9854485427492483e-01
      -4.2720493039111754e-02 9.4265658504836466e-02
      3.2339059960486427e-01 6.7463813989603910e-02
      6.2130210241597934e-02 -4.1375699520444165e-01
      -9.6293458066553606e-01 -2.6328452374590416e-01
      1.0970209328277489e-01 1.4240242210301671e-01
      -3.0788453871017285e-03 -4.1096691835627405e-02
      -6.2233634909249394e-02 -2.8060758108390282e-01
      5.7973961220752557e-01 -1.6601121726903628e-01
      -3.9841988793608052e-01 -6.6443625606445278e-01
      2.7678310958940427e-01 -5.3223551851603312e-01
      2.2572862318793460e-01 4.6105537686315307e-01
      -1.8702854617234715e-01 5.9061234862149070e-01
      -4.4410402660855391e-01 5.8765933178199803e-01
      -1.3228987974572700e-02 2.0767400402811187e-01
      4.1261924610065903e-01 -3.6010956536415528e-01
      -3.0193971750110744e-02 3.0723150088405438e-01
      -7.0414618668835494e-01 8.1015139224931165e-01
      1.4020915740354504e-02 -3.9159470282296792e-02
      4.2623187170877673e-02 -3.5151808322353373e-01
      4.2277780888831273e-01 1.6562511266607655e-01
      -4.5710371362782533e-02 -1.9510046667896763e-01
      -8.7381655270922665e-01 -4.1034358331350362e-01
      -4.5477507459442118e-01 -7.7653940741585914e-01
      -1.4629912833739497e-01 6.9595691586106379e-01
      4.2050449203845641e-01 -2.9432454120376515e-02
      -4.7159345363997945e-01 -2.6369655087849531e-01
      1.3266813968134572e-01 5.7075755955569862e-01
      3.3462073994765124e-01 4.0475179474335009e-02
      -1.3941630975186778e-01 -4.8852510481982503e-01
      1.7807725205907871e-01 3.2384621080225834e-01
      -4.2065075411246561e-01 3.7612725576520023e-01
      2.5132943890841242e-01 2.1573378496569359e-01
      -5.9447597848182543e-01 1.0280370115429163e-01
      7.2509445659928262e-01 -9.1339229037152936e-01
      5.7989767445169271e-01 -3.4739417679182621e-01
      -2.6350064464546913e-01 -1.5237873781163211e-01
      8.0588449185571154e-01 2.6418025625251246e-01
      2.7021785043463135e-02 -7.2122109259769329e-01
      4.2366891550958519e-02 9.3527577116821148e-01
      -6.0698586594398907e-01 -6.7443476459717489e-01
      -1.3262960048682335e-01 3.5958301263633258e-01
      -2.6132361456145542e-01 3.0093707082005300e-01
      5.5940394856686899e-02 1.7261436022991539e-01
      -6.2747663115965180e-01 -6.1522277056459529e-01
      -2.7662608587462034e-01 5.9281421694842273e-01
      4.7002800046274142e-02 -6.3143277417824784e-01
      5.7829974394021877e-01 1.0751421891199953e-01
      -3.1358842116543967e-01 -9.2535125634088847e-02
      -7.0086190533276416e-02 -6.0899336554144722e-02
      -1.2738695680715689e-01 2.1949828965284998e-01
      1.0700805236546164e-02 -3.2379542796875865e-01
      -1.0237547874268876e-01 3.3417594568029452e-01
      1.6838329590748113e-02 -4.2637590560713023e-01
      6.2286940344537400e-01 3.4373070564781372e-01
      -6.3574168144592358e-01 5.6195333785236445e-01
      2.2024900553280387e-03 -4.0441879134298397e-01
      4.8647978614333082e-01 -4.4822183640515817e-01
      -2.8220367074299330e-01 9.9819114442550461e-01
      6.5056319521362382e-01 8.0687153590850366e-03
      -2.4984872626932486e-01 -1.1672516331018766e-01
      7.1429166917875805e-02 3.0417731784931507e-01
      1.2288462661378342e-01 -1.0612705415793101e-01
      1.0514078432893788e-01 -5.5672627724944479e-01
      -1.6715666997052747e-01 4.6697410357628416e-01
      7.9121553534993938e-01 -8.1007635519745311e-02
      7.8040076755802587e-02 3.0955717086909645e-01
      -7.2625081306782935e-01 6.8436466800569744e-03
      4.8068194429724997e-01 -2.8566472134389065e-01
      2.3733267528326968e-01 -1.0290143508952685e+00
      8.3473167262891723e-01 3.2836424340839465e-01
      2.3238654199444691e-02 1.9422437513667790e-01
      2.8557672999293793e-01 5.0399554237120570e-01
      -2.7614426677109188e-01 3.2736269267852114e-02
      4.6718450776111548e-01 -1.0124310228741494e-01
      -2.2701244016731953e-01 -4.9776754113527770e-02
      -1.9909836625630836e-01 1.8408656283506192e-01
      -6.8756520706752444e-01 -3.1379834033298698e-01
      -6.3160722509402079e-01 -1.0067983030853278e+00
      3.3263640128327832e-02 1.3500027175321254e-03
      -3.8967047739842650e-02 3.1785628012987038e-01
      1.1967612657964295e+00 -5.3218083741174760e-01
      7.6876511336183340e-01 8.8887937199443257e-01
      -7.9169733713704771e-01 -2.2722041157032105e-01
      1.3563293827232911e-01 3.0523685006474821e-01
      5.8049726094648324e-01 8.6481663911258733e-01
      4.5411880173064179e-01 -1.5843145459112951e-01
      -2.6809118635836038e-01 -5.2862997170510084e-01
      -1.9019945258271639e-01 -6.7368745675281472e-01
      3.6839559153505663e-01 8.1825999881342282e-01
      1.8235333255651831e-01 2.7219828140511765e-01
      3.2890608406592775e-02 -7.2759771259074346e-01
      -2.4138042872198545e-01 3.1461394528998704e-01
      4.0289332695036195e-01 8.1463768303064865e-01
      -2.0871740315931206e-01 -4.3027404829439009e-02
      1.4769839263687887e-01 5.3817201131175929e-01
      -3.1403461633716695e-01 7.4829765789748814e-02
      2.3886975148258116e-01 -1.0107080100017385e+00
      -4.7945142293538673e-01 -5.2078331079721180e-02
      -4.7057917741608668e-01 -6.7644329068904352e-01
      -1.1862270163108706e+00 1.9275738847813856e-01
      -3.3409814584423347e-01 1.8054847023433940e-01
      5.6573202732443650e-02 2.3069677622763413e-01
      -5.7278307416178653e-01 -7.3222509217107778e-01
      4.8998942673980894e-01 -4.8698761743920971e-01
      2.6473463151356103e-01 -9.8444371852830836e-02
      -2.2154190226740442e-01 -4.2346904632135735e-01
      2.8983144390261124e-02 -4.6598740156292351e-01
      2.1225172242658180e-01 -6.2652059332612253e-01
      -3.1376949504612683e-01 2.6742493685161458e-02
      -3.7911225128058584e-01 3.6965533401144050e-02
      2.9641419068497904e-01 1.0702357170129400e+00
      -1.1017848720313625e-02 -8.4624011005042479e-02
      -9.3276794440702104e-01 -2.2181951362619814e-01
      2.9319953096190888e-02 -2.7674253654909342e-01
      1.9609818303744311e-01 -1.8729971760991324e-01
      5.4293121730201754e-01 -2.4633496227163335e-01
      2.5106571931217614e-01 -7.8313066830152411e-01
      8.5981240744898435e-02 -4.6016960675682828e-01
      -8.9594504610798531e-01 2.8305535268389975e-01
      -7.4901504394297422e-02 3.1375509911169508e-01
      2.3219119564667276e-01 6.2026723064646427e-01
      1.7912336974690973e-01 4.4325682703654617e-01
      5.1062394961169022e-01 -4.2289683486182184e-01
      5.5170641436079459e-01 -5.3518887515626314e-02
      -2.6538443726859001e-01 1.0038059314008473e-01
      -7.7562795443514609e-01 3.0939100501570016e-01
      -6.2172004168581839e-02 -4.9867857744951521e-01
      3.2069574849187826e-01 -6.6193304174375389e-01
      -9.8866270748599161e-02 2.4038565140774426e-01
      5.9619594781863350e-01 -5.4626970097084748e-01
      -3.0700739411143463e-01 -3.0256161434363715e-02
      -3.5917712928792306e-01 -8.8468528576537020e-01
      3.2834554396419896e-01 -3.1996937778845097e-01
      3.1940620586940166e-02 -1.0522334912423427e-01
      -3.7932500719300938e-01 -1.8535569114509887e-01
      -8.9546530246778167e-02 -4.4897584631100868e-01
      -4.8169004710637819e-01 -8.2234658596177024e-01
      3.7122292818332042e-01 -2.5318095950619873e-01
      6.2042238690047442e-02 2.6991521202199786e-01
      3.2126767641151140e-02 -1.7658292481781113e-01
      -5.9402481539903929e-01 6.9995477127359351e-01
      3.8025905801809567e-01 7.2982313946639066e-01
      4.8249362019956410e-01 4.2229407678050008e-05
      -1.9455950258481963e-01 -4.3000071043895069e-02
      7.0477576482890381e-02 6.0510205880444490e-01
      4.8237127007079128e-01 8.9930219006242540e-01
      5.4551856032683921e-01 -2.9875893982531032e-01
      3.6614498350749480e-01 -1.0810324153238682e-01
      9.2977437066255289e-02 -3.4032571034547027e-01
      -5.2458945561133696e-01 -9.2561401907089869e-01
      -6.1871508174796597e-01 -8.6730460863543839e-03
      -7.3981659051038928e-01 -4.9357033418258978e-02
      1.2070316032846144e-01 3.3980085862731652e-01
      -3.8568846817122221e-01 4.4739797332936787e-01
      -2.7245298397824136e-01 3.9740685486410338e-01
      2.1041964374178826e-01 4.8237026427399110e-01
      -1.9917141515699441e-01 -4.1032487767023028e-02
      3.2609168253281895e-01 1.2170996838794863e-01
      -8.5562319226915484e-01 1.8809181470433992e-01
      5.4992743698489799e-01 -4.5321692429008953e-01
      -1.4730917059583143e-01 9.3700494748104657e-02
      4.5637384628641836e-01 -6.6313745633988141e-01
      3.2738921766003759e-01 -1.9686385905870649e-01
      3.1661597761002080e-02 4.7583786167164445e-02
      6.5485617047433087e-01 3.4755143181969816e-01
      -4.2222841988897214e-01 -5.1194941165866525e-01
      -4.9330846573204051e-02 5.8713684767465291e-01
      -2.0535680789800401e-01 -5.8736443644723735e-01
      -2.4309425788099696e-02 2.8984787384822253e-01
      -5.4177495327665814e-01 4.6066554622057297e-02
      8.9740967747721237e-02 4.4183548610415807e-01
      -5.4220070161412159e-01 -6.2323769115685745e-01
      -3.9945618184498904e-01 4.8776314817406863e-01
      3.3681600976469406e-01 -8.0181199263064673e-01
      5.4903379394824947e-01 4.9428272081438984e-01
      4.0662893636719113e-02 -2.7610012459027267e-02
      -5.2372198567216477e-02 -5.1626689643247882e-02
      -1.0953684785595910e-01 4.4799407950385867e-01
      -2.2365521573817851e-01 -1.3037043934754697e-01
      -7.2928459621960728e-01 2.2240903387730573e-01
      -5.8787242591537969e-01 -8.6509291556589651e-01
      6.6429619638267445e-01 3.7346142905789137e-02
      -4.8263517710296583e-01 6.0333008269568433e-01
      -7.2076317720046745e-02 -3.9295399390771923e-01
      1.7673313809205451e-01 -1.1019505745947747e-01
      -4.1773948169805175e-02 2.5795775712866253e-01
      2.4970740347391659e-01 -2.7515546582836015e-01
      -2.9245032376539892e-01 -3.8592510732064239e-01
      4.4258550464280337e-02 3.1967643585754674e-01
      3.1981366666405259e-01 -5.1650430957486915e-01
      -3.7426705332759908e-02 -5.3766036067706469e-01
      -2.1374274848418978e-01 1.8436318622559841e-01
      5.8670117896523188e-01 1.3841308087659415e-01
      -2.0939378905769646e-01 -7.0662287832254522e-01
      -1.5362338537006603e-01 -3.5647710196264554e-01
      4.5808551132324937e-01 -1.6108856381013784e-01
      -2.4849216778978545e-01 -8.5325789389460516e-01
      3.8722558942379576e-01 5.5372238599895751e-01
      6.2787493765582358e-01 6.2674506496460891e-01
      -1.5941420475939724e-01 2.2233917760634261e-01
      -2.0469771325135777e-02 -6.8507042034589627e-02
      3.3062347712048779e-01 -3.6487572269580770e-02
      -7.7151623201229624e-01 -4.9840293083165427e-01
      -1.6175291164669706e-01 1.4574291210077342e-01
      -3.4966191287058740e-01 -3.1878107702008718e-02
      -5.6448886877688276e-01 -6.7417170885313005e-01
      -4.4981985164878358e-01 3.0651746973832128e-01
      3.0729995276531924e-01 2.9641976298007844e-01
      5.2354819161410648e-01 -3.4414478446755503e-01
      1.0037044327408375e+00 1.1659113614191095e-01
      -7.1624233326042663e-01 -4.0482670676750560e-01
      1.7890767368057794e-01 1.7760103898787686e-02
      7.7740496193181663e-01 8.3812534370980973e-01
      1.7944979265666050e-01 -2.3951699538228785e-01
      -2.6583648557460443e-01 -2.6472597358185962e-01
      -2.4708026322198659e-01 -2.6226185906611493e-01
      8.4422775527846050e-02 8.0346013945697570e-01
      -1.8067873015099425e-01 4.0736272029864329e-01
      1.3319423774847430e-01 -4.2988779042103969e-01
      4.5978306152511389e-02 2.6388804030853247e-01
      3.2105040004191787e-01 1.3963665474553083e-01
      -1.8049073476677585e-01 -1.0964680383127420e-01
      -1.8940852128104591e-01 9.6888632875489364e-02
      -3.2726462026747166e-01 1.2941923721064311e-01
      1.9078698770379127e-01 -8.0764573060340317e-01
      -1.9538164467284350e-01 3.5604946709221486e-01
      -5.2811352604276052e-01 -4.7845646466914360e-01
      -5.5823635727110976e-01 6.0591398351333585e-02
      -4.0226129899152846e-01 3.2128202215862978e-01
      -2.6509599809063739e-01 2.2468815117983112e-01
      -5.8957134683814205e-01 -8.4885165115041172e-01
      2.9454386389259291e-01 -1.2659063571088883e-01
      3.2357019875987686e-02 -8.3408030740377472e-03
      -2.9243704003391380e-01 -4.4066472701405340e-01
      -2.8319386075698649e-01 -3.9300100234278335e-01
      -1.4882396290125757e-01 -5.1626703214941783e-01
      -4.9053035386485416e-01 5.2187227290760108e-01
      -2.2306218117505172e-01 2.3553293060160416e-01
      4.6803260753424547e-01 9.4217969520719025e-01
      6.6127734103714952e-01 -2.7116943635788560e-01
      -4.7260580303454973e-02 3.8162222710482599e-02
      -2.0015826353581082e-01 2.5948861396960332e-01
      3.8521165165874793e-01 -6.8683527735618666e-01
      4.7120254893890233e-02 5.5108795304740021e-01
      2.5533273603876600e-01 -5.8360124513365008e-01
      -2.9937785009708162e-01 -2.5845056826316332e-01
      -4.6479705747653000e-01 1.4860058148841204e-01
      -1.1067330390984564e-01 7.8395388539221206e-02
      -6.5937056229239477e-01 2.9743562607167651e-01
      8.0727330750515830e-02 2.5073886585836691e-01
      3.6660393525833135e-01 -5.6090474051983985e-01
      6.4852049261210118e-02 1.9011245968630236e-01
      6.9719332871664264e-02 7.8612371120375918e-02
      -3.3862919191952845e-01 5.5794287987831603e-01
      -3.1372798771194638e-01 -1.9887392735045334e-01
      -1.8563595266239144e-01 -2.5072185610430892e-01
      -1.9154471774629533e-01 5.9958034543330085e-01
      5.1965933633318673e-01 -4.3400639828262300e-01
      3.6824396521825370e-02 -5.7132039250301248e-02
      -2.6249147670488382e-01 -5.1492587283343649e-01
      3.9650936328579789e-01 2.1415988154156604e-01
      -1.5580629969296864e-01 2.2080551674783946e-01
      -1.6335095303988231e-01 -1.8509296706858036e-01
      -2.9449199607133425e-01 -7.4804848974623073e-01
      -4.8561599801066674e-01 -6.4400196214786065e-01
      4.1981138061448947e-01 -9.6005486484688651e-02
      6.3640677060152681e-02 2.3574784408673724e-01
      -3.2686932015100323e-01 5.6038786979358468e-01
      -3.9527550257344418e-01 -1.9972581441011572e-01
      -8.9279725551728717e-01 6.8080619377476148e-01
      -2.9981074805335302e-02 2.8910220203769495e-02
      7.0653997728187925e-03 -9.4488972650826151e-03
      1.8825452178787025e-01 2.6730774031914362e-01
      3.5664773393590515e-01 7.0306450789109587e-01
      5.8323930272216284e-01 -3.0125384984923964e-01
      -9.9274887923676280e-02 1.3713742073294910e-01
      5.1051684356266953e-02 -3.5559546592920199e-01
      -8.1623249590809044e-01 -5.3683647637599774e-01
      -1.7709671051807005e-01 1.6334838171779144e-02
      -6.3015867772609568e-01 -3.0384940242960923e-01
      5.5936012513417677e-01 -2.4014345599577050e-01
      -6.9486503243507497e-02 4.2775836300529213e-01
      -1.2136866085118415e-01 1.7616101224822395e-01
      8.0329808442835260e-01 4.3595385112460344e-01
      -1.6362503729686897e-01 2.1742101286415888e-01
      -3.6009266405520357e-01 -3.2722296694497560e-01
      -3.2828535186391034e-01 7.1779356098735037e-01
      -3.0645734537377101e-01 -1.1878536569281885e-01
      3.6067772478370647e-01 4.2037454340435160e-01
      -1.7890112477249029e-01 -1.2355502591925722e-01
      1.9199368501426298e-01 -7.4047730021965552e-01
      -7.5959715379333292e-01 1.7155579802217297e-01
      8.9981751906165142e-02 -1.3341375259803956e-01
      3.2017701133979687e-01 -1.6740271955544633e-01
      -1.1131768264699105e-01 6.1191104498638083e-01
      7.6061529566605127e-02 -1.6521406477500100e-01
      4.9400720366908502e-01 1.7058247461337403e-01
      1.3305084145784771e-01 -5.0210414430191541e-01
      4.0948679559913781e-01 7.0997728384987330e-02
      -3.9278628377738523e-01 5.3666111432775550e-03
      -4.1314624599558875e-01 -2.9526989774667761e-01
      2.1688937113215290e-01 -7.9686336137651892e-01
      4.7385177211207406e-02 -4.1960822065441339e-01
      3.8110292203152185e-01 2.6988063734697271e-01
      1.8497918985384459e-01 -3.9760007186781710e-01
      -8.5094204308568266e-01 -6.6474854861107735e-01
      -9.5763978671181060e-01 -3.0709114531921700e-01
      -3.2903511804198893e-01 -1.5868033792840253e-01
      -2.9522210183235231e-01 -5.6017163831276784e-01
      1.8385284832163148e-01 -2.2830121333500533e-01
      -3.1126201156503491e-01 6.0428008893188545e-01
      1.3930318187775215e-01 -2.4377767462065444e-01
      5.4881291093699847e-01 4.9705251306787934e-01
      -3.3670285254324567e-01 -4.0027223106589460e-01
      -3.2937013395509340e-01 -6.5697641725791311e-01
      -7.8308062957646821e-02 -3.6528848395581975e-01
      -2.9441421946647661e-01 5.4884525145152525e-02
      8.2350949207418631e-02 8.6494979271621628e-02
      2.1432350281335436e-01 2.4870727191919356e-01
      -7.8492652878687941e-01 3.3598758771240481e-02
      2.5819159978431411e-01 -3.9672570584670386e-02
      -4.9042576380512160e-01 -3.3632892159118366e-01
      -3.7854599067707806e-01 -1.1423831114871701e+00
      3.6205759899697798e-01 -3.3247263095367224e-01
      -1.3065635570544296e-01 1.1251137865497535e-01
      -1.2686959553266250e-01 1.1309410319661423e-01
      1.5767861655020989e+00 -7.3169759439001253e-02
      5.3156990932141046e-01 -1.1132240913090183e-01
      5.6703917383832014e-01 6.7230671620012650e-01
      -1.6771250323671563e-01 3.2178714565818506e-01
      -7.5722542064040033e-01 -7.3175120323000664e-01
      2.1551518543576365e-01 1.6142542962931575e-01
      1.5073726279217750e-01 1.8077278347458919e-01
      -7.0259757233417408e-01 -8.6041183343001135e-02
      -4.2225477733343314e-01 -3.3554288674739141e-01
      6.5911061888820244e-01 -9.9177643775211113e-02
      -5.0986745004939757e-02 8.8619713167850278e-02
      2.0382959438636450e-01 -5.2357096668287373e-01
      1.1892435089393799e-01 -3.2499191723994425e-01
      -4.3506828977286705e-01 -1.4069324942967293e-01
      8.8026174193303774e-01 2.6255733590745367e-01
      -1.9804286494674309e-01 1.4503605378570710e+00
      -4.2469061185967677e-01 2.2492674478182728e-01
      -8.1876465690149181e-01 3.6664847586748156e-01
      4.2482494736306088e-02 -3.7971190441847297e-02
      -5.3165937304780553e-01 -4.4786950315717750e-01
      -3.1731856717158252e-01 1.7713350679332501e-01
      4.8546513852652788e-02 -1.7470772376183430e-01
      -3.7100299710747642e-01 2.2397365170041530e-01
      2.1951473850461745e-01 2.1682424059923777e-01
      5.5314126690830012e-01 -7.0156105881551717e-02
      2.1530209687151178e-01 -5.7870803051256685e-02
      3.3656939304269140e-01 -1.0843506177155546e-01
      -6.3031974497627846e-02 7.1832789606416414e-01
      2.0031261295865480e-01 -1.1960846149758254e-01
      1.6592039492049016e-01 -7.3143010740020442e-02
      -5.7625227145988078e-01 -1.0176034630802373e-01
      -6.2784752648524836e-04 2.1667266644885091e-01
      -1.5687874512536415e-01 -2.5222910601725053e-02
      2.0104708877168395e-01 4.9392058510357711e-01
      -6.0403944266094939e-02 -2.8140368852510050e-01
      -1.8345330559742154e-01 2.7699666514450938e-01
      -1.2281752178259575e+00 -1.1661554342112654e-01
      -6.0881067381937859e-01 -1.5806294949346333e-01
      -1.1819219345433639e-01 -1.4895916509601392e-01
      -1.0535611025456457e-02 -7.0991430622595067e-02
      -6.2192026608226991e-01 1.8332723057429795e-01
      8.2581029554136021e-01 -5.2770395767345046e-01
      4.7538621794158153e-01 6.2882341060453295e-01
      -4.0654770722124067e-01 1.2629966869676845e-01
      1.3378134777950204e-01 -1.2038718083196530e-01
      -2.9869821752983316e-02 9.8338236058289286e-01
      1.9192121154750044e-01 1.4558174371633262e-01
      -6.2862278409564876e-01 -4.8221749212853338e-01
      2.0820864041899556e-01 1.8279746728772184e-01
      6.5455883479326549e-01 1.0492708458807951e-01
      4.6859736678546642e-02 1.8843985392102766e-01
      -5.6887143870024570e-01 -2.0401042877808837e-01
      -2.3536163840065744e-01 -2.1648480426242281e-01
      1.5460166125741237e-01 5.8438640421621646e-01
      -2.9650852148494916e-01 -7.9400018373801506e-02
      2.2867995623310014e-01 6.3118142930033116e-01
      -4.4064606948570956e-01 1.0066061294926734e+00
      5.8493632745151047e-01 1.8353166092545112e-01
      1.4395771024614037e-01 2.1411830258989073e-01
      9.8650444373588619e-01 2.4762412989277752e-01
      -4.3671296246906571e-01 1.8459974202975171e-01
      -3.9329782131831276e-01 -1.7722116226956719e-01
      3.3914191618263434e-01 6.7269175146136373e-01
      -5.7155397251685292e-01 -1.6528173527082124e-01
      -3.1234315409728336e-01 3.1229935399676084e-02
      2.7801456493649984e-01 -4.3912039998305191e-01
      -1.7776112863462204e-01 6.7252540024818813e-02
      -2.8224021231061158e-02 5.9628759916344287e-01
      -2.6397702797751227e-01 -1.3383324472741948e-01
      -8.9702451209365108e-01 1.1389183101444147e+00
      -7.6048714910529558e-01 2.4995337576782028e-01
      -8.4930759546461554e-01 -2.5794551746445371e-01
      -1.8046728038515550e-01 6.1661821321442711e-01
      5.1792492112881128e-01 -7.4756517548158125e-02
      -3.3007172009923541e-01 2.1921797749602182e-01
      -6.0024727679880249e-02 -1.5531147693051695e-01
      1.7799618295656938e-01 -3.5060184495368307e-01
      -1.8156559126833452e-01 6.2435340759707345e-02
      -4.0608890650949248e-02 -6.0276598365012268e-01
      5.6075663966342988e-03 -6.6076583346984269e-02
      -7.0368605402237472e-01 -5.4944231672852362e-01
      4.8261706657936838e-02 -3.8880025540288708e-02
      -2.0828952717011487e-01 -4.5868138526552277e-01
      3.1429982565393683e-01 2.9161134940292582e-01
      1.3278731969009608e-01 -3.3998523835228839e-01
      1.0074483009347605e-01 6.9515779186727647e-02
      -3.4508455668012228e-01 5.6629179334726543e-01
      -4.5815789564710613e-01 -3.0266455492346478e-01
      -1.2220506595022405e-01 -3.1450550219156953e-01
      -6.4180376219683352e-02 1.3063294677896198e-01
      -2.4509451222521830e-01 7.4793278248634176e-01
      -7.2041903516054306e-01 -2.6115821665324532e-02
      4.5397797838499432e-01 -4.9370477777815258e-01
      5.8838701905749946e-01 5.6915911096279088e-02
      2.0855700000180027e-01 -6.7073112254733758e-01
      4.6140356804425797e-01 -3.7177627080604686e-01
      5.0086594602450053e-02 -2.4623228170539344e-01
      -2.6123591597497386e-01 2.0390052958591273e-01
      1.9144247198747588e-01 -2.7724790883134301e-02
      1.4927113915956577e-01 -6.7012881656942280e-01
      5.0691635397282853e-01 3.5510716448380691e-03
      2.9884933078541004e-01 8.7353408186832882e-01
      -2.3812084163070871e-01 -6.5379121527214545e-01
      -2.2069874843465728e-01 1.0537283788638914e+00
      -4.5826780086425895e-01 9.2457292260877388e-01
      2.4134234183077038e-01 9.0494487258120793e-01
      5.5304715446742136e-01 1.0030697155347755e-01
      4.9312499635769097e-01 -5.3424932400415870e-01
      -4.5203505744828670e-01 4.0011730604961698e-01
      5.5289232094988860e-01 -2.9458552607757726e-01
      6.6384151729116186e-02 -2.8942525057282376e-01
      -8.2336760845774526e-01 -2.4628397652358031e-01
      5.5775661752436693e-02 8.8808539608965464e-01
      -1.9962500050003851e-01 5.4947527369016191e-01
      -4.8717365064764201e-01 -3.1519411947513543e-01
      -1.9681455707824913e-01 -5.9882039408942456e-01
      -1.5141708940408088e-01 -1.7027958291572473e-01
      1.8484420945926169e-01 5.7353127891180122e-01
      -5.9189795617093727e-02 -1.0971515434186876e+00
      -7.2087352727699971e-01 -1.0530761497942227e+00
      5.3343824813877205e-01 4.1921143121684773e-01
      -3.3273752084000857e-01 -3.1720172884268105e-01
      -2.0040142126653223e-02 -1.6356556245389295e-01
      -7.0584630651669211e-01 -4.6920013778124631e-01
      8.5064247811716798e-01 -1.1443229347523318e-01
      -4.2451233687881856e-01 -4.6271902570912293e-02
      -6.5743280074250565e-01 -2.6367100014701824e-02
      -2.0726123670123187e-01 1.1163501440229778e-01
      5.0995273845480538e-01 5.4856503929266875e-01
      6.0015226576190550e-01 8.7659937730031390e-01
      2.7630806675845443e-01 4.4085967980394641e-01
      5.0040642887709090e-02 -4.3546977934831560e-01
      -6.9650409143129943e-01 7.6697398660228872e-02
      2.7450015825031499e-01 -1.9732907657167797e-01
      9.7588268301127490e-01 8.4082071442999617e-01
      -2.8529668238145189e-01 3.6829715893267645e-01
      7.7861091532708010e-02 5.2211784718225973e-01
      1.0352990662377028e+00 -5.5155598324125432e-01
      5.6407095845020211e-02 6.6196826645978660e-02
      1.8193178747975325e-01 -2.5652168899437688e-01
      1.9921791127442096e-01 1.6097785982630403e-01
      -3.9365150340743593e-01 2.7485721029529159e-01
      -4.0051378793246228e-01 -8.3015660131971328e-02
      -4.8332110776666448e-01 1.0287876551887354e+00
      -7.4216927237830976e-01 5.0965532238655675e-01
      3.9624851801196057e-02 -3.4661526239100610e-01
      -9.3273468655179070e-01 1.7033925123497001e-01
      -1.9976989583415455e-01 -6.0824709491361140e-01
      1.0357857831576532e-01 6.5672745738583171e-01
      1.0853246032130792e+00 -1.0856319190446571e-01
      -1.5488420953542801e-02 -4.1522555836919141e-02
      5.5520811297018136e-01 3.9005641199213853e-01
      6.3238928472691192e-01 -3.8170805832386512e-01
      1.5189130846650481e-01 -9.5931677273835081e-01
      2.9738463325445724e-01 -9.9657955720358710e-02
      2.1717366349029096e-01 4.5975002752217797e-01
      1.9348734727693079e-01 1.1699559324352836e-01
      1.0317320959219381e-01 5.0680738840130628e-02
      -5.5426092271407101e-01 -4.4522059568292377e-01
      4.2253860963653422e-01 -1.0550672666629203e-01
      8.8662745629686934e-01 9.1219983335053309e-02
      -1.0228946511440360e+00 8.3283956614260468e-02
      -5.5654633804337728e-01 4.3016862690902324e-02
      6.0089052799051801e-01 1.9997468416437350e-01
      -4.5972019780816792e-01 6.2669671644676606e-01
      -5.2903310016851779e-01 1.4639648687253379e-01
      5.6713747030928530e-01 3.1974673911271084e-01
      2.9982293081843420e-01 -7.9196930880987268e-02
      -1.8822421542673470e-01 -1.0407770549292141e+00
      -2.6730336260347093e-01 -4.1039690346953317e-01
      5.7433151952633454e-01 8.1812873351527882e-01
      -8.2184864999248464e-01 -2.4181110856123508e-01
      4.4353333510088738e-01 -5.4713951716219755e-01
      2.9244674885956856e-01 8.6843615922613859e-01
      -3.1533946126092599e-01 6.4319167565514013e-01
      -4.1735899110673415e-02 8.2054992149791939e-01
      5.2645977751205153e-01 3.0017996240392819e-01
      4.4352193980282728e-01 -5.6163856477654905e-01
      2.9484854400930027e-01 3.7493090204939222e-01
      -1.0670355688857702e+00 -6.3536501355939590e-01
      2.7810600402846875e-01 -4.9035506092507605e-02
      6.7176769385247337e-01 5.1883282351233473e-01
      4.4208274070715831e-01 -8.4223031762471401e-01
      1.5716248370860431e-01 -3.0888261472665002e-01
      3.8091888547901354e-01 1.0356196993002018e+00
      -1.2500131951583655e+00 -5.5236525661382395e-02
      -2.8543732886540263e-01 7.6962937162216227e-01
      8.4492968722999806e-01 1.1971934624785892e-01
      -8.9140107852624240e-01 4.7308630786328265e-01
      8.1565733254444564e-02 6.4858660100200738e-01
      1.1442627143428645e+00 1.7217610614488252e-01
      -3.8710650776300959e-01 4.2697217404954901e-01
      -3.2699240815727326e-01 4.2532964665005502e-01
      -3.0899629301377102e-01 3.3168372170628985e-01
      -5.4149846710529824e-02 8.9993879058164405e-01
      4.1231874540152563e-02 3.0023670289893595e-01
      -5.4776939623772347e-01 -7.5853262789149856e-01
      -9.5176414544575361e-01 5.6231868380874239e-01
      -5.4115985954765100e-01 2.4989576814771361e-01
      -1.7060940583632880e-01 -2.3847962712160772e-01
      -1.8288336340952602e-01 7.3054919826244435e-01
      4.0761673968467582e-01 2.9481910468998257e-01
      1.4820517227154895e-01 -5.2077855138026863e-01
      -6.5161277801680961e-01 2.8016860523174864e-01
      6.6313142918246015e-01 -4.4327967958823838e-01
      -5.2615672383938350e-01 -6.0124804142142230e-01
      -4.3325321137327866e-01 -7.9911172696373411e-01
      5.6381625124207924e-01 3.2991985953710362e-01
      2.7063188191825932e-01 4.1816145875704630e-01
      1.0408971763041333e+00 -6.9954303511264443e-02
      -2.7041231863607107e-01 -2.3705976389137112e-01
      6.5102251165011604e-01 -1.0068181946472311e-01
      7.8362354490231778e-01 -3.5396908851040593e-01
      8.0581050819316283e-02 1.6606019219725623e-01
      -6.5407108841514960e-02 -4.8984737829162787e-02
      -1.9330945969626814e-01 -2.8255243234554056e-01
      -8.0965357053302947e-02 -1.0607811335584028e-01
      -1.3477942174072419e-01 -3.6194582452588897e-01
      -5.5421673090842206e-02 8.5769511719519032e-01
      -5.1299310136097809e-01 3.5591148822275226e-01
      3.3763866689588357e-01 -2.4229322548864060e-01
      2.2582516071427200e-01 1.7132655986826362e-01
      1.4681408159159659e-01 -5.5896586419911232e-01
      3.1778550422979231e-02 1.4740395153461011e-01
      -1.5531696848890011e-01 -4.7148448610813232e-01
      3.5612226748778042e-01 3.9434045124217332e-01
      1.7831457463505998e-01 -2.9194604151917403e-01
      4.6487103981166977e-01 -5.7216094399890238e-01
      9.8881260889530598e-01 -2.0786983968547043e-01
      -2.1187946470213373e-01 1.0570980763085358e+00
      -2.3722172139814565e-01 -6.7459821472702353e-01
      -1.6159367589868268e-01 8.9140759248832946e-01
      -5.5237852341251592e-01 7.7171174351258720e-01
      4.4037797987446686e-01 9.2867257120536439e-01
      3.6128655012843419e-01 4.3840533244557311e-01
      6.1498067456574934e-01 -5.4145979209184159e-01
      -7.0232174072882875e-02 1.7267188406944894e-01
      8.0628201823269596e-01 -5.0180462788115243e-01
      -8.4266474369340774e-02 2.8679412652262058e-02
      -4.8423352037790296e-01 -1.1252915116606499e-02
      -9.1560332904340971e-02 6.6198797817198130e-01
      -5.0533254660973470e-01 4.5646558864622794e-01
      -3.1521337585616316e-01 1.2418527538275853e-02
      7.0509574546404911e-03 -1.0141895902513598e+00
      2.2576089336567864e-01 -2.8416066962772435e-02
      3.9886255291536993e-01 6.0047066826473250e-01
      -3.5204486846159305e-01 -3.9865802592858224e-01
      -1.2815411586889014e+00 -1.0234458745429167e+00
      1.4843909723713369e-01 3.6069736094999449e-01
      -5.3124889094592775e-01 -4.3140142180688495e-01
      -1.7245014015645690e-01 7.5250638328697203e-02
      -4.3369155883904092e-01 -1.1016307423245297e+00
      8.5272049578789688e-01 -1.7374348687575741e-01
      -3.8747004661993933e-01 4.1054620472542536e-01
      -2.7838427495883927e-01 3.2772021895317810e-01
      -6.6744545993375848e-01 -6.9247260673501579e-02
      3.6197074250390676e-01 2.2844384666944478e-01
      5.6778919892589530e-01 8.2381018262676986e-01
      -1.4208977810281564e-01 -1.9500034238618730e-01
      -2.2985758037085774e-01 -2.2956336175106493e-01
      -6.5254045097419988e-01 7.3532164964441216e-01
      2.0131257782814860e-01 7.8389111282959875e-02
      9.6770884033954518e-01 8.1005446127516045e-01
      -3.5912878324395478e-02 5.5460563722679668e-01
      5.2877464590554923e-01 6.8786415333762829e-01
      1.0960609835963919e+00 -5.5133645116734109e-01
      -4.5536283300689839e-01 2.9170752994964499e-01
      8.2250140830204446e-02 -7.0366525158776061e-01
      3.2349346573811671e-01 4.1695275679971028e-01
      -2.3568200371837589e-01 1.6444329512559910e-01
      -1.0948181986389650e-01 -2.1737679318125225e-01
      -6.3347193752395914e-01 5.9947151204534088e-01
      -2.4552754284502784e-01 4.2828795142363085e-01
      -2.0049334330344229e-01 -3.7401706616385549e-01
      -8.5041104639375475e-01 -1.2862908669538875e-01
      -3.6209090042730224e-01 -4.0567626842180510e-01
      1.4354014829665232e-01 8.0968916692353943e-01
      1.0518846682086398e+00 1.1171589065787578e-01
      6.4265671057748913e-02 2.0595368730076860e-01
      6.9333243098551156e-01 2.3894491352482980e-01
      6.2826584743139491e-01 -8.4611425392934136e-01
      3.8224454774899136e-01 -7.6091329381813910e-01
      2.5084541115031994e-01 8.2400733214956029e-02
      7.7246936488553763e-01 4.1244156713206154e-01
      3.8567715266118663e-01 2.6843958753393454e-01
      -2.2966145096664023e-01 -5.1612582349008351e-01
      -5.6342989000168942e-01 -1.9851719162622836e-01
      6.5213791936643428e-01 -1.6485426310028195e-02
      9.1734465449765168e-01 3.4497687235594926e-01
      -9.1844510708213178e-01 1.9181758800881307e-01
      -3.7778108629600943e-01 6.7341188975832966e-02
      2.8872801720450642e-01 1.0270770552098336e-01
      4.3814605256083453e-02 8.2651110949186968e-01
      -4.9244073456491333e-01 2.0122395026583009e-01
      7.0039747185981971e-01 1.5056058014588197e-01
      -1.4122542286403443e-02 3.4145837318522644e-02
      -4.6387879038348817e-01 -1.0304505298257449e+00
      8.9139214791753199e-02 -3.9998180681108259e-01
      7.8908840550619230e-01 8.0618414344578349e-01
      -7.4791650101897467e-01 -4.3102008018515298e-01
      2.2190500028037444e-01 -4.0457139952466653e-01
      3.5077785638433390e-01 4.5111908929990602e-01
      5.4715696741376628e-02 4.9469360453039790e-01
      -3.1925697102994621e-01 5.7975430218513013e-01
      4.2377153862162126e-01 1.6342620939743871e-01
      3.6129666161826163e-01 -3.1846984890142011e-01
      9.0009347264787387e-01 2.3379192629957321e-01
      -7.3091327288660612e-01 -6.3207809979488205e-01
      3.2354397027735532e-01 1.7160424205929098e-01
      3.4946821634002279e-01 2.9071038192401588e-01
      -5.7419208721857420e-02 -4.6865616264394866e-01
      4.3519355128047826e-01 -3.9192150788235364e-01
      4.6617341017807445e-01 6.8752563298711100e-01
      -1.2399974257590214e+00 2.9111411220626277e-01
      -2.5455770640140385e-01 1.8547404143831794e-01
      4.8913646564972924e-01 1.0766595253637701e-01
      -1.1095731262077300e+00 1.1378051811757919e-01
      -1.8886930531253211e-02 9.9526098410473662e-01
      1.2121520325701540e+00 -1.0739940504407712e-01
      -5.7131298054653989e-01 4.1311103903578411e-01
      -2.7512158972043133e-01 5.4822170222126299e-01
      -8.3854442486330602e-02 5.6097139598124679e-01
      2.3031836572204201e-01 8.5547331641079971e-01
      1.3606347576111941e-01 2.4803059494092219e-01
      -3.9521440191995422e-01 -9.2397867956156243e-01
      -2.7322161795842315e-01 3.6095041172155187e-02
      -2.9546420824402903e-01 2.4276213968933630e-01
      -7.3951851080990672e-02 -3.3541884046430648e-01
      2.4707862892005861e-01 5.8756949791056268e-01
      2.2167257387334943e-01 2.0613617489442662e-01
      -8.1505091418098655e-02 -4.1751088475234549e-01
      -7.3886459737260435e-01 -8.5559231112125808e-02
      3.7644066420496974e-01 -4.6532097973136033e-01
      -6.6589140464224095e-01 -5.5456009355275493e-01
      -2.5079498543473150e-01 -3.5382747732286857e-01
      1.7226115608384296e-01 4.4787991048308434e-01
      1.2044697793833115e-01 -6.6121017961994410e-03
      1.7586703775447370e+00 1.9165676046115601e-01
      -5.2897814265130627e-01 -1.3452322127054853e-01
      6.7398439679547573e-01 -2.0299870611871576e-01
      1.0535343940081554e+00 -4.7834123459582856e-01
      -2.3217623610664750e-01 7.6889050260677647e-02
      -1.1674597397869046e-01 1.0646991233940273e-01
      8.3854824049728507e-02 -2.7086801344868555e-01
      -1.7362619600995669e-02 2.1727556747944035e-01
      -2.4505237332091526e-01 -4.0972681718490911e-01
      9.4944208807354723e-03 9.6033335744037052e-01
      -2.8890312424745868e-01 3.8423891434784474e-01
      9.7059418431080555e-02 -8.1193164487561517e-02
      -5.8433064777721444e-01 -3.0831174732420413e-01
      -1.6381778507352363e-01 -5.1436520541141417e-01
      6.2407472757537086e-01 6.7973862885282899e-01
      7.3619157736111267e-03 -6.5237118562795382e-01
      4.6788960753295944e-02 4.4981052764020035e-01
      3.8611913475731513e-01 -3.9999917828048598e-01
      6.7704394346216690e-01 -3.9661762599780764e-01
      3.7459171974116251e-01 2.1092386920420980e-01
      2.0206006860145856e-02 7.2762185509099842e-01
      -3.1750482362331073e-01 -3.1326675906011431e-01
      1.8803943125117947e-01 9.6965656013292337e-03
      1.9799782382908929e-01 -5.1023485563713528e-02
      2.8361081348668432e-01 4.5748376213376768e-01
      -5.1240487599385071e-03 -2.8285521590905055e-01
      5.2940017662754635e-02 -2.2467915670830513e-01
      1.2654435836336983e-01 1.9600876514443286e-01
      -2.9454030052446478e-01 -9.7437148387602990e-01
      -8.0877968083570151e-01 9.3933402052620474e-01
      -2.3717380902047402e-01 -2.1891428379070579e-01
      -2.5748451224518742e-01 2.7629617821560248e-01
      -1.6503598822964602e-01 7.8010919202492007e-02
      1.1232941903576317e+00 4.5831440494022330e-01
      -5.1114883768942310e-01 -8.5245781376432861e-01
      1.6578473346714151e-01 -1.0836097236187191e-01
      1.2898375909333246e-01 3.4719996488860516e-01
      1.2620940269258663e-01 -2.8000552355901559e-01
      -3.4082652731625535e-01 -1.9954648132989877e-01
      3.2519839366976977e-01 2.3811470098346954e-01
      -4.9268224973231611e-01 -1.0829503242302658e+00
      -2.6619827251030631e-01 5.8475609245604876e-01
      -1.0576718203244662e+00 -8.1169081877622618e-01
      6.9844545948352904e-02 -7.7210253679437468e-01
      -4.0271040093847232e-01 7.3994147780831399e-01
      -7.4011317223094897e-01 6.8708054034110777e-01
      -5.4623934068753677e-01 4.5595710110188886e-01
      5.0101586433888068e-01 -9.8702017888187299e-01
      -1.6614930120007104e-01 2.7312825477683611e-01
      1.8572745452799272e-01 9.2777870877773227e-01
      -3.2312997162167928e-01 2.0452777166074268e-01
      -3.6980610749007831e-01 -4.9865752159464122e-01
      9.8851955149314941e-02 1.1773654936767777e-01
      3.5541813245204212e-01 9.9926755034074166e-02
      -1.6275302542159117e-01 3.4893987113908204e-01
      -1.2195300469797041e-01 -1.2213229830558711e-01
      4.0612789653404152e-01 -4.5279516448701612e-01
      -6.4563592119900426e-01 8.4904631935375618e-01
      8.9793745570893324e-01 -9.4377646528616110e-01
      3.7286400238622119e-01 5.3963948912838267e-01
      -6.1250375687746217e-01 1.3466896074080306e-01
      1.0907844465814813e+00 -3.0215237458552591e-01
      -4.8033468857164924e-01 9.0076596825501365e-01
      -5.6353381709392936e-01 -1.0277840347597303e-01
      -3.6173315210877049e-01 -1.9284322775032844e-01
      -1.3514969509240826e-01 -6.0090532243580741e-01
      -2.5700577241732331e-02 1.2794481190182630e-01
      -7.2219400329043032e-02 1.4934326276450774e-01
      4.2265485758173432e-01 1.5829628821227504e-01
      -3.3534269759338720e-01 5.6011463080392421e-01
      5.9691544750953285e-01 5.9394493101647894e-01
      5.0308385537242106e-01 -6.0415480771560570e-01
      -3.7234728611482283e-02 1.5005750160673087e-01
      7.8664829623393759e-03 2.8140718505466888e-01
      5.7810382872102495e-01 7.0940295853863733e-01
      2.2528361261599958e-01 1.9975599591038418e-01
      4.0607531289698567e-01 -7.3476914230734502e-01
      -7.7861644058519075e-01 4.7284584992672921e-02
      -2.9060878156206055e-01 2.0511576193655237e-01
      1.4440477702155410e-01 4.1460313966941681e-01
      3.5808241355932253e-02 1.0531679414113948e+00
      -5.8571946154508510e-02 -1.0824464687340982e+00
      2.3763311749013491e-01 -3.7299095547015377e-03
      -7.5873349706461368e-01 3.8070788637213820e-01
      1.5901684639999281e-01 3.2814087749051146e-01
      1.1018657938513663e+00 -8.1484780011725710e-02
      -2.0267948322550344e-01 2.9280363124313896e-01
      -5.6513937474085639e-02 -2.2229328682865834e-01
      7.1883579309203216e-01 3.8230806062651619e-02
      1.9958035733229948e-01 4.6847672077754099e-01
      -3.2039845888934904e-01 -2.9613469927080815e-01
      -3.4318952322476154e-01 -6.1982814545151954e-01
      -2.5113676793341494e-01 8.2769486961123240e-02
      7.6741175362008418e-01 5.2327870610166571e-01
      5.6466982360293838e-01 -3.5342113338501957e-02
      1.6865742773709858e-01 1.7748525233866294e-01
      8.1779182673542372e-01 2.5474635765192381e-02
      2.8998484465017943e-01 5.6307543341016242e-01
      -4.2422472068750167e-01 -3.6088873599960775e-01
      1.8860289427071536e-01 -2.8162142562353676e-01
      -6.3284150489271093e-02 3.4041661112191990e-01
      -5.9101538751838475e-02 -2.2422651016162864e-01
      6.6093053854074935e-02 7.8026548201784096e-01
      -2.9999498123958146e-01 2.8518369092008736e-02
      -1.4083102896437916e+00 -1.6750398899112337e-01
      -5.3106079237087700e-01 2.1526629489940885e-01
      1.4517004234310921e-01 1.0207553303896577e-01
      -3.2330240770478186e-01 1.1558807726413699e-01
      -1.6748414387839450e-01 4.5747773261070840e-01
      6.1972094232850550e-01 7.1206914554769485e-01
      -6.7731969381220736e-01 1.6755729241734249e-01
      -3.7793814712617474e-01 3.3033935737169823e-01
      -2.6289815917555720e-01 1.9757099134901701e-01
      4.8220692521506608e-01 -3.0324568413508657e-01
      5.1782723358188398e-01 2.3051111233370586e-01
      4.9525765636884317e-01 -2.6575499448905587e-01
      -5.3443678056515809e-01 8.4852979221801128e-01
      -2.8832233620232561e-01 3.1129812559403617e-02
      -2.5645305123992712e-01 -4.1032688499247355e-01
      6.8313888710593695e-01 4.8341262507379751e-01
      7.6785051400123661e-01 1.3806506608760441e-01
      -2.3580540564856900e-01 -2.5914730826506199e-01
      -1.3310826969539044e-01 -4.3366251512655624e-01
      -6.2238401716654468e-01 -1.4655458711579702e-01
      2.1064675805515234e-01 -8.9453620043274285e-01
      -1.5287753545648597e-01 6.2009220331803505e-02
      -1.9953183458654020e-01 3.2685489408507445e-01
      8.1498592982294352e-02 -8.1598079358425696e-02
      6.2352119206819911e-01 4.0857169660646647e-01
      -4.1387663404115815e-01 -7.6893510909708873e-01
      7.0205296079843282e-01 -3.2067194586583463e-02
      4.5516010117930272e-01 -7.7227128449236682e-01
      -3.3811840036569135e-01 3.4439701326876582e-01
      -4.0755609289527356e-01 2.2264813798405469e-01
      5.3120997157266925e-01 7.5344043033517142e-03
      -3.1683111306194650e-01 -1.6168512752798186e-01
      -5.1269741353383791e-01 -1.9621362920486182e-01
      -9.9517203822103148e-02 4.1998462635837147e-02
      -6.9305274747980483e-02 4.0948421064168287e-02
      -5.8400118768576655e-03 1.1202101745343318e+00
      5.9893054338895989e-02 -6.2827322184647741e-03
      5.3585762095462020e-01 1.4798084246112081e-01
      7.6590759014051796e-02 1.1904529911380883e+00
      5.3577187539588711e-01 -5.2201416839512849e-01
      -6.2853570424854333e-01 -2.4173585891408203e-01
      2.6892019488722807e-03 1.4455337598880705e-01
      1.0371652097921119e-01 -5.3122783725855915e-01
      1.8176212154376034e-01 6.5651324309071168e-02
      -1.5839140520011143e-02 2.3476271404407117e-01
      -3.8886115846125990e-01 -5.0277852997589599e-02
      8.1951554251320377e-02 6.9754896657731091e-01
      -4.7802287997293846e-01 -2.4298181211382980e-01
      -1.0170401815949390e-01 1.0888625779853893e-01
      -3.3828913811739525e-01 -1.8835423645474997e-01
      2.7550647777003134e-01 -2.3225684799161414e-01
      5.9962688423342991e-01 5.7360312259001078e-01
      -8.4764955736882563e-01 -3.5623223698818807e-01
      -4.6712070948809226e-01 4.0538021110309702e-01
      5.4346807687988075e-01 4.1942568844420219e-01
      3.2564520606049606e-02 -7.3285949742018963e-02
      2.2372774606637083e-01 -1.7816079443546817e-01
      6.1916934064654094e-01 3.1725291081527829e-01
      7.1993711251875270e-01 -5.3817850994548588e-01
      5.7015548817946382e-01 6.4486677293386230e-01
      -4.5461849190582349e-01 -3.8007714200135621e-02
      8.1698543670109380e-01 -1.9887766030487700e-01
      -2.5219394763210007e-01 -5.5765006352932101e-01
      4.4028068733838660e-02 -3.0952026706720898e-01
      -6.1292126532631819e-01 -1.3606178729133322e+00
      3.9623120428493008e-01 2.6470659215553960e-01
      -2.4176366194543156e-01 -1.0978700472333415e-01
      -6.6938000220480992e-02 -7.7060757267614452e-02
      -1.3601472163211810e-02 1.6262083624583887e-01
      -3.2752036397802398e-01 4.7782277462490569e-01
      -8.6545301419809789e-02 7.9312095452922160e-01
      3.3237766741025310e-01 -2.9822886688720879e-01
      9.0865327005251240e-02 1.5594460333869561e-01
      -4.1787228067303013e-02 5.7667142288835860e-01
      -4.5991273887968076e-01 -3.5994315569419089e-01
      -5.6460949989770559e-01 -3.7172773862087199e-01
      -8.7910746074301230e-03 -9.6687559106068237e-03
      -1.7204703240707950e-01 -3.6589013677256443e-01
      1.0210495266961912e+00 2.2960885005159481e-01
      -2.0151690047495001e+00 2.3974417101294881e-01
      3.2810664868699974e-01 -3.4056872511206937e-01
      -3.7382857523425106e-01 5.4613467507405555e-01
      5.4070999343937654e-01 -1.6620486626321782e-01
      3.8481850982460314e-01 1.1183744745246180e+00
      -4.1708176888666554e-01 6.1028209944684231e-01
      4.6926897486443037e-01 -7.1199043212659699e-02
      -3.4338195880696892e-01 4.2587002156667214e-01
      -1.6012519131322625e-01 1.9896729775370803e-01
      -7.6602695492124673e-01 4.2357414367796348e-01
      -4.7203004936850967e-01 -2.0994970646496414e-01
      5.4378838622977088e-01 2.4374265143448681e-01
      -2.6768319918730099e-01 -9.8378501441349686e-02
      1.7828941298874301e-02 3.9943135411485692e-01
      -6.7332573416377739e-01 -3.2441369252077762e-01
      6.9109828977250931e-02 7.2272792762426341e-01
      3.3965591271819695e-02 -3.1803253816990573e-01
      -5.5623498349954315e-01 8.4349512906672841e-01
      5.0958671519369370e-01 -3.3923979794624098e-01
      3.7087180026640959e-01 8.3217955884991712e-01
      -2.7505328205814378e-01 5.4549724550018475e-01
      2.0680393036231193e-01 -8.1350582286746886e-01
      -7.5924428980456482e-01 1.9496889680585017e-01
      6.3864818951629820e-01 1.2880359233616281e-01
      -2.7807941145722059e-01 -2.3176909739215493e-01
      -3.9485078877300661e-01 3.9025465980921104e-01
      5.2923663420559053e-01 -5.1343789127082695e-01
      6.1655691413077612e-02 -1.6848174187002582e-01
      -5.4799634462821367e-01 3.6568199658632322e-01
      6.3732839721434487e-01 8.9837313800362795e-01
      4.2939783491763078e-01 4.7433227520547644e-01
      -5.6170110320699546e-02 8.2259857405693831e-02
      5.3629469116044548e-01 -5.3008974901051165e-01
      -4.0711396090980650e-02 1.3569359155407179e-01
      9.6022128580051241e-02 6.6092293614087938e-01
      2.3611525038163433e-01 1.0206727455230113e+00
      -1.1892961051841115e-01 -9.8120501223159529e-01
      1.1487749483676883e-01 2.6970311024339677e-01
      8.2932908280831630e-01 3.2608357994473325e-01
      5.0178950709267844e-01 2.9293419626271533e-01
      -1.5297350459290271e-01 -2.8014710047800245e-01
      7.7386723764602794e-01 5.8846481594349076e-01
      -2.0681020776168432e-01 6.0061512221158386e-01
      2.1336882976348504e-01 2.7104069876007753e-01
      5.4635290453328145e-01 1.2792414798812629e-01
      -8.1760813470515159e-01 4.6452555578671545e-01
      5.2244692299228135e-01 1.9680545230321225e-01
      -5.9977009949301952e-01 6.5997153147081999e-01
      1.5673105401752849e-01 -2.1024750836481565e-01
      -6.0362791435096785e-01 -6.9825837428659332e-01
      -9.0167866364250437e-01 3.5907537265668554e-01
      -1.7900229522191125e-01 -4.4265476510289709e-01
      -1.0914729778794448e-01 3.8498530117155239e-01
      -6.6610327460888564e-03 4.3117614262729687e-01
      4.8862458019933647e-01 3.1918227292940443e-01
      -5.4293334623110856e-01 5.3435781510560443e-01
      -1.9434017081580707e-01 1.6567403426411639e-01
      -9.0333847155989955e-01 4.7505761595313856e-01
      6.5841167670615020e-01 9.5973684275443533e-02
      2.2739755270237114e-01 2.1074696121190720e-01
      4.9920424354631232e-01 -4.4993092935454004e-01
      1.0449422718631347e-01 7.5398624457475283e-01
      1.4614673689321029e+00 -4.3532003266690994e-01
      -4.3641911368185604e-01 5.7771122306898437e-01
      2.2220524532141189e-01 -1.6358798888904613e-01
      1.0391825846309449e-01 -2.7710981512881877e-01
      2.6167801007654429e-01 -2.1603124163826388e-02
      7.7929108046487922e-02 -9.6507354672187795e-02
      -1.7411538577432255e-02 1.0233571386958995e-03
      5.3218190795120734e-01 -8.9066517075169427e-01
      7.1506089742666579e-01 -4.1456326864823101e-01
      -8.1586299757457914e-01 2.3403565263564151e-02
      8.3434235538242274e-01 1.5979394750076314e-01
      -2.0601458268193448e-01 2.1216138449578628e-01
      -5.9767564603744805e-01 3.1785950289258241e-01
      9.7154136293623253e-02 2.8600557469454302e-01
      1.4928353269276406e-01 -3.0365094283887284e-01
      5.1440583332913647e-01 1.7570847779391990e-01
      4.4397877988548662e-02 -4.0422375890935053e-01
      4.7940001409531274e-01 3.0477358200421356e-01
      -1.1998181487504258e+00 -2.1306195972329964e-01
      -7.9375348801630985e-01 5.7442445392525410e-01
      -2.1284478758795655e-01 -2.6374551700393672e-01
      -1.5929954326481055e-01 -1.5628355707733857e-01
      7.8370496519399577e-02 1.2331990765416607e+00
      2.3958849957911605e-02 6.0778995704696748e-02
      7.3930254266924522e-01 3.4208035347195975e-01
      3.4948525406982855e-01 9.2675982464671569e-01
      7.7344343805202787e-01 -3.0378154647276057e-01
      -1.0009341275758470e+00 -4.3008529959574404e-01
      -1.5254050998983423e-03 2.9430385015723382e-01
      2.1850489585700052e-02 -2.1578839855268817e-01
      1.8775943992639335e-01 -5.3512763307646127e-01
      6.1828756724246414e-01 3.2562172096575581e-01
      -6.7330139941904044e-01 -9.1606582261137146e-02
      -4.0990559423272782e-01 5.0494963424783068e-01
      -2.7305654753383612e-01 2.0014151925433102e-01
      -1.5742931792804354e-01 1.6563038851862288e-01
      -6.2820990694928958e-01 -4.0785453102397767e-01
      2.5029030600042151e-01 -6.6009215524491766e-02
      3.1197157359460148e-01 4.7650432483642569e-01
      -4.7169429674694974e-01 -5.2316224718238914e-02
      -1.8643799421339724e-01 -1.2266342982272102e-01
      7.1898842471196933e-01 7.5922716131616774e-01
      -1.2495194824240415e-01 -6.4038107971329350e-01
      -1.2342173990432971e-01 -4.4288561920007236e-01
      5.3884041886527134e-01 1.5777123015798145e-02
      6.5002979870522293e-01 4.1524349689451001e-01
      5.2596309954151266e-01 1.0810124318242351e+00
      -4.3776276282591525e-01 -2.2187536459679857e-01
      1.0459277607558812e+00 4.3100515216570094e-02
      -7.7859564162820555e-02 -4.0326696998714806e-01
      -2.1066102349310195e-01 -7.4015089740665452e-01
      2.1075872747026856e-02 -1.8193592375945214e-01
      6.0310927311172169e-01 5.6015452705627952e-02
      -3.0456144502909821e-01 5.7635085399124886e-01
      8.1271126996461940e-02 2.1236857468174866e-01
      -1.9481098530983210e-01 -2.3216977692267368e-01
      -4.6945544020322499e-01 1.7664067930264152e-02
      3.0329681417230581e-01 2.3511724830511568e-01
      -2.5910089749585918e-01 1.2090154545423297e-01
      6.6400525226938023e-01 5.7372781119920557e-01
      3.1983865706668307e-02 -5.6186628099776946e-02
      -5.3887810585024766e-02 -7.2299886484780307e-01
      -3.9878362106177079e-01 1.6445129290456970e-01
      -1.7274956622266588e-01 1.0439080837959391e-01
      -2.3411189965834237e-01 1.8461059749263814e-01
      1.0029494258733753e+00 -1.2687606742276289e-01
      -5.8160118485806955e-01 1.1402515700214175e-01
      7.1075386780534433e-01 -3.6588124012341725e-02
      -2.3814384459823629e-01 -2.1192810486937910e-01
      7.0712596773971759e-01 1.5101828566303133e-01
      2.1409166980961639e-01 4.9624811093674159e-01
      -5.9385985507486738e-01 6.6869043524583494e-01
      1.6083820165044327e-01 1.0728509295822411e-01
      5.3987508223091278e-02 7.5220316771995999e-01
      -2.3323225993524224e-01 -9.1713848240931956e-02
      -6.6633775808491869e-01 9.9555875064659075e-03
      -4.3974615362574054e-01 -6.5468648696448195e-02
      1.1264449967183321e+00 8.4897098781969882e-01
      -2.4528438219528273e-01 -1.7999065780470991e-01
      1.5007427198492115e-01 1.8815029466772806e-01
      -4.6024743030797582e-01 -3.4510852716463397e-01
      -3.5660182984751759e-01 6.8004458794530720e-01
      -7.2344656489020623e-02 1.6926996451659676e-01
      -1.9642400283888944e-01 7.0357924362606050e-01
      7.5683289372945151e-01 -3.6639857573429213e-01
      -5.1775641341155941e-02 -5.3546097567504514e-01
      -1.1804008171245126e-01 4.1719017633447952e-01
      8.3486618626321361e-03 -4.2356379612892892e-01
      -5.2804089434020163e-01 5.9318805208747971e-01
      8.0637634777695688e-01 9.7639320635947865e-02
      -6.7210240878856664e-01 -5.8024892259783278e-01
      -3.8959184100758609e-01 -1.3758000741858176e-01
      5.5337899959902481e-01 -4.7499499847672551e-02
      1.3858957430664057e-01 -3.9759041589702615e-01
      -5.1294157895314177e-02 2.6592335827659880e-01
      3.9743406142864979e-01 8.2897119959379928e-01
      4.3504540707738998e-01 3.7088159173763857e-01
      -2.0603853900804942e-01 -3.6160913800448800e-02
      7.8357282092752112e-01 -2.3484829054580891e-01
      -1.7968656060483887e-01 2.1276912693502043e-01
      -4.7633383410246016e-01 5.0546739523175155e-01
      4.2265049726178094e-01 6.7893818656737137e-01
      -1.3542746620370980e-01 -4.0420224904966756e-01
      5.7207858731789019e-01 4.0843877627292059e-02
      5.6298727823201589e-01 3.6732707648720314e-01
      7.5765724639606158e-01 -8.4432921302390693e-03
      -4.6823709543334124e-01 2.8139437371381335e-02
      -8.1811965260231906e-02 8.5809674251548862e-01
      -6.6232888810961676e-01 2.3462866564207335e-01
      2.6728650174537921e-01 6.3084191847880422e-01
      9.1139030071962834e-01 5.9191063176268752e-02
      -2.2828348798850756e-01 3.2946377444986275e-01
      6.8534301318984947e-01 2.1969307140754853e-02
      -1.0038049011831953e+00 4.8107511736603653e-01
      -1.2751837660858126e-01 -6.6234242181696623e-01
      -6.1588051062695959e-01 -8.4534217698342140e-01
      -1.0730014352503550e+00 2.9638490756423741e-01
      -1.9712306698325965e-01 -8.7946221303838579e-01
      1.3651464528688292e-01 6.0726147042948653e-01
      -4.3874114751802457e-01 3.7843330615549881e-01
      2.0102571635887551e-01 3.1176860801778446e-02
      2.6579758308996032e-01 6.0874325888747105e-01
      -3.0668883615458272e-02 4.2578017059337697e-01
      -9.0788202674347929e-01 1.3871313203309552e-01
      4.5264931402822756e-01 6.7272157814851402e-04
      5.8177356729789020e-01 -8.5883908664561748e-02
      3.5221856003919710e-01 -7.9794639747444496e-01
      9.3122962438231160e-01 1.4700680316455073e-01
      1.1776400557828057e+00 1.2092152227473286e-01
      6.2456394153216488e-01 8.5561086291135990e-01
      -8.6765605584786146e-02 5.2474015937988221e-02
      -3.9750429741641696e-02 -3.6787522378094506e-01
      2.5113203502502141e-01 -1.9492918943780504e-01
      3.6351036659327202e-01 1.9263012179608213e-01
      1.4465632293336347e-01 1.6005626999686792e-01
      1.7919245489994351e-01 -1.3650125784110320e-01
      9.0761036935081496e-01 -5.2827586786412517e-01
      -3.8434069797548071e-01 -4.2285640992731972e-02
      4.8312668058784031e-01 3.3077295539571222e-01
      -4.4184320834632557e-01 -2.0491971295600703e-01
      -7.4275746027655343e-01 5.8338387312070772e-01
      -4.9764831000537635e-01 5.3843928857015022e-01
      7.4447059357698644e-02 -4.7851300780338785e-01
      3.8764916868792448e-01 -3.3296706034524182e-01
      2.5936694712103286e-01 -5.4965067172126614e-01
      2.6755199765498058e-02 5.5784969746687874e-01
      -8.8961229551894261e-01 -3.7430498326293402e-02
      2.0180889520656570e-02 6.3583757756166492e-01
      -4.0073401636392297e-01 -4.4744040458524098e-01
      -4.8257680894091348e-01 -4.8795579181758864e-02
      2.0422898925412536e-01 1.0342433776706230e+00
      -2.4198846555877560e-01 2.0462422300854213e-01
      2.2610203217789013e-01 5.0305719260501858e-01
      3.5911953896139365e-01 5.8393361021401036e-01
      9.8292043937446860e-01 -1.0496196739535775e-03
      -1.4295442378936183e+00 -1.4792171152439401e-01
      2.4878632123107400e-01 5.3842215079100775e-01
      -1.6586509169687361e-01 -5.0796666960150921e-02
      1.8762820143994563e-01 -5.3616938018390137e-01
      2.1140061898844865e-03 2.8533030133654752e-01
      -1.2460200261343155e-01 2.8302043571390317e-01
      -8.5980658284367822e-02 3.5080760081900497e-01
      -1.2009135572645793e+00 -2.0692324807823320e-02
      -1.1080549644270206e-01 9.4158390690957225e-04
      -6.7329706140676859e-01 -3.7546222374881094e-01
      3.6493601409065018e-01 -3.9274702843623838e-01
      1.8234406879007650e-01 1.1113097530701735e-02
      -3.9929526919703273e-01 -1.4912065302820599e-02
      1.2940936623364171e-01 -6.3589573500720598e-01
      5.5581203340407093e-01 6.6169779541782825e-01
      2.7648292607705116e-01 -9.8341563285376299e-01
      -2.6330771499172034e-01 6.1709965100525045e-02
      2.7314275509139108e-01 8.8010691166266808e-02
      7.0526937832053771e-01 -1.5257683964573107e-01
      2.3972236516374798e-01 8.2191915961232209e-01
      -1.3276789928274955e+00 -4.5751715912905316e-01
      3.1972005442367207e-01 -4.7318676252308456e-01
      2.6310442446797417e-03 3.4032003573213188e-01
      -6.1171108589252676e-01 -9.2936666039643789e-01
      2.3334073392408261e-01 2.0869034981085785e-01
      5.4194678971018451e-01 -4.2455074345938154e-01
      6.2634438318791674e-01 2.3791588314759325e-02
      -8.8696616821054497e-01 4.1775688181440346e-01
      -1.4542332355589271e-01 1.9450327373285783e-01
      2.2102464034380889e-01 2.4761289209416762e-01
      -1.2448617072572478e-01 1.6880952521338347e-01
      -3.2368427702613299e-02 2.5126059315673793e-01
      -3.6370203644859928e-01 2.0813695292677967e-01
      -7.4720902158165226e-01 -1.4307182972997676e-01
      -4.2078751000564119e-01 -8.6369466032176268e-01
      -3.5566862049464110e-01 1.3149732443167442e-01
      4.2456644873923832e-01 4.0365670522632402e-01
      1.2716161258407699e-01 -3.0258501983396036e-01
      -7.2399797520223699e-02 2.3475335747732817e-01
      -3.8931917909905994e-01 -7.9076835781611204e-02
      4.4102798729577297e-01 2.3711522239696795e-01
      3.0155064078661220e-01 -1.1645401766314729e-01
      8.9998561877775396e-01 -2.2825863428295656e-01
      3.5266229587967886e-02 3.2074054440713795e-01
      -2.8380905351335067e-01 -1.2012540434289978e-02
      7.5579114036470241e-01 5.5119982753375163e-01
      -1.9258177244301278e-01 2.7486574508445066e-01
      -3.1550507957683238e-01 7.0516910196668199e-03
      -6.1754034547123526e-01 -3.0610901471250551e-01
      -4.2881775028091357e-01 -2.3742089645519771e-01
      7.5445898937824352e-01 7.6363538889885219e-01
      -2.1650937695640982e-01 1.5411861152889838e-03
      2.0192681176341432e-01 1.4154050981035540e-01
      -7.8167107595971591e-02 -3.0852995224677671e-01
      -1.4858560505177520e-01 9.9081561082211045e-01
      7.2415094431290308e-02 -3.5420108906475878e-01
      -3.3741906480464551e-01 4.9752033321468192e-01
      7.9531744038687979e-01 4.0481428923007941e-02
      8.1075178846921600e-02 2.3431724461111983e-01
      3.2372201482673624e-01 7.2415307020816166e-01
      1.5469141844305473e-01 -1.2107376228526807e-01
      -1.3903668960871268e-01 5.0965692566211951e-01
      3.0656643880072615e-01 -1.2911832257605613e-01
      -3.6698410637452333e-01 -6.0111804163756799e-01
      4.4100205171854956e-01 -3.6684568617369961e-01
      3.2137941070255943e-01 2.8634001524235320e-01
      1.7108089707994029e-01 -2.9120599879386438e-01
      -3.9136445038451212e-01 4.2434873595273720e-01
      3.7701001212720756e-02 3.8871886575485787e-01
      -4.2933460326493494e-01 -1.7766283384483003e-01
      2.8561924874792882e-01 5.2223157463520731e-01
      3.7969214605066937e-01 -1.0470673741855981e-02
      -5.7954274074588530e-01 -3.4401453794345221e-01
      3.0621803108673329e-01 1.9803149347509946e-01
      2.9033555484625445e-01 9.8360244021700860e-01
      2.3477826346202280e-01 -6.9813021762703253e-01
      6.7747279503752111e-01 6.9521316112226533e-02
      3.4302883808946999e-02 6.2718228716794655e-01
      5.1490480271316286e-01 -5.3818281422654224e-01
      -2.3494870356824810e-01 2.1887493646739416e-02
      -1.7970251456260508e-01 5.3901892928245831e-01
      -5.4369347600578155e-01 -1.7843704858475123e-01
      -5.6007318175526277e-01 4.4589695679614305e-01
      7.0578390836325305e-02 -4.6485672048181481e-01
      1.1883493367612374e-01 5.3615413798885715e-02
      4.9285800754641634e-01 3.7693643698096507e-01
      -2.5346888961637448e-01 5.7626838566350536e-01
      1.4328027996907994e-01 -4.0479794354970933e-01
      -4.0805989510137647e-01 2.2183331989446648e-03
      -7.4269295441666672e-01 4.8981383767713757e-02
      5.6186275220174338e-02 -1.0537981770656057e+00
      4.7505258247420362e-01 3.3937431680941199e-01
      -1.1898912401376858e+00 4.0119866371001550e-01
      -3.9298186805344587e-01 -2.0357358203465464e-01
      2.5778490163900608e-01 3.2020707574921142e-01
      6.1767989969887649e-01 5.9445369694333372e-01
      -9.2899063151384620e-01 4.6622528653212542e-01
      5.3451161094258282e-01 1.9602544772539182e-01
      5.3671116904548422e-01 -2.7809948452337113e-01
      3.3814354815137165e-01 -1.0205159083022632e+00
      7.6400800924778800e-01 3.0402717393013846e-02
      5.2522216324928972e-01 8.8828696098166671e-01
      5.1209496538287524e-01 3.1972613818518558e-01
      -4.4018470503443413e-01 -3.6042397380634272e-01
      3.7909139689003446e-01 2.0144585267354971e-02
      -4.9497300110041625e-01 2.2336401964112049e-01
      -1.0610349296449972e-01 -1.2228110315874652e-01
      -1.5699481628971204e-01 1.3701822036845573e-01
      -6.2212133898181581e-02 -1.1358425970006085e-01
      2.2679794646899465e-01 -6.5104383944122701e-01
      -5.2826543701553419e-01 2.2246333836219937e-02
      2.3386656235008646e-01 -1.0126966658646938e-01
      -7.9427453344691157e-01 2.8212696073240051e-01
      -7.1403488689254246e-01 -1.2063359648533167e-01
      4.7646556024777978e-02 1.7969484120322995e-01
      1.4191732036953589e-01 -7.1634960106565881e-01
      -1.7556090138154196e-01 -7.0512963470089696e-01
      7.8129533643524129e-01 -9.6537285392140826e-01
      -7.9453312783291197e-01 -3.1906745069344628e-01
      -5.1594255854188165e-01 1.0884680622343328e+00
      -5.5644573792621455e-01 -6.3310551325260520e-02
      5.1504207776061450e-01 -5.8599094759192094e-01
      -1.0580430161509349e-01 -2.7198790606433437e-01
      1.7498858366544476e-01 -4.3557870975787677e-01
      -6.1722147334986120e-02 5.5675314130108677e-01
      2.4318117244678794e-01 3.1220944522952404e-01
      -5.0286432215141075e-01 -3.7578074131307487e-01
      -3.9208761811696413e-02 1.5517809941051217e-01
      1.7628160191860834e-01 4.1309711866064963e-01
      -2.3595096336906590e-01 6.5560847659618859e-01
      1.1891867572642631e-01 1.5264804504583282e-01
      -3.8320523035714771e-01 -1.0110978331630618e-01
      -4.2897522600145244e-01 5.4909752453811403e-03
      8.8614283858700660e-01 4.2003003144223144e-01
      6.3394130789937042e-01 -2.2910188069383036e-01
      -8.0864668604810463e-01 3.9595313616467182e-01
      -7.4196774643495982e-03 -1.3404590652236092e-01
      -1.3897190816175814e-01 -1.4865409144716618e-01
      -9.1693095203842778e-01 1.8931602129893166e-01
      3.9757324781850810e-03 -9.5649028104683509e-01
      5.2118222022699856e-01 3.8546646239329985e-01
      -1.1127263019551976e+00 6.4015538797018379e-02
      5.0676053180769192e-03 -8.1230981039561358e-03
      -5.3309796362365458e-01 1.6643812201011124e-01
      -1.3692396383688417e+00 -3.2067116650584720e-01
      -6.0843016730058397e-01 4.6503732163543565e-01
      -2.6562835848497046e-01 -5.1796999793397425e-01
      5.0688873905229348e-01 -7.3263903869475622e-02
      6.9695693204047587e-02 -6.7172187118772042e-01
      -1.6365565042791017e-01 4.2386939927252387e-01
      -1.5501389755927866e-01 1.8821606891538217e-01
      3.1758430743988714e-01 -1.1229414843535832e+00
      4.1286438710229856e-01 1.1234516290446734e+00
      9.0190453379449886e-01 -4.9558469787131432e-01
      -3.0232781377978318e-01 2.7064011360423668e-01
      -5.5684648662568492e-01 -3.6749861335624268e-01
      3.2307892945410532e-01 2.6711738141386071e-01
      4.7066238897302087e-01 4.0215861818170595e-01
      2.0394180715999233e-01 4.3770832586559283e-01
      -7.2469452022309055e-01 -5.8250418813779314e-01
      6.0866636180116296e-01 2.2691385345922641e-01
      -2.7239377793773401e-01 2.2813349925889820e-02
      4.2849425403158314e-01 2.6710423397641059e-01
      5.8305442633942561e-01 -1.8201714047770357e-01
      -8.7890649142131974e-02 -4.9436898748722496e-01
      -3.1726945256108766e-02 -8.5390705033170450e-02
      1.6335007004172028e-01 7.4964155261816210e-03
      -4.1578997434108433e-01 -1.0457747995049779e-01
      -6.1625168351102461e-02 -1.4778154476138891e-01
      2.7239557180245494e-01 -4.5024824729534618e-01
      -2.2799713648649392e-01 2.5285744378301206e-01
      2.7687906257031059e-01 5.8383916740616548e-01
      -7.3372741526353286e-02 2.9926120308044868e-01
      9.3685709435075967e-02 2.3827276690881360e-01
      -2.2952165170334435e-01 1.7064843935252665e+00
      2.3131432498895943e-01 -3.5151702760660314e-01
      -1.0195604990921074e+00 -5.4399086898999893e-01
      5.9918989718847082e-01 2.6471448228598371e-01
      6.3721567953466152e-01 -8.8892569671898336e-01
      2.5903912393991024e-01 -2.3754325723097666e-01
      -1.3708848254869560e-01 1.1197270778108599e+00
      -1.5696277164737757e-01 -2.5212478321704967e-01
      1.4731543243068373e-01 -1.0010078630250399e-01
      -2.5564273889447059e-01 1.5822863738096865e-01
      -4.3894119846457863e-01 1.1571449424457129e-01
      -4.4803385328330675e-01 -3.7162657474784401e-03
      3.7233776502232913e-01 -3.3357225550149266e-01
      4.0844783783281874e-01 -3.1254287336627135e-01
      -8.3966122588097059e-01 -7.1226965038737688e-01
      -3.8654007190716044e-01 -9.7285547913708270e-01
      7.5479426757896140e-01 -3.7451075928191924e-01
      -9.5304887815087924e-01 7.5711187118951556e-02
      1.4284790063930969e-01 1.1696483244339446e-01
      1.7313106358573571e-01 -3.1467609142547392e-01
      -7.7317308739815127e-01 -1.4857437980721904e-02
      -7.6201391729673384e-02 -6.8003479013866097e-01
      -8.4753753329046083e-02 3.2566245770940400e-01
      1.5222191883398153e-01 -3.0797957573252954e-01
      -4.5773010448259754e-01 -5.7343478152431393e-01
      -1.6560244498059790e-01 9.9837404809130240e-02
      -3.9158952177598277e-01 -1.5723898261627998e+00
      1.6757731620395502e-01 -2.9695689088270794e-01
      6.1065319733723700e-01 1.7036804232269298e-01
      2.5891597861676563e-01 -1.0324355861938561e-01
      -1.5506812142559118e-01 -6.8115802278621407e-02
      5.4962355661214435e-01 -4.8476593611332941e-01
      -5.3330171877666155e-01 -3.5818365802114221e-01
      -7.5369982778980868e-02 -3.8020288311580169e-01
      -9.1427158212695303e-01 4.1834553149465814e-01
      1.2830621780506986e+00 -8.9239310047831066e-01
      -3.8986219980189019e-01 -4.5779286406491752e-02
      2.5110197433966835e-01 6.5126202275474765e-01
      8.0988093295213448e-02 1.3915191761415510e-01
      -2.5398087962896065e-01 -1.9825439397085691e-02
      1.0232514138085798e-01 6.5010031413839564e-01
      -3.3197875814564676e-01 -4.0498612003597961e-01
      -6.0271531264563749e-01 -2.0448950350241499e-01
      7.5433531121594469e-02 -3.1814544320858507e-01
      -4.8739845208265192e-01 1.6321346086416566e-01
      3.7769062613001869e-01 7.0649200623076697e-02
      -6.1164471254721942e-01 -2.6250581267753637e-01
      -3.3465353185045515e-01 2.4036559692268793e-02
      3.2966926839943672e-01 -5.4318646239813284e-01
      -8.4470593563591911e-01 5.5434632265604777e-01
      5.0412526170338090e-01 -9.1587725082826824e-02
      1.1894731230427220e+00 -6.7656253207448080e-01
      4.8240006812029901e-01 1.9216159921335785e-01
      -1.4946591272359858e-01 3.0102898439665948e-01
      1.9302436500787465e-01 1.8619189618290377e-01
      -3.4280590186626170e-01 9.1750010736992160e-01
      4.6977654652693701e-01 9.2792215562938818e-01
      5.1002835670827618e-01 -3.4981176854904761e-02
      6.0545467346918007e-02 9.3371899670415404e-01
      -6.7770575642308872e-01 2.4226042528991429e-01
      -4.2144411010369209e-01 7.4801278611815480e-01
      -3.1640026910220015e-01 9.7222946079828412e-02
      -3.7856301257451480e-01 -7.7917541175890170e-01
      -7.1179768329843351e-01 6.7131373285044960e-01
      5.3318604805913439e-01 -1.3326575055180254e-01
      -9.3769931956982500e-01 -7.7945111601432360e-01
      -1.6733637242657629e-01 5.1598428513209595e-02
      -1.4307705405359461e-01 -3.2392343347578149e-03
      1.6107346388213289e-01 -5.4663088449802444e-01
      -2.1035883613316050e-01 -2.7052697946005455e-01
      -4.0050656442204069e-01 -3.5636641222968768e-01
      -3.2936362428951754e-01 6.5931709040507891e-01
      -6.4144308321040133e-01 -6.4276453520566312e-01
      -1.5877968080533159e-01 6.0338235772395610e-01
      4.2045995941780451e-01 8.0103943789503404e-02
      3.2772659876787236e-01 4.9972961758478561e-02
      2.7099391265187051e-01 5.2206050838136328e-02
      1.3806798342282692e-01 7.2051918388286479e-02
      -2.2069557730823400e-01 4.5551716539274874e-02
      -1.4645845311647609e-01 2.2420353398120818e-01
      3.5800051438519179e-02 -2.5936191696389649e-01
      6.0491338056411537e-01 5.6690942577659997e-02
      4.4879408459888620e-01 1.3529217503701735e-01
      -8.0857535789150045e-02 6.3290877047033955e-01
      8.8732604547722027e-02 2.3960130313672973e-02
      -2.4472833635502148e-01 1.0092247290856292e-01
      1.8199908362805328e-01 -5.4885367774834515e-01
      2.7160577553014348e-02 3.6893363059239243e-01
      6.3223781110716737e-01 -3.4620174697545425e-01
      -8.9589547164381522e-01 1.6349286559692641e-01
      4.7005611364752792e-01 1.7137914468437229e-01
      -5.2485390331349924e-01 -1.8114255187477343e-01
      -8.3451378864792569e-01 -4.7887838622258511e-01
      -5.8298431883584156e-01 -3.8564321725490713e-01
      3.2917956898892181e-01 5.8881344011116592e-03
      -2.0820667061696230e-01 -5.0008506404106334e-01
      3.3139339267349505e-01 2.2532287679304916e-02
      -1.9066028229283696e-01 5.2471032259076034e-01
      -4.9753512594341531e-01 -5.4825547691106047e-01
      -1.4183160677019893e-01 1.4286318145951023e-02
      -5.8972897698304605e-02 -9.1196681500917409e-01
      5.1530989249486327e-02 -2.9511288299027393e-02
      -9.7716081636521823e-01 -9.9811804016864569e-01
      -2.1553721175040405e-01 -1.5809279256679371e-01
      -2.4489166908437393e-01 4.9956453527757033e-01
      3.7165582038664896e-01 -7.4427348170622543e-01
      5.1366159497346120e-01 7.3797254097563203e-01
      4.5421753494688910e-01 -7.9986943631176644e-01
      -3.1608783042581168e-01 -1.3012348882537697e-01
      3.6843041376610608e-01 -1.1326049544443073e+00
      3.9816556088056820e-01 5.3937132922407638e-01
      1.1002466173258058e-01 1.9563333755826706e-01
      3.9872510761721475e-01 4.9946546959346910e-01
      -7.1441126194890892e-01 -2.2972652892403893e-02
      1.3269428684514910e-02 3.3678842016787636e-01
      -2.3604734496654890e-02 3.5077261268321952e-01
      1.2610624465378009e-01 3.7102600581994083e-01
      2.1444952817427684e-01 8.6592941576681048e-01
      5.6653166557325317e-03 1.0114158922655204e-01
      1.7670880334426495e-01 4.7195685437179496e-01
      2.8595089606454327e-01 1.0658300566488221e-01
      -3.7506165350801568e-01 2.4271230603839070e-02
      2.3172749327019787e-01 4.0045784524028259e-02
      1.1496132811421773e-01 -9.7331970363930920e-01
      4.1333897924002733e-01 2.3647443576691801e-01
      2.8270854632190967e-01 1.9459122454020544e-01
      -3.3997186822347009e-01 -1.2696943565660657e-01
      4.8260921475462015e-01 8.3169147176176669e-02
      -4.2725881656931047e-01 8.8144302189895218e-01
      -4.5953925502382154e-01 -9.4137289797753959e-02
      -3.7600473145471103e-01 -5.8957889527988694e-02
      4.7634167908033848e-01 -7.0188985464418638e-02
      -1.0584549868734769e-01 -4.7531595139456323e-01
      3.8167933992489883e-02 -1.4632746097017460e-01
      -3.3924840160905861e-01 1.2497003560365796e+00
      -4.7097211941598194e-01 3.1781713976568332e-01
      8.7116679106783013e-01 -2.4170714177579315e-02
      4.6418592657709712e-01 -1.8867391565872879e-01
      -6.7612164810180442e-01 -4.1746838094328609e-01
      -7.3804368287687064e-02 3.6092313993964581e-01
      -1.2724782157839809e-01 1.8384001926101173e-01
      1.7408287193365729e-01 -6.1270447844814779e-01
      -7.7456015141935941e-01 7.2152499062549502e-02
      -4.8176825087604513e-01 -9.3739778514309224e-01
      8.5596602055417403e-01 -2.0547729187328048e-01
      -4.7331706472413920e-01 -5.5542502153870776e-01
      7.3065441138356257e-01 2.7703878470781929e-01
      -5.0303204667366583e-02 -7.4300672654252875e-01
      -5.2923191801288783e-01 1.6971634193603391e-01
      4.9010546959650048e-01 -5.8556220564758410e-01
      4.9746804978870190e-01 5.6172354417327586e-01
      -7.3745625895405997e-01 -2.2053518008851569e-01
      -4.7510355888068256e-01 -4.2620131178576638e-02
      -2.0259439687902117e-01 5.3839180158894284e-01
      3.1073087037763297e-01 -9.2336790319035744e-01
      7.2732942902720796e-02 -3.0219682889489718e-01
      4.7006533167068199e-01 -1.0379307616288877e-01
      -1.9960645553724132e-01 -8.6020059046558517e-01
      -3.9722730123530187e-01 5.6624209653072563e-02
      6.6164270619612764e-01 -6.0213733964620586e-01
      -5.9807954053380807e-01 -4.7014073160759023e-01
      1.6146414196707808e-02 3.6830309297819303e-01
      -2.4961883244886740e-01 3.6650501424892262e-01
      2.2544219011554162e-01 -4.0623046586928646e-01
      -9.6701140198535296e-01 -1.0594672389491515e-01
      1.5055118306514258e-02 4.3783398739154822e-01
      5.7808995329678634e-03 -5.8132755104537270e-01
      -1.7427182675832256e-01 -1.8199152104161953e-01
      -2.9870981253487117e-01 6.5648540225170171e-01
      2.2371347949025908e-01 -3.6445376043408528e-01
      2.3433080744727020e-01 -7.8850010099016932e-02
      2.0775505314436468e-01 -7.2395957763947683e-01
      -6.1619359265103379e-01 3.7793363799199059e-01
      -5.4314058715048963e-01 6.3015044212758053e-01
      2.3229538927171881e-01 6.8375701439084155e-02
      -2.1593731454985543e-01 -3.0914633339635134e-01
      -3.2214607734416401e-01 -1.9722321021890837e-01
      -8.7062741867552873e-01 5.1087806282900883e-02
      9.0172610494041716e-01 -8.6233157212002046e-02
      1.8778301991924135e-01 -5.8054806245847679e-01
      5.3274905149190221e-01 -7.6290889168434489e-02
      -1.1787156101773724e-01 2.1871905468742991e-01
      7.5506187571831684e-01 2.8668489524869151e-01
      -2.5315116504335944e-01 4.3764846408981428e-01
      3.9120133105763577e-01 8.7118997847944124e-01
      1.2623112114229362e+00 2.7317294615997859e-02
      -1.0122254122595423e-01 3.0297596220211326e-01
      -3.5119278306737051e-01 6.4400734150894345e-01
      -4.2854912264192924e-01 5.3719116751289075e-01
      -1.9695345771374831e-01 2.1711496146098830e-01
      -1.7765171419818704e-01 -3.4773935476578360e-01
      -5.5037822984675422e-01 2.0864370782805775e-01
      -6.2789801266147777e-02 -3.0105514084299212e-01
      -1.1922462035601638e+00 -9.3656483617219052e-02
      4.7235974083722898e-01 -1.4477279462903617e-01
      6.4710543546179448e-03 -7.7289706255002907e-02
      2.2246953329887806e-01 -3.8709239453635320e-04
      -7.2701757472728090e-01 -1.7827250614667514e-01
      -1.2778875299257506e-01 7.3801097595040888e-02
      -5.2219738836620910e-01 3.4878390909785817e-01
      -8.0891577241087409e-01 -5.3658974997616105e-01
      -2.9559684111443790e-01 3.3366972609440909e-01
      7.3418561823527095e-01 8.4564774194081083e-01
      -2.6590300980622000e-01 -2.4985342289323126e-01
      4.9418984856198855e-01 -5.0587126842492913e-01
      -2.1835330727391436e-01 6.9919598851185882e-01
      8.9270372357670144e-02 4.3146300438210961e-01
      -5.5221589807358404e-02 -3.0166004039739008e-01
      -7.0032809282746977e-01 -2.8738319290463360e-01
      6.0335139313963604e-01 -1.8176717130245285e-01
      2.1344511236522357e-01 3.2616364468340896e-02
      2.9780213532948342e-02 -1.4373047020592222e-01
      -1.5958472509847907e-01 -1.7236119473953079e-01
      -3.3952530455165192e-01 3.9031256675106191e-01
      4.2744950646704033e-01 -2.1281483677326443e-01
      -5.8263356123345669e-02 1.6967576855029209e-01
      -1.7504372881346680e-02 -2.4839006231295113e-01
      -7.2308693999024176e-01 4.9464535392130339e-02
      2.6941839056505290e-01 -5.4914486953112504e-02
      -6.5987216989912156e-01 6.2137958325091136e-01
      4.9799342824412923e-02 -7.7201446750194258e-01
      -2.0141183517405997e-01 -2.0090936452873451e-01
      4.1338321474605033e-01 -1.3086733905931330e-01
      2.2571701760299134e-01 -5.7637257263887409e-01
      5.7372050570623867e-01 -3.8485554922383293e-02
      -2.5819000061632363e-01 2.1467486327287749e-01
      4.9133671348385133e-01 -7.1477581118157507e-01
      -3.0087270380521630e-01 -3.4656366851709453e-01
      -9.7936689436283378e-02 1.9002367587509020e-02
      6.3634183193654037e-01 1.0197653407487114e-01
      -8.9800953479108381e-01 5.6169735486679882e-02
      1.4602972070183390e-01 1.2873708056214372e-01
      -1.9513442807157977e-01 2.4561396745459979e-01
      2.3652645234060848e-01 -3.8098738189854603e-01
      6.8264287971597160e-01 5.1340776497698593e-01
      2.3410584949758909e-02 -1.2392300330486232e+00
      3.8194347057797584e-01 2.6140340183998073e-01
      -2.4748934689865845e-01 -7.0408613545012810e-01
      -8.2056804352514154e-02 -4.1368162584781198e-01
      -4.1237677023049008e-01 -2.9832254589526319e-01
      7.9744987510324417e-01 2.6193673402743034e-01
      -8.5168396450616668e-01 -8.8473382039707352e-02
      3.7639407090611821e-01 4.4282407673389262e-01
      -5.1688635373849068e-01 -5.8150213573920383e-02
      1.1869559721832923e-01 -3.4454198864935309e-01
      -2.0846890426650050e-01 5.4767296033461699e-01
      6.1584370731709648e-01 7.4587866841222572e-01
      1.5121680068722656e-02 2.9387914562524153e-01
      1.0075816385173275e+00 -3.8969934690638530e-01
      4.1524790142246282e-01 1.0059703413687493e-01
      5.0650374777725471e-01 8.3296428961462010e-01
      1.2659115626126236e-01 -1.0147225648270801e+00
      -4.0576666894430780e-01 1.6994541190700627e-01
      1.8120860357420371e-01 -5.4156293151562596e-01
      -5.2473846935354784e-01 -2.5190188904957361e-01
      -3.8576571160032608e-01 3.3827071516111118e-01
      -2.4940736918535031e-01 1.0530936661070587e-02
      -5.7944514169560357e-01 -1.4726656255039738e-01
      7.2094252408605730e-02 -2.2273860465674078e-01
      -2.8046797368190446e-01 4.2713860433421719e-01
      3.1257048810515442e-01 6.9178228103029127e-01
      3.3829037622780206e-01 -2.0613365217566157e-01
      -2.3811835527431494e-01 1.6751791969877035e+00
      -3.2735649023447422e-01 9.4273821200442642e-01
      4.5783907842074961e-01 2.3341114720976772e-01
      -5.9235017452494165e-01 3.6108056352341422e-01
      -1.1642150026790556e+00 5.8886064781083290e-02
      2.1512028452052617e-02 -2.4297545270402898e-02
      -8.1440504741706010e-01 -2.5277778383966615e-01
      -2.3447905315904949e-01 -6.2980810994024217e-01
      -3.5164771957391322e-01 6.2001587954368165e-01
      -2.0063216117457114e-01 -6.1985206233196199e-01
      1.2286752699483707e+00 3.4853964411816996e-01
      -6.6177838128794308e-01 -4.8235982768601465e-01
      5.7880131465975448e-01 7.2601150355346561e-02
      4.1391278591950847e-01 -6.0111094183135927e-01
      -5.4446002258938375e-01 2.0210894866957124e-01
      -3.7112909066339855e-01 -4.6249074347146391e-01
      4.4457422085870174e-01 8.9209042837571251e-01
      3.6526296143141340e-01 -1.1320758282748391e+00
      -1.9246064195756468e-01 -2.9671080058290411e-01
      8.3598613886697010e-02 4.8243539088760035e-01
      -4.5687941939079732e-03 4.0654359450728977e-01
      -2.2490025071693506e-02 3.1478007995706186e-01
      2.0185233139303083e-01 -2.7779574016653852e-01
      1.2092309293321911e-02 -4.5198321552379023e-01
      -5.4035329435221630e-02 -1.6069145011434452e-01
      8.5082178516437193e-02 7.0518951047113324e-02
      7.1622363619822760e-01 2.1704230322594806e-02
      1.0766242776958340e-01 4.4357662951276899e-01
      6.8845116946639651e-01 3.9550224702664777e-01
      4.8149264761573363e-01 5.2330405911188327e-01
      -6.3061369248459787e-01 3.0613248733791387e-01
      -2.0211973754097726e-01 -2.4238660359235664e-01
      -2.1463015237562411e-01 8.5921895184707153e-01
      -5.0152887071240559e-01 -3.0347694419857457e-01
      -1.4530481299516258e+00 5.6802733914729231e-01
      4.2718580332303474e-01 -2.6637525066153306e-01
      -1.7386105366766624e-01 -8.8990040813568982e-01
      -3.4234017943042833e-01 -7.4937342999096423e-01
      -1.5525863162395686e+00 4.2979381664109645e-01
      -9.9709691709482051e-01 8.4228185479043838e-01
      2.5608862904884316e-02 -3.1573623129245115e-01
      1.6649316778454729e-02 1.3004817213518891e-01
      2.9272076310522105e-01 -3.1446524612997040e-01
      -9.9081022382458495e-01 -2.8300462842460999e-01
      4.5192448400988799e-01 -2.7030492584071769e-01
      -9.2776507945309700e-02 -1.1304630446685007e-01
      5.7505821088432130e-01 -2.4306904147074593e-02
      -4.1018548195826560e-01 -3.9247922109670380e-01
      1.5114735009400979e-01 2.3613222461989722e-01
      3.0665843933154269e-03 7.8784147902810686e-01
      6.3204792756707456e-02 7.5395188877064678e-01
      1.4722027551285124e+00 -4.8087002565435862e-02
      -2.9996794347264918e-02 -4.4236944678645518e-01
      -2.6338966827258098e-01 7.1008170194442544e-01
      -5.8507611503189250e-01 -2.3885637867508147e-01
      5.0279380042635957e-01 -7.9815963198520481e-02
      -1.7921501604939327e-01 -6.9123366678750908e-02
      4.5836850351543812e-01 4.1759767115040029e-02
      2.2748024196814465e-01 -6.9703725611016953e-01
      -5.4720974793502608e-01 -2.6201676929374323e-01
      -5.4525494872407976e-01 -1.0817328115034219e+00
      -4.8500763273646547e-01 3.2316402747221429e-01
      2.4578554718525120e-01 9.6186101827866091e-02
      -3.8639666454469979e-01 3.1303036458526656e-01
      4.7867396144764235e-01 -4.5853337798774396e-01
      1.7191564619246755e-01 8.3210357222348263e-02
      -3.3406532739542477e-01 2.6268620648519109e-01
      -9.5728657571113740e-01 -1.7764005803390454e-02
      -1.1399612534122558e+00 4.7179720178258094e-01
      -1.9868646034440132e-02 1.0800767641605473e-01
      1.3710368434237080e-01 -2.1002588798186403e-01
      8.6136623069117169e-01 1.2492003929650300e-01
      -2.5826925017672592e-01 7.8158538685931589e-01
      1.7654722708537141e-01 -1.3082194877050593e-01
      4.6514066011115196e-01 -4.8445964474010624e-02
      -1.0250853125556780e-01 -1.2047297442285176e-01
      -2.2878610985263159e-01 -2.7101684608462345e-01
      -2.9806278323172855e-02 3.5826953863901501e-01
      5.9602321610497144e-01 5.4291998215670101e-02
      -5.3256646988995460e-01 -1.2969798685589251e-01
      2.6332658300273959e-01 6.2052992480536295e-01
      -2.4470520917833319e-01 4.9850523647140282e-01
      1.8658803006527677e-01 6.4026951308814681e-02
      -5.4609957990127667e-01 9.2635003910295199e-01
      7.5364876792087726e-02 3.5664299411684863e-03
      -4.0976952258581284e-01 1.2367851308909608e-01
      -5.0598870102013152e-02 -2.4578543214748480e-01
      4.5246913357641394e-01 -9.2768985515438492e-03
      1.5702580585204357e-01 -1.6670655181648117e-01
      -1.7735116285922264e-01 -5.5882641687659873e-01
      5.2537422522625629e-03 5.5077373382662420e-01
      -4.8844749232825835e-01 -5.4582832588929386e-01
      -1.5005878317108159e+00 -6.8997535469317228e-01
