%YAML:1.0
opencv_ml_ann_mlp:
   format: 3
   layer_sizes: [ 120, 256, 31 ]
   activation_function: SIGMOID_SYM
   f_param1: 6.6666666666666663e-01
   f_param2: 1.7159000000000000e+00
   min_val: -9.4999999999999996e-01
   max_val: 9.4999999999999996e-01
   min_val1: -9.7999999999999998e-01
   max_val1: 9.7999999999999998e-01
   training_params:
      train_method: BACKPROP
      dw_scale: 1.0000000000000001e-01
      moment_scale: 1.0000000000000001e-01
      term_criteria:
         epsilon: 1.0000000000000000e-02
         iterations: 1000
   input_scale:
      - 3.7299469368074485e+00
      - -2.3390755722723160e+00
      - 5.4480449972657210e+00
      - -4.7085259873356700e+00
      - 6.1670998314283763e+00
      - -5.5021856853664781e+00
      - 6.0142369443595856e+00
      - -5.4281826460039762e+00
      - 7.9680200309335447e+00
      - -7.3662473416014933e+00
      - 8.8826327710835127e+00
      - -8.3358143974674110e+00
      - 5.9759832280713487e+00
      - -5.4829130198097200e+00
      - 5.8313176426440307e+00
      - -5.3118836752485494e+00
      - 5.0277087861144754e+00
      - -4.2704221736032855e+00
      - 3.5672535828181360e+00
      - -2.1223501732874945e+00
      - 5.2690700221208830e+00
      - -4.1157265475639697e+00
      - 6.6699681344844901e+00
      - -5.9079656932485660e+00
      - 6.1944462316372944e+00
      - -5.4464124729728294e+00
      - 6.7344186138494742e+00
      - -6.0054886400908662e+00
      - 7.1858443350692704e+00
      - -6.1337259396534920e+00
      - 7.6128274846936810e+00
      - -6.7653003459539676e+00
      - 7.6542072616801127e+00
      - -6.7863694692424934e+00
      - 6.7090047691433297e+00
      - -5.8475647897274010e+00
      - 6.3709116793941858e+00
      - -5.4837034501901201e+00
      - 5.0980484582747625e+00
      - -3.6614556485568786e+00
      - 1.0820682809344583e-02
      - -8.3722521805617189e-01
      - 1.1075255222864538e-02
      - -1.5372816569798620e+00
      - 1.0960797752378300e-02
      - -1.6844449320412245e+00
      - 1.0224815405395561e-02
      - -1.5563009814326545e+00
      - 1.0323202217561604e-02
      - -1.6728653354811203e+00
      - 1.1474127117883521e-02
      - -2.0265834624269261e+00
      - 1.1941370124241313e-02
      - -2.2431140538905865e+00
      - 1.1143425211074379e-02
      - -1.8777607488967181e+00
      - 9.9794188190503348e-03
      - -1.2524082382551680e+00
      - 1.1032329713487192e-02
      - -6.8756483157787063e-01
      - 9.5443956442604894e-03
      - -1.1392177138749682e+00
      - 1.1395543444633813e-02
      - -2.1726696783616775e+00
      - 1.2161374648029525e-02
      - -2.4112801603748903e+00
      - 1.1623208743220185e-02
      - -2.2336498032749197e+00
      - 1.2805615105595469e-02
      - -2.6444670819433980e+00
      - 1.4447005163279694e-02
      - -3.1710984728555913e+00
      - 1.5347069668218116e-02
      - -3.4600246741116396e+00
      - 1.3935489450895748e-02
      - -3.0250670108775362e+00
      - 1.1120844502185355e-02
      - -2.0681034327636088e+00
      - 9.3570107708864005e-03
      - -9.5284732361619273e-01
      - 9.3155583932284201e-03
      - -1.0200330526385446e+00
      - 1.0459114668863187e-02
      - -1.7493308547994435e+00
      - 1.1692728552377631e-02
      - -2.1631496129906784e+00
      - 1.2247436168103778e-02
      - -2.4247216398838387e+00
      - 1.2595677286255304e-02
      - -2.6385382459553810e+00
      - 1.3342673906334666e-02
      - -2.8516278838543019e+00
      - 1.3196801754275952e-02
      - -2.7810246922333195e+00
      - 1.3488275689377802e-02
      - -2.8333011570541484e+00
      - 1.1578116292426175e-02
      - -2.2353032757881741e+00
      - 9.1707047446086144e-03
      - -1.0766618190969239e+00
      - 9.1799563996171098e-03
      - -1.1810732233608179e+00
      - 1.1419124401803803e-02
      - -2.2060466090704907e+00
      - 1.2246790844849507e-02
      - -2.4261477391061215e+00
      - 1.3199222677486444e-02
      - -2.7150836058790349e+00
      - 1.3261566249520627e-02
      - -2.8308108829867535e+00
      - 1.4202947013966315e-02
      - -3.0263265272937661e+00
      - 1.2457545180322152e-02
      - -2.5817904410781440e+00
      - 1.1672808971288281e-02
      - -2.3564005774435501e+00
      - 1.0579900476478853e-02
      - -2.0398815184821935e+00
      - 8.9422051878467555e-03
      - -1.0669964152191771e+00
      - 9.5077836885649261e-03
      - -8.6626333498117214e-01
      - 1.0018572624464001e-02
      - -1.6430946302612870e+00
      - 1.0521444312074581e-02
      - -1.9126515920093137e+00
      - 1.2360909747616427e-02
      - -2.4535312930384863e+00
      - 1.2720265065340793e-02
      - -2.6920568398827935e+00
      - 1.4462489113066242e-02
      - -3.1556486302682356e+00
      - 1.3206258604717148e-02
      - -2.8112633259696733e+00
      - 1.3151722342948164e-02
      - -2.7595243832738157e+00
      - 1.0758024612302693e-02
      - -2.0076081447475906e+00
      - 9.2557768758142703e-03
      - -9.4467028479740822e-01
      - 9.3078484634671645e-03
      - -9.0061869378894566e-01
      - 1.1148058977799023e-02
      - -2.0915079455704659e+00
      - 1.3034951827402552e-02
      - -2.7175569528865107e+00
      - 1.3620431941213398e-02
      - -2.9215284586902426e+00
      - 1.5493252298496941e-02
      - -3.4628446291139237e+00
      - 1.5905183215529424e-02
      - -3.5869985144359431e+00
      - 1.5554800675128280e-02
      - -3.5267587988728293e+00
      - 1.4678682255601134e-02
      - -3.2758250362889023e+00
      - 1.1940455819397624e-02
      - -2.3774228786403544e+00
      - 9.3262907619865772e-03
      - -9.5834028273789218e-01
      - 8.9768230034675527e-03
      - -1.0491612278632700e+00
      - 1.2014065054708966e-02
      - -2.4315947167470395e+00
      - 1.3117203105046852e-02
      - -2.7431945384816618e+00
      - 1.2958510623290542e-02
      - -2.6687256327616189e+00
      - 1.3145946454138880e-02
      - -2.7486825733403975e+00
      - 1.2660334436954310e-02
      - -2.5849917867877852e+00
      - 1.2554112471939053e-02
      - -2.6383005710314746e+00
      - 1.2223548988556184e-02
      - -2.5734569483090928e+00
      - 1.0869696626931517e-02
      - -2.0169918622862988e+00
      - 9.2796054772706794e-03
      - -9.3172243907218610e-01
      - 9.1579579434669395e-03
      - -1.1280158825344262e+00
      - 1.1661540450702425e-02
      - -2.2991845722820572e+00
      - 1.1640966908228545e-02
      - -2.3313274881210013e+00
      - 1.2006563814956505e-02
      - -2.3478193279218349e+00
      - 1.2037258821622038e-02
      - -2.4115865786941688e+00
      - 1.1981689958793671e-02
      - -2.4065557989782360e+00
      - 1.1825640701210269e-02
      - -2.4605592831951451e+00
      - 1.1670442168916238e-02
      - -2.4165347935795700e+00
      - 1.0468956733841748e-02
      - -1.8930669199130372e+00
      - 9.4650295807653211e-03
      - -1.0124568909907776e+00
      - 8.9766056330927504e-03
      - -1.2245129814164448e+00
      - 1.0901232731405759e-02
      - -1.9922605227825028e+00
      - 1.0916177093251532e-02
      - -1.9541356506803995e+00
      - 1.1811909791705781e-02
      - -2.1945243808635340e+00
      - 1.1939240307932808e-02
      - -2.2920755083648814e+00
      - 1.2047409316580679e-02
      - -2.3627515497247655e+00
      - 1.1197773386579252e-02
      - -2.2220154593190999e+00
      - 1.1047399495102613e-02
      - -2.1528851751702796e+00
      - 1.0220811951958897e-02
      - -1.8268232856662168e+00
      - 9.2475163989295429e-03
      - -1.0467477216172940e+00
      - 1.0149565444378910e-02
      - -9.1134751894003352e-01
      - 1.0178019151373414e-02
      - -1.2083405530613283e+00
      - 9.9247192558779562e-03
      - -1.1336381136243197e+00
      - 9.7622088821069618e-03
      - -1.3464166236171378e+00
      - 1.0335979546286971e-02
      - -1.5969773808797607e+00
      - 1.0133674194477037e-02
      - -1.5981234281048673e+00
      - 9.9197782039905456e-03
      - -1.4827305612017805e+00
      - 9.8572593907494226e-03
      - -1.3707865731533686e+00
      - 9.1693535188145259e-03
      - -1.2751360254844788e+00
      - 9.4908956300262456e-03
      - -8.7590645001459722e-01
   output_scale:
      - 5.2631578947368418e-01
      - 4.9999999999999994e-01
      - 5.2631578947368418e-01
      - 4.9999999999999994e-01
      - 5.2631578947368418e-01
      - 4.9999999999999994e-01
      - 5.2631578947368418e-01
      - 4.9999999999999994e-01
      - 5.2631578947368418e-01
      - 4.9999999999999994e-01
      - 5.2631578947368418e-01
      - 4.9999999999999994e-01
      - 5.2631578947368418e-01
      - 4.9999999999999994e-01
      - 5.2631578947368418e-01
      - 4.9999999999999994e-01
      - 5.2631578947368418e-01
      - 4.9999999999999994e-01
      - 5.2631578947368418e-01
      - 4.9999999999999994e-01
      - 5.2631578947368418e-01
      - 4.9999999999999994e-01
      - 5.2631578947368418e-01
      - 4.9999999999999994e-01
      - 5.2631578947368418e-01
      - 4.9999999999999994e-01
      - 5.2631578947368418e-01
      - 4.9999999999999994e-01
      - 5.2631578947368418e-01
      - 4.9999999999999994e-01
      - 5.2631578947368418e-01
      - 4.9999999999999994e-01
      - 5.2631578947368418e-01
      - 4.9999999999999994e-01
      - 5.2631578947368418e-01
      - 4.9999999999999994e-01
      - 5.2631578947368418e-01
      - 4.9999999999999994e-01
      - 5.2631578947368418e-01
      - 4.9999999999999994e-01
      - 5.2631578947368418e-01
      - 4.9999999999999994e-01
      - 5.2631578947368418e-01
      - 4.9999999999999994e-01
      - 5.2631578947368418e-01
      - 4.9999999999999994e-01
      - 5.2631578947368418e-01
      - 4.9999999999999994e-01
      - 5.2631578947368418e-01
      - 4.9999999999999994e-01
      - 5.2631578947368418e-01
      - 4.9999999999999994e-01
      - 5.2631578947368418e-01
      - 4.9999999999999994e-01
      - 5.2631578947368418e-01
      - 4.9999999999999994e-01
      - 5.2631578947368418e-01
      - 4.9999999999999994e-01
      - 5.2631578947368418e-01
      - 4.9999999999999994e-01
      - 5.2631578947368418e-01
      - 4.9999999999999994e-01
   inv_output_scale:
      - 1.8999999999999999e+00
      - -9.4999999999999996e-01
      - 1.8999999999999999e+00
      - -9.4999999999999996e-01
      - 1.8999999999999999e+00
      - -9.4999999999999996e-01
      - 1.8999999999999999e+00
      - -9.4999999999999996e-01
      - 1.8999999999999999e+00
      - -9.4999999999999996e-01
      - 1.8999999999999999e+00
      - -9.4999999999999996e-01
      - 1.8999999999999999e+00
      - -9.4999999999999996e-01
      - 1.8999999999999999e+00
      - -9.4999999999999996e-01
      - 1.8999999999999999e+00
      - -9.4999999999999996e-01
      - 1.8999999999999999e+00
      - -9.4999999999999996e-01
      - 1.8999999999999999e+00
      - -9.4999999999999996e-01
      - 1.8999999999999999e+00
      - -9.4999999999999996e-01
      - 1.8999999999999999e+00
      - -9.4999999999999996e-01
      - 1.8999999999999999e+00
      - -9.4999999999999996e-01
      - 1.8999999999999999e+00
      - -9.4999999999999996e-01
      - 1.8999999999999999e+00
      - -9.4999999999999996e-01
      - 1.8999999999999999e+00
      - -9.4999999999999996e-01
      - 1.8999999999999999e+00
      - -9.4999999999999996e-01
      - 1.8999999999999999e+00
      - -9.4999999999999996e-01
      - 1.8999999999999999e+00
      - -9.4999999999999996e-01
      - 1.8999999999999999e+00
      - -9.4999999999999996e-01
      - 1.8999999999999999e+00
      - -9.4999999999999996e-01
      - 1.8999999999999999e+00
      - -9.4999999999999996e-01
      - 1.8999999999999999e+00
      - -9.4999999999999996e-01
      - 1.8999999999999999e+00
      - -9.4999999999999996e-01
      - 1.8999999999999999e+00
      - -9.4999999999999996e-01
      - 1.8999999999999999e+00
      - -9.4999999999999996e-01
      - 1.8999999999999999e+00
      - -9.4999999999999996e-01
      - 1.8999999999999999e+00
      - -9.4999999999999996e-01
      - 1.8999999999999999e+00
      - -9.4999999999999996e-01
      - 1.8999999999999999e+00
      - -9.4999999999999996e-01
   weights:
      -
         - -1.3219079714203871e-01
         - -1.1475756713456040e-01
         - -6.3890507383756567e-01
         - 2.3528839061136633e-01
         - 5.6700341269589560e-01
         - -5.0206487063680916e-01
         - -1.9080848018499331e-02
         - -7.1752509405262413e-02
         - -3.7345146068590096e-01
         - -2.2962844111214095e-01
         - -1.2600979656720634e-01
         - -2.5010159378464980e-01
         - 1.3394937109958241e-01
         - 3.8069046362387775e-02
         - -4.1206314607577882e-01
         - 4.6761867163578813e-01
         - -1.1556747433917776e-01
         - -1.2957875891077666e-01
         - 5.0470374601937229e-01
         - 3.0947272172704249e-01
         - 2.3487150194998024e-01
         - 9.6656383213007721e-02
         - -1.0479582301299200e-02
         - -8.7055566587072364e-02
         - -8.6923425212133476e-02
         - 5.4362993758297000e-02
         - 3.0780992776794747e-01
         - -2.8566264362068494e-01
         - 2.5861138003154144e-01
         - -1.1497947191915579e-01
         - -3.0891269403005928e-01
         - -4.1491335109233729e-01
         - 2.7259558304113751e-01
         - 7.7831358579208282e-02
         - 4.6711498328432993e-02
         - 5.9418898203113635e-01
         - -6.7969921190097027e-01
         - -2.6589087354768526e-01
         - 2.0214464303563254e-01
         - 2.4836388853467026e-01
         - -5.5665614529992191e-01
         - -9.5939353998936161e-02
         - 7.8788019490639727e-01
         - -2.6737068986963797e-01
         - 8.0464263908068090e-01
         - 1.1089515206048776e-01
         - 4.9739061016552572e-01
         - -1.0972455803151190e-01
         - -5.9696362451447205e-01
         - 5.4155793511527162e-02
         - 1.1636415991576757e-01
         - 3.7376980050272379e-01
         - -1.7937868164210638e-01
         - -9.7172081165764002e-01
         - 9.8658507845643631e-02
         - 1.6432878422806560e-01
         - 2.9182247531056404e-01
         - 1.0647324080094794e-01
         - 2.9751158335006000e-01
         - 1.1467680467280625e-01
         - -4.2089585257022988e-01
         - -6.0189423563161337e-01
         - 9.3716880552836113e-02
         - -4.2317630504907572e-01
         - 1.1187219669376675e-01
         - -3.0736784902107649e-02
         - -2.3672471782683133e-01
         - -9.3663257577495562e-01
         - -3.1039945807119118e-01
         - 2.2780801773956269e-01
         - -6.5117127842675071e-01
         - -6.5573013776842271e-01
         - 1.0934797116888522e+00
         - -3.0316786246313393e-01
         - -2.6145464692378861e-01
         - -8.9811299027719815e-01
         - 6.3639734785914351e-02
         - -4.5801516280533178e-01
         - -2.6144418101374695e-01
         - 1.7923290698834624e-01
         - 1.5882285383294556e-01
         - 5.6071541484240672e-01
         - -2.5025643714969475e-01
         - -1.2677662485557753e-01
         - 4.7692449606847082e-01
         - 5.8522592600884404e-01
         - -2.4831375428746255e-01
         - -2.5377840131181639e-01
         - -1.6649236924551755e-01
         - 1.5962562962673776e-01
         - 4.0864528719829518e-01
         - -4.5782060499790089e-01
         - 2.7574761124817082e-01
         - -5.2377206709657409e-01
         - -1.8054861490877805e-01
         - -4.3712646082192075e-01
         - -2.7482773365136143e-01
         - -1.4841059597947101e-01
         - 1.2233480273219978e-01
         - 1.0937260880321693e+00
         - -1.4868163781310120e-01
         - -2.6067215450562581e-01
         - -8.0173034192096954e-02
         - 1.2632407768967643e-02
         - -3.8628176491963251e-01
         - -1.0949701955422564e-01
         - -4.3133792553782507e-01
         - 1.9655088075045410e-01
         - -4.4155409642800308e-01
         - -3.0861628609982594e-01
         - -2.9747973582731435e-01
         - -2.3081032928869380e-01
         - 3.5873727256508148e-01
         - 4.7198367753472947e-01
         - -1.9699192640218469e-01
         - -4.7875271693581323e-01
         - 3.2505693694947979e-01
         - 2.9784103350186458e-01
         - 5.5361646235914053e-01
         - 7.6011164728655867e-01
         - -1.0799992602013789e-01
         - 3.1295820916080019e-02
         - 1.6752557460033898e-01
         - -4.7827939485099480e-01
         - -6.0119679089237932e-02
         - -3.4182368787384669e-02
         - -6.1026280679829248e-01
         - 1.0736648285971202e-01
         - 3.6310825305467315e-01
         - 5.5053663896263767e-02
         - 3.4205124673884124e-01
         - -5.9350274168372708e-01
         - 2.6928348103207489e-01
         - -2.9749717660027125e-01
         - -3.9001301063231075e-02
         - 2.0856372600167031e-01
         - -1.7908799969695172e-01
         - 3.8607473121632430e-01
         - -1.7584100762940069e-01
         - 5.3453748462109499e-02
         - -3.5660792910165451e-01
         - 3.7011521141877685e-01
         - 1.7141423924627514e-01
         - -2.7339708993124556e-01
         - -3.7264266616902124e-02
         - -5.6796187876710513e-01
         - -1.6095350332177580e-01
         - -1.7422916751725065e-01
         - 3.5975331263707211e-01
         - 2.2379329903242373e-01
         - -8.3900093993091385e-01
         - 2.3411309830847285e-01
         - 4.0790452839818768e-02
         - 2.9634606134391706e-01
         - -1.0825650306616485e-03
         - 7.2412812059743026e-01
         - -1.1983612428345002e-01
         - -3.6103581620010254e-02
         - 4.7659594438215286e-01
         - -5.7296886750641685e-01
         - 1.4103785135909669e-01
         - -9.0892589533066570e-01
         - -5.7609310191490082e-01
         - 3.4826404211888451e-01
         - 2.1308790361086813e-01
         - 7.3497398923975177e-01
         - 4.3754838604731688e-01
         - 1.5549671840699836e-01
         - 6.1685648397311582e-02
         - 2.9886612738765617e-01
         - -7.7127597364105127e-02
         - -4.3511259120540396e-01
         - 2.6306386393893244e-01
         - 3.1733737832102643e-01
         - -3.3549110174000435e-01
         - -1.5855703859859063e-01
         - 5.5125920401218642e-01
         - -1.0713482784175103e+00
         - 4.9926402855832069e-01
         - 3.5957272308018201e-01
         - -3.8584052031326238e-01
         - 3.4809137364734588e-01
         - -2.0471479556371422e-01
         - -8.6565571380551362e-02
         - -7.5834434031854858e-01
         - -3.7508818097954472e-01
         - -2.3972015528072632e-01
         - 5.0222874829847546e-02
         - 6.1675905988259672e-01
         - 4.1901276599822362e-01
         - -3.8265172503336792e-01
         - 1.6655942587692174e-01
         - 2.6362814373516374e-01
         - 2.6127891447119200e-01
         - -1.1050749889197689e-01
         - 7.4197455541341639e-01
         - -1.7723349355541554e-01
         - -8.7022779931080180e-02
         - 1.8596141709564126e-02
         - -9.7041270586125494e-02
         - -9.0007120860023923e-02
         - -5.6749919746819144e-02
         - -3.9389658956936546e-01
         - -4.5412980133111402e-01
         - -8.7280455257215200e-02
         - -2.8853758963615589e-01
         - -2.2214034214821690e-01
         - -3.4889647277707697e-01
         - 1.9135920563394532e-01
         - -1.8405595331046637e-01
         - -2.1193784334675850e-01
         - 3.7908194184767971e-02
         - 3.2939967850448515e-01
         - 6.5898981925163924e-01
         - -2.3142320132717659e-01
         - 5.4891677023828833e-01
         - 2.0825610465854744e-01
         - -6.0158769265027523e-01
         - -3.5982968159429696e-02
         - -1.9395488101677735e-01
         - 2.4224119249670598e-01
         - -4.0266036613059630e-01
         - -1.7347620000310657e-01
         - -7.4345641324840089e-02
         - -1.4632213321331444e-01
         - 5.0122856924536252e-01
         - -2.2409758809416841e-01
         - 1.3199735383031919e-02
         - 9.1184507812401894e-02
         - -4.5865944138747665e-02
         - -3.4303907679397927e-01
         - 5.8259171952689304e-01
         - -3.2261845214417384e-01
         - 2.2037601426550887e-01
         - 3.4576873115990564e-01
         - -2.7368360403289449e-01
         - 3.3539826253247168e-01
         - -4.5155485729080673e-02
         - -5.4750559702091778e-02
         - -1.4766771054780749e-02
         - 9.8803565889270070e-02
         - 5.9531185171538541e-02
         - -4.1077674332372971e-01
         - -9.5650185993113174e-02
         - -4.7600405973994048e-01
         - 5.9609527696902220e-01
         - 3.8206903671232063e-02
         - -2.0168901770636893e-01
         - 5.0257696591916234e-01
         - 1.6560487954746680e-01
         - -1.3467520497214244e-01
         - 6.8562376744889530e-01
         - -3.3476906480840762e-01
         - 2.8672395003356782e-01
         - -3.8004603641872564e-01
         - -1.0858037073915190e-01
         - 1.6075281403495995e-01
         - 4.4813341163994719e-01
         - -2.7787038955989490e-01
         - -1.7623756055281309e-01
         - 3.6679368805661677e-01
         - 1.5127433698726744e-01
         - -6.1481654500525074e-01
         - 7.7500042614928843e-01
         - -4.1937157563973967e-02
         - 2.4343503095521035e-02
         - 6.8039952411929960e-01
         - -3.4741012200388594e-01
         - 1.2462139943225052e-01
         - -7.3079315459808489e-02
         - -2.5616662752140584e-01
         - 4.6852344602197527e-01
         - -1.4704409197565324e-01
         - 3.4232840109464535e-01
         - 1.6325936758601428e-01
         - 3.2326227944437118e-02
         - 1.6731232078767860e-01
         - 2.9250666518900925e-01
         - 2.6663190781264012e-01
         - 1.7411565064302201e-01
         - 1.8332150688058299e-01
         - 6.2565201878773943e-02
         - 3.2086751180224382e-01
         - 7.2690587788409727e-02
         - -1.2570462631978532e-01
         - 1.7425785426623711e-01
         - 1.0558193577964439e+00
         - -3.8359386024809278e-01
         - -2.6944991094400544e-02
         - -2.2119200592984725e-01
         - -8.5483695946795968e-01
         - -3.0308606109348402e-01
         - -6.1888256717609813e-01
         - 6.5385511076288316e-01
         - 2.0377860226919858e-01
         - -2.4424514366317268e-01
         - -4.8749321238546262e-01
         - 5.5771605166363070e-01
         - -5.4029413979620844e-01
         - -2.8935380209209516e-01
         - 7.8071396139635374e-01
         - -6.9437561993598940e-01
         - 3.3572560525597328e-01
         - 4.8982849396705989e-02
         - 8.3041213218405974e-01
         - 1.0790701917739502e+00
         - -6.6954227455444104e-01
         - 3.4639166002789195e-03
         - -1.1654139576374602e-01
         - 1.7843869301091148e-01
         - 7.7127079339129834e-01
         - -4.9866788235159371e-01
         - 3.1082838813811420e-01
         - 7.7602974139313705e-02
         - 6.9253224655363188e-01
         - 2.6630157524023218e-01
         - 4.5895284483982779e-01
         - -7.3321009512626212e-01
         - -3.3589841568054141e-01
         - -2.4422364619707623e-01
         - 2.9665960004224910e-02
         - 6.5539163799925715e-01
         - 8.8492483957490181e-02
         - -8.5742379280120129e-01
         - -8.8717083163700561e-01
         - 2.2462245858611515e-01
         - -1.1652564082645334e+00
         - -1.1331793656485015e-01
         - 2.1074806455343234e-01
         - 3.1233121956902138e-01
         - 4.5268090209900508e-01
         - -2.1767305811393275e-01
         - 3.8021841535407924e-01
         - -6.6232002592328343e-01
         - 5.2737639943113113e-01
         - 7.9697090045265609e-02
         - -3.6728691442996708e-01
         - 8.3978236272883588e-02
         - -5.9424251941424155e-01
         - -4.6781640660160728e-01
         - 3.9754424913635383e-01
         - 6.3465884359807390e-01
         - -4.1787760481827524e-01
         - -8.3312639143782355e-02
         - -1.5303934675496936e-01
         - 4.9758206541650324e-01
         - -3.8618593716948085e-01
         - -4.3723680357501493e-01
         - 1.4256070167854058e+00
         - -4.3928846671323302e-01
         - 2.2259589845064084e-01
         - -4.9041640355777011e-01
         - -3.3389087819475860e-02
         - 2.7561673074041682e-01
         - 3.4133955692895748e-02
         - -2.5652928175450129e-01
         - 5.0212159542019663e-01
         - 3.9095560028428544e-01
         - 1.8958008419340516e-01
         - -4.1743837292245295e-01
         - -3.5001035131228031e-01
         - 1.1343963843068407e-01
         - -5.4862186692085879e-01
         - 7.3783703371993481e-01
         - -4.1776953607353395e-02
         - -1.9996693278847430e-01
         - -4.5240363793769162e-01
         - -1.3203839147162623e-02
         - 1.1190439809031416e+00
         - 3.4375481870150898e-01
         - -6.4904392145104517e-01
         - -1.5923044316905433e-01
         - 3.2421032238994407e-01
         - -1.4517063325213539e-01
         - 3.4377153560604645e-01
         - 1.4467578126018674e-01
         - -7.8325817886624927e-01
         - 6.5613530460244526e-02
         - 6.5617661413729933e-01
         - -8.1159556632474750e-01
         - -2.5203935244739067e-01
         - 5.0491205090367960e-02
         - -1.1498476850299943e-01
         - 6.3612671696410605e-02
         - 9.4149212691231032e-01
         - 4.7507943971275834e-01
         - 6.4404679783369834e-02
         - -2.3508051757084139e-01
         - 1.0820368878791173e+00
         - 2.5107190605108465e-02
         - 6.0471438966962487e-01
         - 4.5600182716665683e-01
         - 2.3187184807086845e-02
         - 7.3943788654191955e-01
         - -4.4112572601117817e-01
         - -9.3057244686597068e-02
         - -2.9598459964098617e-01
         - -4.1646295718609305e-01
         - 5.4968971999490834e-01
         - 8.6712567400888702e-02
         - -1.9244892082945089e-01
         - -3.9017633961292786e-01
         - -1.8761930418692974e-01
         - 3.8581954226433990e-01
         - 7.7848280888717492e-01
         - -2.3213275659820198e-01
         - 4.9262533436623218e-01
         - -4.6966691006160827e-01
         - 4.9895254804060235e-01
         - -4.8110142150172669e-01
         - 1.1191136856672239e-01
         - 3.1776486671280274e-01
         - 1.6588981804368774e-01
         - 4.3840813965471848e-02
         - -3.2029434576320243e-01
         - -1.6839146902808499e-01
         - -1.1880496756176431e-01
         - 7.4953568212718577e-02
         - -3.0655643770891505e-01
         - 9.9943592091788547e-01
         - 3.5155552585059013e-01
         - 2.1357297577970710e-01
         - 6.6225614562502133e-01
         - -6.2876496099095136e-01
         - 8.3168696920734764e-01
         - 5.8568538959862493e-01
         - 2.0534847435319745e-01
         - -7.9104906025865940e-01
         - -9.6111862977903677e-03
         - -5.4410751695757972e-02
         - -7.6916615798169941e-01
         - -1.2238430146192362e-02
         - -5.3490180978439295e-01
         - -3.4820206965880984e-01
         - -9.9460110208441532e-01
         - 1.8007203018768886e-01
         - -7.9625640039192938e-03
         - 6.0282557749025500e-01
         - 1.0634194586190239e-01
         - 1.9775950833633477e-01
         - -1.7800830397655745e-01
         - -2.6749829306222006e-01
         - -7.0202536020223816e-01
         - -4.1560914209078220e-01
         - 2.9214782082028184e-01
         - 1.0730931629272735e+00
         - -1.5379724490438559e-01
         - 3.9320890658881924e-01
         - 1.1046934736099978e-01
         - -2.9470248901760515e-01
         - -2.4993136937533891e-01
         - 3.9972458544365524e-01
         - 6.1080976670018265e-02
         - -9.4740380891908740e-02
         - -5.9275176990448464e-01
         - -4.7005602728526003e-01
         - -7.9315061321027092e-01
         - -1.5486526513700652e-01
         - 1.9661844341991241e-01
         - 4.1268477128485381e-01
         - -6.3827968147531489e-01
         - 1.0433377158114940e-01
         - -5.4834296299713525e-01
         - 1.6595836567856967e-01
         - -4.0167710453407574e-01
         - -1.2341285312047519e-01
         - 5.5341587435294957e-02
         - -2.9379432060910976e-01
         - -9.9549700801087986e-03
         - 6.3991436756099085e-02
         - -5.9712377538718631e-01
         - 3.9457150030993760e-01
         - -1.4500682930934811e-01
         - -1.7408868153342522e-01
         - 4.5737064505589364e-01
         - -2.7304803431598594e-03
         - -2.7182778274705638e-01
         - -6.1447943765814611e-02
         - -9.2271613521953594e-02
         - -3.4642637180931624e-01
         - -1.0721396248260738e-01
         - 1.6011053361721278e-01
         - 3.0250291784961116e-02
         - 6.6451272862710309e-01
         - 3.3531545756265868e-01
         - -8.1591319998517611e-02
         - 2.0019098024304172e-01
         - 1.6083305441427673e-01
         - -2.6142024086286048e-01
         - -2.8389708998050328e-01
         - 6.0489091254383864e-01
         - 9.8095830892327318e-02
         - 8.9741682963180869e-01
         - -2.4463024661134355e-01
         - 2.6227913936665165e-01
         - 2.8006811675688431e-01
         - 5.5401882800986846e-01
         - 2.7631104205353035e-01
         - -3.4777920395392570e-02
         - -4.3940108839656183e-01
         - 5.2314226299521961e-02
         - 4.4612381224646980e-01
         - -2.7521652306477240e-02
         - 2.7936449130319457e-01
         - -9.4232439518098801e-02
         - 2.4797438403573924e-01
         - -4.8087274185098522e-01
         - -8.9277838245784613e-01
         - 4.3845097934285704e-01
         - -8.4893734308596347e-01
         - -2.0729126916669724e-01
         - -5.4628880595992524e-01
         - -6.6301752974237238e-02
         - -4.9637970088216482e-01
         - -7.5338901047700257e-01
         - -1.6702628295778110e-01
         - 7.2291562204934490e-01
         - -1.8784274816248159e-02
         - 1.1046020418225898e-01
         - 5.0968822886203569e-01
         - -7.5810921277114196e-01
         - -6.3545754600273618e-01
         - 3.5772955586823996e-01
         - -4.4045801160226544e-01
         - 3.5532424792691597e-01
         - 2.0667926076830181e-01
         - -4.8099951552755615e-01
         - 6.0300218442058862e-01
         - 2.2671137152284848e-01
         - -3.5864896192924828e-01
         - 8.4112700670352825e-01
         - 3.5313425424980593e-01
         - 7.0800742596244115e-01
         - 1.3669539884479712e-01
         - -1.6643726722938054e-03
         - -1.6446923431749436e-01
         - -6.7792025842359549e-02
         - 9.4234840089234162e-02
         - -3.7102893415217325e-01
         - 4.4538434770075891e-01
         - -9.5653999363118603e-01
         - -1.7401318142608380e-01
         - 1.1433929479312925e+00
         - -7.9774667826198915e-03
         - 4.3620257877827795e-01
         - -5.7574637448525139e-02
         - 2.3295185384555073e-01
         - 1.2652969875066156e-01
         - -3.6661192742647636e-01
         - 1.1811252328616577e+00
         - -5.4135843221959579e-02
         - 1.1140872218416976e-01
         - 1.6093919751412372e-01
         - -2.1412109056331377e-01
         - -7.8436300662497105e-01
         - -4.1351960941711863e-01
         - 2.3402930992089083e-01
         - -6.2716351029761119e-01
         - -6.4177136223391540e-01
         - -3.7187423299628830e-01
         - 1.2795487843811419e+00
         - 2.5192213132009789e-01
         - -1.2338008141643633e+00
         - -2.8463159218483863e-01
         - -9.9611578728878292e-01
         - -3.0612880341038878e-01
         - 5.7100331350298428e-01
         - 3.6448492706425206e-01
         - -3.5995153994638268e-01
         - 1.1297886809853079e-01
         - 6.0354456930037839e-02
         - -3.3005292450876084e-01
         - 4.1691481721823659e-01
         - -4.6612225472124694e-03
         - -2.1263264399928401e+00
         - -1.4378538131905982e-01
         - 2.5562490305349123e-01
         - 4.7521096065760926e-01
         - 3.9938676549569374e-01
         - 7.4739361379918184e-02
         - -1.0853300085990052e+00
         - -1.7320620484492782e-01
         - 1.4341435684032375e-01
         - 1.7766663574485135e-02
         - -2.2468652550474694e-01
         - -5.1712685151866652e-02
         - -5.3095765139424578e-01
         - -1.9494331503864679e-02
         - 4.6670088788446007e-01
         - -3.7102054105571841e-01
         - 3.6362188975853194e-01
         - 2.2686151338765187e-01
         - -8.0532750120289293e-02
         - 2.2087448332216175e-01
         - 2.2382873036148745e-01
         - -4.3792549417915561e-01
         - 1.3276567424559671e-01
         - 3.1252671747186378e-01
         - 1.1321108748205273e-01
         - 6.3798550307594204e-01
         - -4.6148014605773408e-01
         - 6.6090549845704144e-02
         - -1.1311898893962431e+00
         - -7.6805156588101375e-01
         - -9.3795497302626388e-02
         - -3.4911009795473569e-01
         - -1.2781228949082799e+00
         - -6.9342555503931952e-02
         - -1.2160778992788183e-01
         - -2.1274928141712740e-01
         - 1.9440522154923331e-01
         - -3.3601884969905516e-01
         - 1.1646341538192986e+00
         - 3.9005004442291241e-01
         - 4.7201459872236501e-01
         - 4.5663533323906030e-01
         - -2.5248692149023405e-01
         - -5.0638569414464574e-01
         - 4.2001241968210778e-01
         - 6.7742949972715363e-02
         - -2.0654655768376895e-01
         - -1.5982542338019229e-01
         - 7.9042243380581734e-01
         - -8.5599415202127338e-01
         - -2.1119074633575048e-02
         - -2.6013903728900628e-01
         - -6.7324232293291564e-01
         - 1.1095932324449599e-01
         - -1.0191768079607009e+00
         - 6.7991141352782714e-01
         - 5.2408688887720489e-01
         - -3.9036127847849095e-01
         - -1.5570070908556896e-01
         - 4.9907720240072999e-02
         - 7.2678639417197366e-01
         - -1.5527947048254939e-01
         - -4.5325736950684641e-02
         - -7.2248492719918633e-01
         - -9.7357799113780397e-01
         - -1.2235437029840925e-02
         - -1.1605343524429421e-01
         - 1.3164282151386590e+00
         - -4.9139568759120278e-01
         - 4.3388781397879994e-01
         - 7.2504285816065850e-01
         - -7.3662432178623755e-02
         - 1.5080239141561389e+00
         - 2.7341133428043757e-01
         - 1.1785800506364281e+00
         - 6.1147546814881881e-01
         - 4.7453242101402511e-03
         - 1.1544981337498142e-01
         - -5.1144029221109011e-01
         - 5.8683114502320233e-01
         - 2.2242973127015353e-03
         - 4.8779132647367301e-01
         - -1.1075290523211174e+00
         - -1.9315266371450479e-02
         - -3.2277216076182591e-01
         - -1.8512016343492482e-01
         - 1.9785132145595002e-01
         - 3.1612957300295536e-01
         - 4.6663452304342617e-01
         - 3.6614331108641990e-01
         - 2.5566777919157868e-01
         - 1.4884753435180412e-01
         - -4.4011368351901436e-01
         - -8.3186893861294894e-02
         - 1.3062815554312476e-01
         - -9.7021801302807775e-01
         - -2.2269322792595780e-01
         - 9.5671585868780307e-01
         - -1.7124836636211430e-01
         - -4.1140440535453915e-01
         - -6.8848103298126706e-01
         - 7.2211122644864068e-02
         - 3.9359233573244806e-01
         - -2.6574714003733679e-01
         - 6.7055662321954324e-01
         - 1.8853096366718922e-02
         - 3.1047515796943209e-01
         - -3.7749250759782110e-01
         - 4.9681369351201060e-01
         - -4.9207640154544798e-02
         - 1.1450763760805357e-02
         - -4.3056541233488554e-01
         - -1.2422861519595647e-01
         - 4.8907345314430362e-01
         - -6.9172304442776000e-01
         - -2.8791812916552986e-02
         - -3.9618077998302115e-01
         - -7.6224159544543069e-01
         - -2.2516663322114980e-01
         - -4.4930550380111750e-01
         - -7.5508892242443171e-01
         - -3.1561692632096433e-01
         - 2.8652923561901061e-01
         - -1.3461272685653403e-01
         - -8.7200241283459837e-02
         - 3.9342174960423110e-02
         - 3.5639536504914587e-01
         - 6.7461623322761988e-01
         - -3.2015619978021698e-01
         - 2.7281853786281918e-01
         - 3.5427755283182767e-02
         - 3.4995533371145326e-01
         - 1.4471532422481505e-02
         - 1.0806360059391895e-01
         - -4.5897461842918180e-01
         - -7.5038644099420027e-01
         - -6.4891088653251816e-01
         - -3.8550115856763412e-01
         - 1.7224297955086015e-01
         - 6.9224270854832376e-02
         - -2.2232806458759685e-01
         - 1.9869051621074091e-01
         - 6.2061489609508014e-01
         - 1.6336304435569515e-01
         - -2.8768232308667308e-01
         - 4.9795978699152260e-01
         - -7.7861488244878396e-01
         - 4.1753439486455024e-01
         - -3.3254977784192691e-01
         - -4.3968938601099078e-01
         - -1.1191146115063970e+00
         - -5.3629179501087265e-01
         - -3.7616138741287031e-01
         - -3.3832178543225899e-01
         - -2.0308137817849084e-01
         - 8.1181212976140837e-01
         - 9.9299465608755043e-03
         - 7.5056580856388777e-01
         - -5.9056036854581806e-01
         - -4.5061277142037520e-01
         - -8.1195789911205674e-01
         - 2.5622420318474653e-02
         - -5.3121734389460518e-01
         - -4.2492012675349217e-02
         - 3.4775378101923787e-01
         - -1.3198384080605122e-01
         - 1.7561915578734275e-01
         - -1.5815287198768244e-01
         - 9.3042090528557331e-01
         - 7.0442562108291140e-01
         - 3.8510530199770920e-01
         - 7.7881755678379863e-02
         - 1.0433745951808404e+00
         - 2.4438136702635688e-01
         - 7.1401793539342673e-01
         - 5.0300628412596124e-02
         - 6.8410013092625788e-01
         - 1.4906529057591439e-02
         - 1.7767977694953685e-01
         - 1.8876819886925064e-01
         - 3.6003841428908456e-01
         - -3.6153006185325276e-01
         - 2.5579458635978408e-01
         - -2.0984463512683599e-01
         - -1.8142326664379044e-01
         - -4.1953155100455775e-02
         - -8.2825906914391345e-02
         - 4.0414415782391550e-01
         - 6.0042016678262096e-02
         - -1.2431396381669593e+00
         - 2.7186428041393002e-01
         - -2.9138921161800974e-01
         - 4.7751608597749511e-02
         - -6.9206249014480248e-01
         - -2.3888773855370579e-01
         - 3.9071807181692081e-01
         - -4.4182202278005026e-02
         - -3.0562378417212127e-01
         - -2.8492550404768968e-01
         - -4.3763564575684399e-01
         - -2.0240343194033381e-01
         - 6.3176602589321951e-01
         - -4.3031163286472457e-01
         - 1.1427093375534716e-01
         - 2.6775204265797647e-01
         - -3.6268842335727153e-01
         - 3.0911531268073067e-01
         - -3.5882344034880560e-02
         - 3.2188102933035440e-01
         - -5.1937175347499387e-01
         - -2.3903173948118122e-02
         - 2.4399251457243070e-02
         - 4.5170456184242286e-01
         - 1.5401293630320467e-01
         - 7.0428739368563686e-01
         - 2.6427243863989708e-01
         - 5.7917154680013024e-02
         - -1.7679961088619583e-01
         - 5.0005554916239647e-01
         - 4.0319730165174639e-01
         - -1.4106919127672723e-01
         - 4.9345367092419185e-01
         - -6.3384516459571283e-01
         - 5.4681848890078051e-02
         - 8.9371310918661373e-01
         - -4.5253083538917077e-02
         - -6.0599202880307818e-02
         - -9.2208822989298486e-02
         - -1.0616189280377820e-01
         - 1.5746258667213870e+00
         - -2.8007591687652422e-01
         - 2.6694037616963256e-01
         - -3.8547378850409091e-02
         - -1.0386242631212231e-01
         - 2.3923040033123410e-02
         - 3.8675301096090559e-01
         - 3.9205520418132833e-01
         - -9.2901448988615187e-02
         - 1.1125261618729474e+00
         - -2.9738428284094975e-01
         - -4.4820292247888949e-01
         - -1.3057439012271413e-01
         - 5.5119418663181829e-01
         - -2.4364878372031656e-01
         - 2.6721767151154627e-02
         - 9.3402686982197025e-01
         - 5.0820857508800155e-01
         - -1.4231401755663404e+00
         - 2.4700409765415790e-01
         - 3.5777028476515660e-01
         - -5.5524835353968162e-02
         - 7.8125564206348164e-01
         - -1.9034862394062976e-01
         - 8.7446980611556790e-01
         - 8.7705627287243615e-01
         - -4.9344091300344833e-01
         - -2.1943513981486956e-01
         - -1.4614183305445369e-01
         - 9.7078204543176583e-01
         - 4.8686304490471305e-01
         - -2.3775454470900784e-01
         - 2.0802530148742185e-01
         - -2.9310744445574954e-01
         - 6.6323692224894737e-01
         - 2.7731431392560499e-02
         - -5.2689536906914125e-01
         - -6.7441085862693362e-01
         - -1.1646564934936393e-01
         - 8.8296614934513618e-01
         - 3.4439743123544037e-01
         - 1.8430087131550213e-02
         - -2.9304842820154425e-02
         - -4.1971836897235143e-01
         - 1.9970685829570532e-02
         - -3.2802752164926369e-01
         - -4.2585839601100789e-01
         - -3.7414121635326653e-01
         - -2.4680457053173624e-01
         - -9.6207395595650697e-02
         - -6.9999128242662723e-01
         - 1.1705007424747367e-01
         - 3.1316704203898288e-01
         - -4.4581735746691109e-02
         - 4.0973389784757319e-01
         - 4.1871419592694675e-01
         - 6.8813207299804591e-01
         - 8.5661731608339439e-02
         - -1.8632619009920007e-01
         - -8.8035427089270438e-02
         - -6.5424306643080932e-01
         - -1.2753820840556956e-01
         - -5.5195991892104868e-01
         - 4.6964191315166293e-01
         - -2.6091861033564823e-01
         - 9.5796066555101733e-01
         - 4.4634924171713969e-01
         - 1.2164821176741820e+00
         - -2.4299071735526914e-01
         - -4.0534980351659372e-01
         - 5.8279539157547744e-01
         - -2.8302919461898512e-01
         - 5.3951506371395397e-01
         - -5.9985969449563536e-01
         - 5.4738443358494449e-01
         - 6.2204616336954199e-01
         - -7.8061167763966732e-01
         - -1.1584948282095871e-01
         - -1.1934724688050417e-01
         - -3.5395181161043043e-01
         - 3.3571597172967044e-01
         - -2.2916456661561829e-01
         - -1.2976021267296645e-01
         - 4.1409137024632497e-01
         - 1.6569429857778412e-01
         - 1.5457607729202175e-01
         - -2.6794519376623160e-01
         - 4.2895534412341618e-01
         - -6.1497302803891329e-01
         - 8.9269630735159922e-01
         - -5.5409869852929994e-01
         - 4.1480111109763400e-02
         - 4.9447405528440735e-02
         - 1.8478412769503882e-01
         - 1.2555804003538565e-01
         - 2.4866821227835365e-01
         - 4.3359632619231168e-02
         - -9.2187078461513772e-01
         - 2.0188041354691952e-01
         - 4.7008715964712566e-01
         - 7.2437391286290301e-02
         - 6.1467128299735962e-01
         - 6.2723735838432437e-01
         - 2.1322574114859546e-02
         - 8.9880325841668968e-02
         - -4.2364445115514993e-01
         - 1.5739174864962635e-01
         - -6.7707876330164596e-01
         - -1.6801136242359160e-01
         - -1.1132619791355049e-01
         - 1.7013804531555909e-01
         - -9.0177357066538966e-01
         - 3.6617708236675717e-01
         - -1.9998612367690110e-02
         - -1.8114429539747268e-01
         - 6.5712931784897433e-01
         - 7.0821604515373515e-01
         - -6.1166251715609110e-01
         - 6.3834069115813263e-01
         - -4.0576834776632942e-01
         - 9.8204565065716143e-01
         - -2.3980413764204980e-01
         - 1.9678490102096530e-01
         - -2.0664998050297129e-01
         - 7.5157882720600022e-01
         - -6.2856857882113037e-01
         - 6.9708603568482658e-02
         - 1.3233301855450050e-01
         - -2.1286390652978981e-01
         - 7.0844829320407665e-01
         - 4.2954176956813400e-01
         - 6.2342296710223892e-02
         - 5.5593694805859173e-01
         - 1.2247367644771924e-01
         - -4.8570209417959287e-01
         - 1.0227711459839939e-01
         - -1.5426967934480368e-01
         - 2.5449714920994093e-01
         - -7.1531731122437170e-01
         - 8.1071652973232577e-01
         - 9.4547813091701738e-01
         - -5.6570188866432558e-01
         - 8.7772029333270352e-01
         - -1.7401849369241146e-01
         - -2.4156187563595549e-01
         - -1.1034817207524223e+00
         - -4.9360818929347494e-01
         - -6.0362578922066901e-01
         - 6.9874492082376552e-03
         - -2.7450820093646733e-01
         - 4.1392899560769930e-01
         - -3.4961758743261140e-01
         - -4.6347963368374384e-01
         - -3.4909050026928867e-01
         - 1.6691726568088372e-01
         - -6.7797457544272610e-01
         - 4.1926754285830459e-01
         - -1.2104892605203990e-01
         - -3.7303182509564631e-01
         - -3.0881799466826410e-01
         - -1.2947825953718436e-01
         - -2.0109758406137720e-01
         - -3.8897155194511715e-02
         - 6.4054183906146756e-02
         - -4.8532258905835413e-01
         - 2.9926822398029823e-01
         - -1.4932013282470130e-01
         - 1.7930129370600847e-01
         - -8.4167234964263149e-01
         - -7.8155707823066156e-01
         - -4.5712748313584395e-01
         - -1.0640974292725036e-01
         - -3.5444689812595409e-01
         - -4.7224514630002996e-02
         - 2.2642948848555322e-01
         - -2.8168209346598017e-01
         - -2.8359836811574601e-01
         - -1.5973350638948616e-01
         - -2.8142717440931386e-02
         - 3.1462214878408162e-01
         - -2.5129256292615171e-01
         - 6.4592414013331723e-01
         - 3.6104493186518472e-01
         - 2.1667057997328268e-01
         - -6.9485173751977783e-02
         - 5.7834996310069209e-01
         - -5.8471606765476591e-01
         - 1.1449126034956034e-01
         - 2.6322843590894635e-01
         - -3.2959450185995931e-01
         - 2.4302623396727524e-01
         - -2.3022154082442914e-01
         - 6.4957454800197123e-01
         - 1.0929316112246477e+00
         - -8.8119687534181743e-02
         - 8.8419900384341410e-01
         - -3.5571310165576697e-01
         - 3.6492584506112724e-01
         - 6.1055824991828578e-01
         - 5.4873288968831191e-01
         - 2.5529621139800840e-01
         - 3.1836722921870098e-01
         - 1.3796816137657908e-01
         - -2.6145143763724354e-01
         - -2.5258814739617573e-02
         - -1.8159381679663841e-02
         - -3.1713593471281176e-01
         - -1.8928770261983910e-01
         - 9.9949707829920624e-03
         - 7.9627027124309091e-01
         - -2.9989398653312571e-01
         - -2.0920739211586917e-01
         - 4.7807573036980272e-01
         - 1.3211476142861380e-02
         - -2.9272976352803159e-01
         - 1.2454132845116804e-01
         - -2.7986863995202405e-01
         - -2.9351987354937992e-01
         - -7.0285058091058139e-01
         - 1.3387158147821435e-01
         - -4.6183603085466839e-02
         - -3.3741744636778259e-01
         - 5.5287765441524184e-01
         - -6.0270041857944034e-01
         - 2.7180490354041226e-01
         - -8.3470009794016531e-01
         - -7.5170877821949936e-02
         - 2.4760878014485294e-01
         - -1.9937855111246969e-01
         - 7.7254526360442957e-02
         - 4.7471534108727842e-02
         - -4.9312656048991277e-01
         - 1.1000019531383824e+00
         - 5.5284082592551509e-01
         - -1.1287701176333863e-01
         - -2.8077916517506124e-01
         - -1.8615982055083280e-01
         - -6.2420520358190879e-01
         - -9.0685321554628495e-02
         - 3.9953864145216827e-01
         - 1.4530307072140766e-01
         - 3.6660410530360121e-01
         - 1.4695049196239812e-01
         - 2.4129322456166874e-01
         - -3.9248738824387869e-01
         - -6.9656022144369378e-01
         - -4.2311315683589823e-01
         - 1.5918626199859834e-01
         - 3.7680736511120289e-01
         - -1.0458396508447523e+00
         - 3.6830096567983001e-01
         - 4.8583102498630987e-01
         - -4.1848039176482056e-03
         - -7.7987411623568606e-02
         - 3.2516089887293964e-01
         - -1.8357809987932250e-01
         - 1.3021161649859644e-03
         - -5.0614378750351607e-01
         - -1.1113243031041846e-01
         - -1.3610349713202244e-01
         - -1.0238072311493114e-01
         - 3.0315536664382464e-01
         - -4.5193296289454493e-01
         - -4.3671235860869434e-01
         - -8.0808176603827397e-01
         - 4.0273539336443415e-01
         - -6.8958723523590526e-01
         - -2.2984515903104288e-01
         - 6.9686995776842087e-01
         - 5.0775597986116672e-01
         - -3.7653337523354197e-01
         - -4.7483150138799790e-01
         - -9.2129339427983348e-02
         - 7.2378951641148626e-01
         - -9.1137204689949028e-02
         - 3.1210660670355989e-01
         - -2.4905223938931406e-01
         - 3.8681007380779570e-01
         - -2.7985125119762011e-01
         - -6.9622459832746147e-02
         - 7.7177217617690741e-01
         - 1.1976724016692777e-01
         - -8.6374035936565008e-02
         - 1.7297278452066112e-01
         - 1.1267283880591779e-01
         - 2.6930054871544967e-01
         - -4.0342260525312434e-01
         - 1.9717912579462302e-01
         - 2.2323814612112206e-02
         - -1.0068229769101902e-01
         - 5.4229168088202850e-01
         - -2.9234816212565851e-01
         - -6.3138202761642304e-01
         - 8.5130426674282750e-02
         - -3.6117662507329196e-01
         - 4.1059791645241411e-01
         - 6.1261560408882254e-01
         - 7.0072881859957858e-01
         - 2.5474309276039625e-01
         - -4.8871527288383992e-01
         - 3.7490283149350351e-01
         - -1.8268158156085473e-01
         - 2.4773641275718458e-02
         - 1.7961411042834913e-02
         - -5.0767020559077858e-01
         - -3.8383144228556321e-01
         - -1.4192156566858621e-01
         - -6.3497417910271275e-02
         - 4.2187911750931029e-01
         - -9.2115039130399191e-03
         - -4.9728872939193897e-01
         - -3.3114698422516908e-01
         - 1.2154711953307312e-02
         - -1.9394134596201290e-01
         - -5.9924967775745151e-03
         - -6.0022385944903126e-02
         - -8.2406831557614454e-02
         - 4.5905303140858666e-01
         - -2.9850211125660508e-02
         - 3.2317180615889379e-01
         - -1.0982662451444744e-01
         - 2.9349022069127321e-02
         - 5.5609631912056501e-01
         - -2.9294865501682960e-01
         - -3.6854012986887796e-01
         - -3.0832913454629624e-01
         - -2.9496620943450907e-01
         - -3.4923717181538583e-01
         - 4.6126621431714149e-01
         - 1.1369459455937400e-01
         - -3.6013377901988014e-01
         - 9.6129037536069761e-01
         - -4.7718286217092365e-01
         - 1.5789900665958462e-01
         - 3.4728058872138212e-01
         - 4.1568601783256737e-01
         - -3.9816110564325513e-01
         - 4.1789965483817049e-01
         - 1.1983561577769299e-01
         - -4.7003434101468212e-02
         - 4.7434564773111898e-01
         - 1.4507774494817344e-01
         - 5.2572445499961029e-01
         - -2.7475035214122723e-01
         - -3.5799911660159123e-01
         - -6.2121246737634828e-01
         - -9.0542746364544069e-01
         - 1.4369729578760101e-01
         - -1.5856804098203711e-01
         - -2.1368413017006302e-01
         - -6.9570729933093312e-01
         - 2.5652285030303523e-01
         - -4.5070981167394497e-01
         - 1.7058373343600192e-01
         - 5.1462669067471889e-01
         - -2.2422706883308438e-01
         - 7.0545502395235982e-01
         - 2.6136757088966128e-01
         - 4.0041224521561752e-01
         - -7.8510415047833759e-01
         - -2.4505599244874246e-01
         - -2.8813881816459164e-01
         - -8.2606073263772437e-02
         - -5.0398199078786576e-01
         - -6.6639624174039547e-01
         - 1.4693881636104389e-01
         - 4.9159256562974590e-01
         - -2.6462612305693656e-01
         - 4.4638175050912710e-01
         - 2.7567065089487624e-02
         - 6.3094529042350933e-01
         - 4.3815344177261545e-01
         - -4.5457082926959919e-01
         - 6.8373170324280710e-02
         - -5.7936979113082446e-02
         - 4.2905726599296096e-01
         - -4.6577063727956936e-01
         - -1.2352566179372526e-01
         - -5.4240178322375832e-01
         - 7.8213029020826556e-03
         - 1.2669151494005601e-01
         - 1.7912139808167904e-01
         - 6.5582426947763872e-01
         - -1.4877879650583650e-01
         - -1.8681239489720791e-01
         - -3.2477443013422130e-01
         - -2.2472482381160305e-01
         - -1.6847245037764683e-01
         - -6.8803400516989544e-01
         - 5.0178899825014578e-01
         - -9.0730584285515281e-02
         - 4.1956622795513382e-01
         - 1.0024099324745181e-01
         - 1.1732421104646893e+00
         - 4.0541010070939876e-01
         - -2.6173890388673641e-03
         - 4.3318940018632018e-01
         - -3.2926501040048678e-01
         - 6.1604183200138873e-01
         - -2.5619577438623531e-02
         - -2.8869411325707811e-01
         - 4.8333703158286684e-01
         - -2.7609444526902143e-03
         - -2.4111899712722976e-01
         - -3.2320767926474231e-01
         - -4.3919423161146576e-01
         - -2.7422802671721264e-01
         - 7.0888424875977477e-02
         - -2.4874849668205434e-01
         - 3.0470597446509595e-01
         - -2.4324531147771869e-01
         - -2.7088235553026563e-01
         - 2.1899351400598754e-01
         - 1.4954704942203101e-01
         - -1.3929553590205149e-01
         - -5.8071419868552310e-01
         - 2.8147230281536323e-01
         - 1.0019973438405430e-01
         - -5.4364841532744868e-01
         - 5.1300828659849818e-01
         - 1.0508093606741255e-01
         - -1.9375415812533311e-01
         - -8.8795002072192875e-02
         - -1.9421866733471341e-01
         - 1.9318542823010665e-01
         - -4.1767522367479842e-01
         - 1.5808178713863177e-01
         - 2.5990609472947439e-02
         - 7.5438449353693027e-01
         - -4.3088020653210873e-01
         - 1.4052040529477286e-01
         - -3.1565585688828185e-01
         - -1.8785615387209470e-01
         - 3.4268695007014877e-01
         - 1.7527985927730392e-02
         - -1.7745139867086956e-01
         - 2.2506718032574835e-01
         - -7.1041506616053574e-02
         - -2.0437280800011229e-01
         - -3.0078386207876884e-01
         - 7.6059164786884448e-01
         - 4.7932242956868781e-01
         - 2.1693967863392248e-02
         - 5.3392915545413244e-01
         - 3.5938923802026618e-01
         - 2.5160662385155746e-01
         - 1.1064616985757249e-01
         - -5.5495628195248470e-01
         - 2.0654586941106465e-01
         - -2.8570334620838417e-01
         - 1.3010355980097310e-01
         - 9.6438153120085646e-01
         - -1.1305683304831807e-01
         - -4.6285366348655788e-01
         - -6.9309937521195464e-02
         - 1.8983253816053289e-01
         - 2.0359684864535341e-01
         - 5.5636582527839207e-01
         - -3.9335563630095544e-01
         - 5.8431586883020248e-01
         - 5.5052107911697346e-01
         - 8.8833472675160868e-02
         - 5.7251517991866030e-01
         - 9.7083088766166378e-02
         - 3.6010393607236096e-01
         - 5.6514226321241390e-01
         - -6.0936653351226899e-01
         - -3.6179770782895732e-01
         - 3.6477382944246922e-01
         - 1.8408004548623122e-01
         - -8.5115551585328086e-01
         - 4.2319290337521065e-01
         - -1.5873989561166296e-01
         - -6.3411403571131328e-02
         - 8.6943479427675163e-02
         - -2.7255333724486852e-01
         - -9.2726093895361822e-02
         - 3.4249972461322886e-01
         - -2.5208605096546893e-01
         - -4.9930931342425666e-01
         - -3.7456027258839825e-01
         - 1.9559772324505115e-01
         - 4.0961218432301577e-01
         - -2.1435637665204660e-01
         - -1.0716675904107190e-01
         - 4.6659995846779767e-02
         - -3.9731973112449603e-01
         - 1.7617631013185561e-01
         - 4.8546267108816482e-01
         - 2.4969309450369157e-01
         - 6.3878496393431727e-01
         - -8.4701235637369976e-01
         - 5.9165818636499369e-02
         - -4.6053266301925261e-01
         - -3.3628461324155701e-01
         - 4.1950121420563885e-01
         - 4.2139378808230787e-01
         - -6.6857310418197180e-01
         - 5.9074967475814623e-02
         - 7.1309874458678868e-01
         - -6.7826585140316931e-01
         - -2.4816129455062422e-01
         - -1.9928321874358923e-01
         - -1.9108301478630976e-01
         - 4.5340482893774936e-01
         - -3.0607417993841951e-01
         - -3.2087573103049338e-01
         - 2.3801006497307728e-01
         - 7.1987568943201019e-02
         - 1.5000928647237738e-01
         - 2.8769402156589130e-01
         - 7.7192742531247460e-01
         - 6.5520766196619021e-02
         - -6.9337185330765150e-01
         - -1.4628597868886839e-01
         - 3.7274851450023405e-01
         - 2.4953170502577163e-01
         - 1.6948918117686246e-01
         - -4.6442047716818152e-01
         - -4.0014681531579055e-02
         - -5.7614586679912061e-01
         - 6.8584964231889134e-01
         - -7.9426418177768265e-01
         - -5.6760931881840826e-01
         - -1.4627463098987870e-01
         - -1.0969140760493627e-01
         - -7.3721318265242153e-01
         - -2.4132038938006270e-01
         - -6.2732429483764493e-02
         - 2.9497735287592786e-01
         - 2.8074827338875679e-03
         - 1.2600250387626341e-01
         - -6.1433284143003183e-02
         - -2.7127731355661638e-02
         - 1.5469466946362270e-01
         - 1.9438462820541394e-01
         - -4.4377795707400403e-01
         - -1.3024629740411953e-01
         - -7.2029329950412713e-01
         - -1.1293949795562979e+00
         - -8.9265028844498995e-02
         - 2.9025516367209337e-02
         - -2.9323860121622647e-01
         - 8.7897502146101453e-02
         - -4.5977659126429582e-01
         - -9.7766439312925849e-02
         - -9.0127520727765364e-02
         - -5.9928147587589831e-01
         - -5.7631226810547553e-01
         - 2.4723760655282875e-01
         - -1.6476365783201163e-01
         - 2.3955474861325263e-01
         - -5.8629235870387353e-01
         - 4.5010188749097307e-01
         - -4.8312975541247485e-02
         - -8.7532408923617289e-01
         - 3.2992091495364545e-01
         - 1.9722774211827873e-01
         - 2.6944914794845715e-01
         - 8.0071004434010229e-01
         - 1.9251286062668835e-01
         - 4.0984291318921029e-01
         - -1.2223724267939905e-01
         - -2.3215107588777824e-03
         - 7.8680148482816881e-01
         - -2.9161572059887247e-01
         - -2.3445585150556530e-01
         - 2.7994364360360446e-01
         - -9.0979458684890838e-02
         - -2.0712796977679721e-01
         - -3.2784085090272902e-01
         - -2.2784542552738837e-01
         - -4.9423647298204887e-01
         - 8.4425308797389476e-01
         - -8.3839195767867403e-01
         - -5.0630365928402732e-01
         - 3.8331774001331775e-01
         - 4.7026116896024878e-01
         - 3.2116064258676097e-01
         - -3.0284936590408473e-01
         - -6.8849582241286700e-01
         - 4.6112550891019749e-01
         - -1.0423038748450188e-01
         - 1.2945037550449584e-01
         - 5.1225753415363096e-01
         - 1.9807927368881978e-01
         - -7.2418064634164903e-01
         - -2.4026322991813280e-02
         - -5.3599913334517080e-02
         - 5.0808394783779305e-02
         - 3.1150195925018959e-01
         - 3.4425885031672043e-02
         - -1.8815328571982459e-01
         - 4.4458278147702024e-01
         - -2.4237585870280731e-01
         - 8.8511405362460258e-02
         - 5.3792929470795581e-01
         - 1.9598265695539288e-01
         - 8.6089075549476057e-01
         - -1.7570215504612040e-02
         - -1.4589137767456559e-01
         - -2.4281774223540728e-01
         - -5.7848768680705576e-01
         - -1.4494309750448373e-01
         - -2.4728901993471342e-01
         - 1.5884523092715641e-01
         - -2.5951453709687922e-01
         - -5.6116345040000126e-01
         - -3.4274938931973718e-02
         - 5.1620835714740987e-01
         - -2.4781216449031016e-01
         - 1.6391017530738405e-01
         - 6.2518923486353450e-01
         - 7.2698661649674934e-01
         - -1.3900076905708014e-01
         - -2.9387771068670082e-01
         - 3.1021137620930173e-01
         - -9.8631881896709225e-02
         - -7.3690253897527355e-02
         - 3.4006619396997129e-01
         - -2.7759877725687698e-01
         - -3.8746798897846280e-01
         - -1.6947926438912866e-01
         - -1.0522530608639917e-01
         - 9.6022513054818542e-02
         - 1.1312245247678216e+00
         - 1.7186990925811146e-01
         - 5.9372423681612319e-01
         - -2.8822681764124058e-01
         - 5.8062344515137843e-01
         - 8.2657783147825947e-01
         - 3.0124425483614636e-01
         - -6.0750026732064151e-02
         - -2.5711867672129851e-02
         - -1.5330078521883495e-01
         - 1.5546331105312837e-02
         - 8.3876708796196797e-02
         - 3.5961616699101639e-02
         - 3.7542744433018187e-02
         - -1.4716987716464688e-01
         - 4.0036185557331433e-02
         - 3.5241102837743771e-01
         - -3.7379855912096482e-01
         - -2.2288912723478327e-01
         - -5.0158199597615261e-01
         - 2.9502492217839271e-01
         - 1.8876651364234647e-02
         - 4.0501429525606714e-01
         - -3.0376867762822823e-01
         - 7.1001174510939247e-01
         - 8.4325178222752983e-02
         - -1.9662971002239177e-01
         - 3.1100087223430556e-01
         - -5.9756981981352142e-01
         - -3.9994509501222097e-01
         - 4.4227949954260305e-02
         - -5.7405983834424756e-01
         - 5.7070514771850288e-02
         - 5.1329022624929410e-01
         - -1.2384834738874135e+00
         - -2.9559009395400254e-01
         - -7.1423396119952964e-01
         - -2.9184825731853709e-01
         - 3.6599191111972290e-01
         - 2.0465278955125674e-01
         - 1.7405835959429053e-01
         - -5.5672322353246551e-01
         - -1.6715334390943443e-01
         - 2.3565162674844778e-01
         - -1.2130975524319092e-01
         - 3.1706297681978257e-01
         - 1.3375423817429796e-01
         - 4.6834424429310623e-01
         - 5.2250908467189855e-02
         - -1.1323304651261812e-01
         - 3.0307023115453186e-01
         - -9.1069404419226263e-01
         - -1.8447137386606169e-01
         - 1.2367885123300246e-01
         - -8.4015707335072054e-01
         - 7.2231349921419141e-01
         - -4.2942073641002429e-02
         - -9.2212890123699834e-02
         - -4.2249048104664283e-01
         - 2.4812953436598334e-01
         - -1.0754403589340349e+00
         - -7.4071005591191896e-01
         - 6.1188854030437922e-01
         - -1.2743167092412731e-03
         - -2.4003037416801296e-01
         - -2.7848727148449115e-01
         - -1.1426717191660809e+00
         - 3.8232279719676958e-02
         - -3.2044436603932303e-01
         - 2.5062171307887710e-01
         - 3.2702484259185838e-01
         - 5.5639283013455443e-01
         - 4.3230099859097998e-01
         - -6.2854106763035903e-03
         - -4.3581213888499692e-01
         - -3.8792736889083501e-01
         - -6.1280565577400947e-01
         - 2.3038221882562154e-01
         - -6.6372629122790172e-01
         - 5.1680340805689340e-01
         - 1.6972670463718725e-01
         - -1.1413840890963849e-01
         - 7.1401926561156104e-01
         - 1.7874581135994197e-01
         - -2.6979712326342581e-01
         - -1.4090493384955524e-01
         - 2.7091982788700714e-01
         - 5.9408344569056759e-01
         - 3.0076024488011466e-01
         - -1.8226629049313092e-01
         - -1.4640657828125064e-01
         - -2.7565701684142252e-01
         - 4.7063513606301449e-01
         - 7.1637473135484642e-01
         - -8.0921231069495697e-02
         - 2.5291389922312368e-01
         - -2.1331878059924025e-01
         - -6.5385220165508307e-01
         - -4.1505127568434619e-01
         - -2.3542707516568878e-01
         - 3.1744413375188457e-01
         - -7.5738794920076646e-01
         - 2.2219909647326808e-01
         - 3.3033573709818115e-01
         - 4.6078594773986355e-02
         - 5.2543003782560292e-02
         - -8.2250864744035423e-01
         - -7.7921597594107073e-01
         - 1.8881578331115570e-01
         - -8.0727851872528800e-01
         - -1.5206376320855761e-01
         - 3.0090705411023938e-03
         - -3.5389892692041947e-01
         - -1.3590850420479345e-01
         - 1.2474545750350502e-01
         - 2.4273335559860462e-01
         - -5.4848783335822127e-01
         - -1.1466898007641955e-01
         - 3.5651226318979767e-01
         - -1.7428536423250710e-01
         - 5.7900503650480584e-01
         - -2.4472323000897322e-01
         - -5.6528481612302173e-01
         - -4.4278550173157100e-01
         - -1.5205406344474978e-01
         - -8.1741773446296395e-01
         - 7.9767999671197365e-01
         - -3.0386139221787978e-01
         - -4.2101234594277126e-01
         - -3.1324055343199303e-01
         - 2.8499778847600121e-01
         - 1.0919479631601979e-01
         - -4.1652651247293193e-01
         - -1.4197352975788344e-02
         - -4.9668914470278158e-02
         - -7.7936805179552326e-01
         - -6.6104799773829126e-01
         - -3.0375334679448553e-02
         - 1.3916072088020681e-01
         - -2.9450576089479003e-01
         - 9.3057172726766502e-01
         - 1.1369578979372447e-01
         - 4.0012907970431133e-01
         - 6.0604709278062185e-01
         - -3.9710949617555802e-01
         - 6.6371802824986126e-01
         - 3.0023320761535338e-01
         - 1.4903028168520385e-01
         - -1.3844275819553228e-01
         - 2.6335793278698166e-01
         - 2.7387202597266613e-01
         - -2.3593308536991153e-01
         - 6.4163375190122274e-01
         - -2.9479200798458038e-01
         - 3.1495799069350366e-01
         - -8.2888519083954115e-01
         - 1.7142216838110677e-01
         - -2.0690428602136612e-01
         - 5.1142125116437842e-01
         - 5.1802242741846416e-01
         - 4.2697961809152796e-01
         - -6.6493415382611976e-01
         - -1.1620845075075503e-01
         - -5.1503806103670480e-01
         - -2.5772983451680426e-01
         - 1.1588417475529642e+00
         - -6.7690529832771373e-01
         - 2.2883986306399887e-01
         - 3.2972240472944686e-01
         - 3.1390394178186404e-01
         - -3.6506660429968391e-01
         - -2.2157395816149589e-01
         - 5.8497459789773087e-01
         - 2.7107157478313826e-01
         - 9.7008146029748568e-02
         - 4.0861342084184116e-01
         - -3.5459528139739421e-01
         - 6.6113350385723663e-02
         - 4.0777055750510788e-01
         - -4.9362560646073506e-01
         - -3.6144992872234077e-01
         - 3.5994401927539521e-01
         - 3.1031494611232335e-01
         - 4.3167507524655396e-01
         - -1.4543566587614609e-01
         - 3.5904578100056650e-01
         - -9.3869082875039511e-01
         - 5.9789203761051246e-01
         - 8.0535558132568297e-01
         - -2.3614410076365155e-01
         - 3.6154534149743145e-01
         - 4.8145874170359332e-01
         - 3.4993002541765339e-01
         - 7.8671761790917769e-02
         - -7.1330969240735698e-01
         - 2.0901440366906274e-01
         - 5.2804354904177342e-01
         - 6.7738319037399697e-01
         - 2.5261400163987263e-01
         - 2.6478669617979350e-01
         - -7.0046267889413216e-01
         - -7.9334187677351620e-01
         - -2.6531172373123263e-01
         - -5.7458771533746678e-01
         - 8.6454133813894840e-01
         - -7.8544710167423801e-02
         - -1.6501207597312906e-01
         - -6.8249944337228918e-01
         - 9.3798176776760334e-01
         - 4.5264530893746019e-01
         - 5.7508349746858844e-01
         - -6.4043302092562959e-01
         - 4.5460729919836929e-01
         - 4.5960577247250267e-01
         - 6.7621681178714155e-01
         - 8.0279810185680134e-01
         - -4.7844266609149616e-02
         - 2.0992393374981910e-01
         - 2.4436785564322683e-01
         - -2.9527574870155337e-03
         - 3.3719875156882512e-01
         - 4.1911886013129895e-01
         - -6.3265216299797367e-01
         - -7.1839684436532869e-01
         - -7.2741423580765263e-01
         - 2.6759645913002866e-02
         - 1.3481274448372077e-01
         - 3.1817859146055577e-01
         - 3.6584680580666168e-01
         - 6.4559418014945669e-01
         - 2.9705439460951860e-01
         - -4.6596746671464717e-01
         - 4.0020839395456159e-01
         - -5.5643962476532960e-01
         - -2.6151714862599351e-01
         - 1.3995205280660775e-01
         - -2.6877069844312540e-01
         - 2.3385234395964707e-01
         - -6.3174078667672962e-01
         - 7.7673885505064905e-02
         - -3.1866884427035330e-01
         - -8.6034619127278467e-01
         - 6.3857165027553564e-01
         - 1.2689370722149360e-01
         - 4.9248155771512682e-02
         - -1.0009204740168753e+00
         - 7.9356014511680947e-03
         - 4.0373397278862727e-01
         - 1.5419467521355495e-01
         - -3.6247959454170575e-01
         - -3.2836383358900317e-01
         - 4.0443589450263490e-01
         - -4.1646970275222556e-01
         - -5.1327104849259321e-02
         - -6.2621100295047039e-01
         - 2.4735286502733905e-01
         - -4.4653035598719987e-01
         - -2.7796001257195481e-02
         - 6.6242923696367850e-01
         - 6.9589741670149863e-02
         - 2.3527277178352510e-01
         - 7.0958772059205821e-01
         - -1.2199375730721550e-01
         - -3.5167268434596660e-01
         - -6.6865565896368462e-01
         - -1.1550829403877103e-01
         - 8.8939722666090348e-01
         - 9.5736011479940722e-02
         - -7.5410204966313663e-02
         - -3.4966852145684435e-01
         - 4.2067014747302578e-01
         - -7.0269407146472462e-01
         - 3.8506588717452350e-01
         - 3.3405211821316283e-01
         - -2.5207340578384314e-02
         - -2.7688440701038247e-01
         - 4.6588639165020679e-02
         - -1.0439021153203883e-01
         - 3.0980911008087275e-01
         - -5.4362657799505687e-01
         - 1.8708748501594083e-01
         - 3.3702093942796263e-01
         - 2.9762563480318760e-01
         - 3.7053669354390517e-01
         - -5.4323573420715243e-01
         - 4.5450022352512459e-01
         - 8.3055069384858859e-01
         - -7.3174432580012982e-01
         - -2.3357110516664814e-01
         - 1.8878339876169481e-01
         - -2.8146657548978582e-01
         - 2.4800474576525919e-01
         - 2.2106296123427308e-02
         - 3.9081603182555297e-01
         - -2.0723732980211182e-01
         - 2.3398476112544961e-01
         - -2.8622114247876296e-01
         - -4.0293746119283308e-01
         - -3.2947403102427769e-01
         - -7.3218502970199517e-01
         - -2.7734472583717085e-01
         - -2.1743270439620960e-01
         - 7.5110786697993828e-02
         - -1.2372619892819977e-02
         - 2.0936236119449705e-01
         - 6.1853631782010177e-01
         - -7.3349991649307456e-01
         - -5.9701579715730735e-01
         - 3.6059838542585598e-01
         - -1.3045807807470530e-01
         - 5.1402919839208744e-03
         - -4.1125617727779695e-01
         - 3.0597868784578203e-01
         - -1.8292706883605261e-01
         - 1.8046315814126416e-02
         - -8.4560055437852499e-01
         - 4.4037911295358395e-01
         - -5.0652888097350024e-01
         - 6.4587366373241784e-01
         - 5.9536698553534295e-01
         - -8.2430269825078906e-01
         - -2.4158682309763488e-01
         - -5.1924408316247972e-01
         - 4.9981436929230344e-01
         - 3.2372988784436257e-01
         - -2.2014916400166160e-01
         - 1.9650633665574599e-01
         - 4.7685357030386910e-01
         - -3.6512773926946795e-01
         - 1.0728904615667557e-01
         - 4.9369227579655291e-02
         - 6.8140966041921092e-01
         - -3.3555782078207341e-01
         - -1.2152150196702013e-01
         - 8.7311022089796700e-02
         - -5.9215912071326737e-01
         - 5.7193834349469741e-01
         - -7.4548137019693783e-01
         - 7.9861973743614167e-01
         - -1.1746036075923576e-01
         - 2.8840700638899715e-02
         - -1.2897580031272748e-01
         - -1.5502519022020853e-01
         - 1.7616219948503914e-01
         - 4.3381038600932753e-01
         - 2.5855528724707855e-01
         - -1.5781162388452816e-01
         - -2.2685011176256123e-01
         - 1.1528347531393995e-01
         - 7.2343029340342302e-01
         - -3.8014901293433001e-01
         - -2.1760526763591298e-01
         - 3.9386970529522586e-01
         - -4.4600190437357551e-01
         - 5.3994628302695780e-01
         - -4.7525048194205533e-01
         - 7.5543047852003831e-01
         - 1.4031664260925733e-01
         - 2.0003355775281294e-02
         - 1.2805712917177584e-01
         - 4.1447856627324647e-01
         - -2.3548735188917569e-01
         - -1.1826786914557119e-01
         - -3.3017672803350195e-01
         - 2.3198529915107646e-01
         - -6.5448672209439518e-01
         - 4.4305867534802340e-01
         - -4.7210827212128004e-01
         - -2.2574686776287045e-01
         - -3.0916130427283711e-01
         - 2.1919565836701022e-01
         - 5.3263828275349012e-01
         - -8.3703616456598084e-01
         - -5.2704768891936316e-01
         - -1.5927209190793151e-01
         - 6.3831724221296210e-02
         - 5.3719525096522225e-01
         - -1.6203020712952756e-01
         - -3.5494997855743504e-01
         - -1.2563368058465288e-02
         - 2.5712836288999463e-01
         - -1.6917885945818925e-01
         - 8.1250768767009374e-01
         - -6.3976651474071822e-01
         - -2.0513614721388357e-01
         - -3.2119248113414284e-01
         - 3.0448576565812173e-02
         - -1.7819870759763708e-02
         - -2.3253797053705841e-01
         - 4.4683982656318444e-01
         - 1.6439824621781834e-01
         - -7.0429071446911073e-01
         - -4.4159454009378935e-01
         - 5.2321128956148188e-01
         - 1.2865017288057887e-01
         - -7.4878536268643048e-01
         - 4.0655855095231241e-01
         - 2.0049291093703586e-01
         - -8.5207227312610923e-01
         - 6.4795033176186054e-02
         - 1.8138877351976768e-02
         - 5.6629925442236206e-01
         - -1.9998228364220935e-01
         - 1.4374953798467089e+00
         - -4.1674907179901549e-01
         - -9.0225420906246231e-02
         - 9.7606128335679276e-01
         - -1.9282877062890916e-01
         - 2.6504534331080348e-01
         - -3.3721329305583342e-01
         - 1.5250332930297639e-01
         - -5.9382065588499955e-01
         - 4.2216710628592183e-02
         - 2.9219704301478711e-01
         - 1.6813362201429752e-01
         - 8.0664827470539757e-01
         - 3.7235768432971872e-01
         - -1.2543331948326419e-01
         - 8.6280584137485961e-02
         - -2.8738764321683380e-01
         - -4.6782127727690866e-02
         - 5.9783178835286355e-01
         - 2.0308783725387133e-02
         - -5.5589601614212336e-01
         - -5.6456251236342896e-02
         - 3.6013115625118153e-01
         - -1.4254554008299609e+00
         - 4.0986147530805796e-02
         - 2.8181471761509563e-01
         - 1.1822696029759117e-01
         - 1.2934922062073181e-02
         - 6.1241707888123176e-01
         - -5.0912066321906224e-01
         - -3.8036378338720489e-01
         - 5.5756568093300585e-01
         - -2.6510183432867968e-01
         - -1.3637317178892456e-02
         - 1.9627942495601206e-01
         - -7.4487384413512436e-01
         - 4.3723282537986102e-01
         - -6.0175568116293437e-04
         - 1.2023647229992146e-01
         - 5.8758841779571981e-03
         - 5.0386210052636005e-01
         - 8.9749644865597700e-01
         - 1.8460573313197171e-02
         - 4.1160744613715217e-01
         - 8.3684686552296350e-01
         - 5.3415794360845059e-01
         - 5.2364061911279425e-01
         - -2.7962398540941286e-01
         - -1.2491339172889342e-01
         - -7.5690077777685508e-02
         - 6.2985369794405766e-01
         - -2.3080085974530887e-01
         - -7.8691287007582877e-02
         - 1.7184327893188300e-01
         - -3.1363045457565769e-01
         - -6.4039561613503515e-01
         - 2.3860053877412347e-02
         - 2.6995942008316637e-01
         - 5.9770274560198400e-02
         - 3.4488603684056063e-01
         - -5.6522699997049886e-01
         - 5.8751963187247014e-01
         - 2.9843395357942387e-01
         - 9.3043427019970004e-01
         - 1.9639802690727490e-01
         - 7.4410736320060933e-01
         - -4.2269404924695314e-01
         - 5.3787280513213809e-01
         - 4.5700422422447551e-01
         - 2.3283075638461787e-01
         - 2.8149421183838275e-01
         - 4.5723644941634112e-02
         - 2.2209660653298605e-01
         - -2.1543276489595953e-01
         - -9.3474355550217797e-02
         - -7.9490582084704331e-01
         - -9.2366333003790124e-01
         - -2.7697214346202415e-01
         - -1.6100960231131032e-02
         - -9.8877030974440658e-02
         - 4.2454942989053800e-02
         - 8.4995929857092456e-01
         - 4.5256542507294367e-01
         - 3.3178735384946345e-01
         - 3.8457563695662713e-03
         - 6.8547735265625498e-01
         - -9.6240173893863259e-02
         - -1.8796887503922405e-01
         - -1.1430950325898064e-01
         - -1.3318875256957330e-01
         - 6.6039832453266145e-01
         - -4.5156151162763357e-02
         - -2.6779751542145536e-01
         - -3.6169721226546776e-02
         - -7.6537078671157610e-01
         - 8.9491096593003661e-01
         - 2.7576812201155898e-01
         - -6.1057076038670333e-01
         - -1.0438437569514760e+00
         - -1.6960781516843068e-01
         - 7.8710456389966044e-01
         - 4.1982923614871215e-01
         - -1.0666852607686458e-01
         - -5.5880712960099131e-02
         - -2.0012170395026926e-01
         - -6.9480003017700590e-02
         - 1.6822582374346476e-01
         - -2.9405198547443889e-01
         - -9.2891600551956421e-01
         - -1.2487813169399690e-01
         - 3.9995370840321516e-02
         - 2.6153744935091300e-01
         - 2.6034119684646367e-01
         - 2.6746272399501075e-01
         - 6.6245001497197309e-02
         - 4.0833003653701855e-01
         - -4.1888075359118987e-01
         - -1.1868016299405676e-01
         - 2.4588069021780977e-02
         - 1.2195302597221302e+00
         - -6.8904850444714916e-01
         - 3.7970187055843552e-01
         - 4.1066160315035814e-02
         - 3.9531833207877071e-01
         - 5.5298277379920502e-01
         - 2.6105429232272076e-01
         - -2.9703842877625020e-01
         - 3.5873248723370260e-01
         - -2.2330381733804586e-01
         - 6.5093520529744486e-01
         - 1.3140940250811592e-01
         - -1.8543269830987383e-01
         - -2.9126299911998116e-01
         - -5.0422577043302497e-01
         - 4.9482287526461421e-01
         - 2.4985691946647517e-01
         - -1.2091173087212845e-01
         - 2.7217390599203628e-01
         - 4.2542566343945004e-01
         - 6.0075004979000313e-01
         - -6.3048815073717868e-01
         - 9.7258957874573185e-02
         - 2.5204391581494425e-02
         - 4.1109407108307468e-02
         - 1.9233766367980659e-01
         - 4.2708821129380452e-02
         - 7.3363702830498956e-01
         - -3.5890570512488013e-01
         - 5.8938395740447036e-01
         - -1.0268201854446999e+00
         - -5.2795551964490106e-01
         - -4.9379258943366428e-01
         - -1.0117097373841979e+00
         - -2.4758815122971936e-01
         - 8.3587120733791476e-01
         - -2.9962840412760844e-01
         - 4.3288624917187596e-01
         - 1.4454405100473425e-01
         - 5.2569831178919513e-01
         - -1.0341541541037320e+00
         - 3.3895317265082069e-02
         - -1.5124906508149158e-01
         - -2.4691113714837251e-01
         - -2.8228773208013147e-01
         - 5.6925050791883293e-02
         - 3.0386913950677730e-01
         - -7.7422170373082494e-02
         - 9.3272255925634628e-01
         - -1.5521247462200826e-02
         - 5.3370591909519938e-01
         - -2.1941180453650511e-01
         - 3.4452499091942096e-01
         - 5.8389356371075329e-01
         - -6.7421237810677037e-01
         - -2.0556198998168571e-01
         - -1.7759351758426914e-01
         - 5.2282472166158533e-01
         - 1.7419171434977404e-01
         - -3.9897034702072071e-01
         - -2.4255425957272148e-02
         - -2.2169345771679123e-02
         - -8.2463309510859717e-01
         - 5.4450146023244506e-01
         - 3.2086286402352432e-01
         - 7.7559799869026214e-01
         - 4.9457956763265870e-01
         - 5.3007842433128276e-03
         - 3.5149047572647402e-01
         - -1.0982735450152370e-01
         - 5.8361419740466929e-02
         - -8.9041693916288256e-01
         - 5.1515137202860350e-01
         - 3.6727059427538317e-01
         - 5.7859079043890527e-01
         - -5.8597626372425005e-01
         - 6.9808548823488314e-01
         - 3.6425770999969537e-01
         - 3.5663488567528101e-01
         - -2.4181471511984637e-01
         - 1.5178886541611339e-01
         - -3.8038734647931122e-01
         - -5.9418479892021141e-02
         - -1.1246144964694789e-01
         - -1.4626738407840356e-01
         - -8.3670728306607112e-01
         - 2.4811524340225133e-01
         - -4.7442538388548605e-01
         - 2.2078664378808546e-01
         - -3.3069082591842230e-01
         - 5.1484020683958964e-01
         - -1.0613358025789979e-01
         - 5.5565395500363313e-01
         - -3.0648436311151639e-01
         - 7.2983775689743380e-01
         - 2.0251253285953028e-01
         - 4.0694829481241201e-01
         - -7.3415868047754429e-01
         - 8.2299140792256664e-01
         - -4.5824680448356342e-01
         - -8.0365921524155753e-03
         - -6.3041542459764699e-01
         - -3.2289725401580394e-01
         - -1.4655463802910554e-01
         - 1.3074684101219916e-01
         - 2.4227999732457697e-01
         - -3.6924207474459525e-01
         - -4.4967787582037433e-01
         - -7.3450005332710322e-01
         - -7.6216002772350161e-02
         - 2.1218912085329614e-01
         - -4.5990458191537914e-01
         - 4.5167396630172324e-01
         - -4.8734142612451170e-01
         - 1.8804817685511999e-01
         - -5.6873504672992881e-01
         - 2.5852419343409538e-01
         - -6.8553921142518681e-01
         - -4.8400420980517334e-01
         - -3.3429078385696992e-01
         - 8.8397184842659668e-02
         - 2.2171493287856714e-01
         - 4.2851264981688085e-02
         - 5.4398225753999718e-01
         - 7.0308517503144385e-01
         - 2.4017928754923756e-01
         - -7.5415709624874305e-01
         - 7.9756093851227083e-01
         - -5.3427547389947865e-02
         - -6.7988628151589292e-01
         - 3.4452470528916057e-01
         - 6.0379301403790664e-01
         - -8.5841197332468733e-01
         - 4.8199474064763120e-01
         - -7.3018986055614146e-02
         - 2.2115681066667656e-01
         - -4.9942476043073286e-01
         - 1.7005074323268692e-02
         - 6.4860956958152693e-02
         - -7.4185511779898863e-02
         - -4.2346969231125225e-01
         - -2.1340498216807752e-01
         - 4.6683521152463808e-01
         - 4.4568501837278562e-02
         - 8.7372611841799808e-01
         - -6.1923661373568206e-01
         - 2.8322868466297274e-01
         - 3.5484900664094432e-01
         - -5.2040272054895997e-01
         - 5.4228752196843166e-01
         - -5.9031483642137672e-02
         - 2.4156299551713739e-01
         - -4.6033146472274550e-02
         - -4.0015586205926756e-01
         - 4.4803301224226066e-01
         - -1.4169882391648872e-01
         - 4.1218048297849008e-01
         - -6.9250182181661657e-01
         - -2.0106351105717657e-01
         - -2.7046094000795201e-01
         - -1.5638705012906279e-01
         - 1.0390066480594220e+00
         - 5.8042768035522170e-02
         - -2.4185916703989427e-01
         - 2.3753432033783370e-01
         - -3.1435552604310940e-01
         - -1.0785393308005321e-01
         - 4.9462957726968215e-01
         - 7.1567761040447389e-02
         - 2.0732748140700119e-01
         - 9.4752073590609068e-02
         - -3.9920487373254582e-01
         - -6.7342610871806305e-02
         - -1.3826180095022275e-01
         - -6.3431964658996165e-01
         - 1.2763691972147091e-02
         - -4.8172845985509249e-01
         - 5.7635356063423648e-01
         - 2.6562746726017367e-01
         - -2.1073846297642546e-01
         - -1.7282206832577376e-01
         - -2.6933742648545539e-01
         - 4.4593267110903045e-01
         - 5.5150768826774321e-01
         - -1.2331185327994380e-01
         - 1.2488481610947530e-01
         - 1.9105466862111942e-01
         - 7.5522478532170600e-01
         - -5.3453432160383807e-01
         - -1.9100675433024661e-01
         - 4.7666345713340519e-01
         - -1.6051488315735085e-01
         - 5.2206301554066133e-03
         - 2.7879024880569270e-01
         - 5.1761845979435017e-01
         - -8.2657742376006649e-01
         - -2.6170903474837848e-01
         - -8.0888498225893529e-03
         - 6.9215581462117548e-01
         - 4.1115426490714102e-01
         - 8.4150422958825588e-01
         - -2.2953492676052906e-01
         - -2.1553168393686131e-01
         - -2.3553400640989583e-01
         - 3.1897966914458703e-01
         - 3.2506759932652057e-01
         - 1.0344376186297977e+00
         - -4.0398063159999492e-01
         - 4.0089643040299772e-01
         - 1.4641483039856204e-01
         - -3.3558664580571898e-02
         - 2.5109300911840510e-01
         - 3.9662324129038040e-01
         - 5.6793027659840629e-02
         - -2.9674388354568115e-01
         - 2.9641374113279861e-01
         - -3.1660945114843186e-02
         - 2.1261425426736524e-01
         - 2.8771157059658198e-01
         - -6.1326468613332064e-03
         - 4.8016965644158832e-01
         - -2.7876028798171570e-01
         - 5.5218678587049408e-01
         - -2.8658823251782328e-01
         - -5.3616198119193055e-02
         - -2.2439925813281497e-01
         - -6.6627410389238265e-02
         - 5.9789432295435851e-01
         - -3.5928702140598949e-02
         - 9.2355364542755070e-01
         - 1.2045800445547224e-01
         - 1.6434479601530741e-01
         - -1.5951498781341220e-01
         - 2.7256992967174817e-02
         - -1.5802467072775769e-01
         - -5.1761785085911761e-02
         - -5.6009223507283590e-01
         - -1.2331025940859347e-01
         - -4.8318394865612840e-01
         - -2.7440969307453406e-01
         - -1.8478190229750335e-01
         - -1.7666536870393057e-01
         - -2.8539293376773572e-01
         - 2.5401957818029486e-01
         - 2.1586133971723828e-01
         - -4.2329462358168490e-01
         - 5.8984146002052573e-01
         - -6.5277044889997993e-01
         - 2.9431042907167337e-01
         - -5.1940901817327756e-01
         - 4.9020794972266024e-01
         - -1.8734938350713778e-01
         - 2.2531588407166353e-01
         - -4.3684069759848393e-01
         - 3.1774274157527635e-02
         - 8.6691938735636978e-02
         - -4.5398894212689095e-01
         - -4.0119284000491434e-01
         - 8.1723952198241889e-01
         - 2.8375459056831598e-01
         - 4.0892759738867845e-01
         - 3.9308035905590166e-01
         - 5.0348236542479563e-01
         - 3.1590219451153390e-01
         - -1.2350504728759307e-01
         - 3.1505747540093015e-01
         - 2.5989646932056321e-01
         - -3.9840192857678447e-01
         - -1.5664815693437523e-01
         - -2.6253603212357818e-01
         - -2.3145152445278806e-03
         - 2.6495128180509908e-01
         - 3.0906845779739972e-01
         - 1.9805249960808713e-01
         - 2.2750130894785456e-01
         - 3.1891879433754994e-01
         - -2.4209967532816182e-01
         - -9.6462474268113885e-01
         - -5.6974459569174762e-01
         - 3.9998522449712315e-01
         - 7.3642481306201013e-01
         - -2.6423948045823220e-01
         - -8.6523190676385087e-01
         - 3.5162051517190707e-01
         - -3.1646045229226494e-01
         - -4.6062715058280107e-01
         - -5.0376544207648477e-01
         - -4.0602792144322103e-01
         - 7.3852745199742484e-02
         - -1.7154984750819977e-01
         - -2.8201133627330183e-01
         - 3.5097223484196732e-01
         - -1.7150402183722629e-01
         - 3.0472279489688980e-01
         - -6.6586617901423936e-02
         - 6.4151214525554145e-01
         - -3.5862634506742957e-01
         - 7.2067251104768304e-01
         - 2.5349784246365914e-01
         - 2.9465874470365117e-01
         - -3.6086026952080408e-01
         - -6.8473773136543958e-01
         - 4.8205926738340160e-01
         - 9.2132424507847865e-02
         - 1.3412641612151912e+00
         - 4.9860701846649497e-01
         - 2.7949262203085118e-01
         - -3.7219424326285649e-01
         - 7.4104037121469988e-03
         - 2.1821937319379853e-01
         - -1.8880002170069834e-01
         - -5.2714308202565363e-01
         - 1.8387384049994057e-01
         - -1.9891438456930535e-01
         - 4.3206408632378296e-01
         - -6.0571410460265840e-01
         - 1.4471763849595620e-01
         - 4.4903250403510403e-01
         - -5.5846535817499932e-01
         - -7.1771440624664340e-02
         - 5.8297363096536114e-01
         - 2.0668479391412001e-01
         - 1.9282460034010479e-01
         - -6.1931245153219561e-01
         - 8.5315472821109253e-02
         - -1.7120933743968231e-01
         - 7.2829672085912822e-01
         - 6.5171332449109678e-02
         - 1.9036357817310354e-01
         - 9.0565732616435879e-01
         - 6.6938982024677185e-01
         - 3.0856232233389808e-01
         - 1.8485900691483487e-01
         - -5.4170385899743401e-01
         - 3.0965855053110769e-01
         - 5.3304330222979246e-01
         - -1.9260309438799281e-02
         - -5.5340123483067816e-01
         - 5.4159505064386892e-01
         - -1.8778901447628163e-01
         - -3.0535130409020839e-01
         - -2.9706305554727025e-01
         - 3.4619986016779125e-01
         - 4.2008900510079233e-01
         - -5.7843486622419837e-01
         - -4.0443466751125867e-01
         - -2.5082302929604050e-01
         - -7.7366311474974400e-02
         - 4.9666930266848291e-01
         - -9.5486790576470693e-01
         - 5.4876692148941630e-01
         - 2.9957297165104091e-01
         - 1.1017735699901983e+00
         - 9.7394058278008189e-01
         - 4.7916867651016504e-01
         - 2.9118920222626177e-02
         - -1.5876123635252112e-01
         - -3.8665498956516831e-01
         - -1.1444061375061233e-01
         - -7.5364628046256765e-01
         - 2.2308110436396486e-01
         - -6.1350440088900088e-02
         - -3.1278411046244808e-01
         - -7.0715983366925139e-02
         - -1.3414305119204568e-02
         - 1.1216414068825670e-01
         - -2.0575160351492461e-01
         - -3.8123079332407339e-01
         - 5.3924972214855560e-01
         - -3.0946807192027487e-01
         - 3.7552894453450686e-01
         - 3.4072184244903247e-01
         - 3.7644286763776497e-01
         - -3.1416303893396275e-01
         - -4.1220924402393744e-01
         - 2.0051663040534978e-01
         - -5.0418328971077020e-01
         - 4.5662212747640546e-01
         - 3.3556255437616844e-01
         - 7.2713749681691375e-01
         - 2.7776883337767033e-01
         - 2.3501042399726879e-01
         - -3.3704887579656123e-01
         - 8.4609592276604320e-02
         - -8.3730184685760323e-01
         - -5.3051399874719485e-01
         - 1.5395432132334158e-01
         - 5.5220224699655829e-01
         - -7.3677885683079392e-01
         - 4.1467934537292200e-01
         - 1.1232460834469374e-01
         - -4.4555856514797432e-01
         - -8.2710839375624612e-01
         - -7.8974785395200850e-02
         - -3.0619088721052073e-01
         - -6.7445071187005623e-01
         - 2.4497132474785344e-01
         - 8.8250811677010244e-01
         - 5.4983230615345224e-01
         - 2.5549413245150226e-01
         - 8.6813001670679013e-01
         - 4.4437377205287266e-02
         - -1.2298688937306555e-01
         - 3.3078633418774961e-01
         - 4.0392452478240588e-02
         - -2.4729066518904511e-01
         - 1.5488400712669617e-01
         - 4.0423552242367022e-01
         - -9.3364128964209014e-01
         - -2.2470719053172050e-01
         - 7.2359247173921359e-01
         - -3.2501679326474320e-01
         - 6.9721835607701371e-02
         - 1.3193759704181846e-01
         - 1.8019012013403235e-01
         - -3.1082937167344826e-01
         - -3.3039404374655350e-02
         - 3.8217321432800411e-01
         - 3.1815123113300475e-01
         - -3.9930596273741109e-01
         - -2.7963098695355976e-02
         - -1.8287662106426222e-02
         - 3.2604224713950808e-01
         - 3.7912335586703172e-01
         - -8.5674640337666286e-01
         - 2.8354964531866300e-01
         - 4.1651295713329195e-01
         - -8.8086343487214624e-01
         - 8.6709828221956387e-01
         - 2.0434195819609015e-02
         - -6.2528744818772575e-01
         - -3.0447728801592416e-01
         - -8.5331220831354426e-01
         - 1.2591102693400205e+00
         - 1.6080372170890211e-01
         - -2.9631793662441791e-01
         - 4.0359630086433268e-01
         - -6.4214142968752730e-01
         - -3.1204454076075966e-01
         - 2.6167370233946802e-01
         - -5.6094087169256057e-01
         - 5.1934893601880461e-01
         - -3.3443475706337886e-03
         - 8.7032595413185240e-02
         - -2.2609674886867520e-01
         - -2.2653313566572406e-01
         - 8.2713459666357381e-01
         - 1.8797139722754766e-01
         - 4.4322654232457354e-01
         - 7.9508240857361434e-01
         - 3.8704855054173987e-01
         - 3.2005654986968551e-01
         - 2.2396848216139059e-01
         - -1.2582192454876753e-01
         - 5.0982629568939827e-02
         - 1.2147293758795280e-02
         - 2.2201148924149702e-01
         - -5.1823798913595731e-01
         - -2.2384337301912138e-01
         - -2.4585712952625499e-01
         - 9.1351683740662035e-02
         - -4.6064195534356128e-01
         - 5.4091799920751560e-01
         - 5.1681829243899934e-02
         - 4.4170180265776010e-01
         - -4.1443178718066442e-01
         - 1.1550571943124479e-02
         - -1.9625140101270463e-01
         - 3.6633025106424083e-01
         - 4.6933368074588111e-01
         - 3.4309755464468866e-01
         - -2.0896140476177754e-02
         - -2.6235248111377069e-01
         - -2.7827563761686414e-01
         - 1.7225011356261821e-01
         - -2.7192298957307032e-01
         - -1.0434586723721444e+00
         - 8.7832376490876818e-01
         - 3.5005247368055503e-01
         - -3.1996848616225609e-01
         - 2.2852285668852670e-01
         - -5.5126738424522437e-01
         - -5.8674284430262702e-01
         - 2.6836880394280938e-01
         - -2.3810957848771516e-01
         - 4.9153998429669649e-01
         - 2.1403275947209602e-01
         - 1.9434313812601492e-01
         - 2.5028322054417951e-01
         - -4.0412251759356854e-01
         - -1.4005431568771207e-01
         - -3.0378710687429905e-01
         - -1.2847306475207898e-01
         - -9.1153713510460602e-02
         - 1.7267591549647365e-01
         - 3.0223779611376678e-01
         - -3.2523726019354737e-01
         - -2.8116313225996675e-01
         - 1.7868184609618737e-01
         - 5.1538468302844065e-01
         - -3.1296581463682033e-01
         - -4.2243766107892916e-01
         - -5.9419036748459129e-02
         - -5.2125148193901738e-01
         - 1.9683437224092912e-01
         - -4.0129842539319033e-01
         - 2.6222833090637707e-02
         - -2.4257650750038140e-01
         - 2.0122309005481348e-01
         - 3.6570472245781777e-01
         - -1.3164327632229358e-01
         - 2.7275546564173125e-01
         - 2.8196052577383912e-01
         - -4.0597547460799105e-01
         - 4.8213218282055513e-02
         - -2.2133083590600258e-02
         - 1.3491988610125197e-01
         - -1.3709459504222807e-01
         - 4.3250871769464544e-01
         - 5.1043439761909859e-01
         - 1.6997936589957716e-01
         - 5.1763280807097956e-01
         - -3.4342385266088987e-01
         - -2.5645784368964208e-01
         - 3.3891611162949570e-01
         - -3.8287842806797007e-01
         - 4.8292093810067316e-01
         - -6.8546004698108398e-02
         - 4.7202294414161593e-02
         - 5.5647491780988834e-01
         - 3.9187754262850072e-01
         - 5.7214858478093833e-01
         - 2.0679839162222352e-01
         - 3.9139574274947164e-01
         - -6.6091733790281271e-01
         - -8.5579161423816230e-01
         - 9.2578585420859130e-02
         - 8.9153902654187780e-02
         - -8.2759572088000410e-01
         - 2.7540311920939292e-01
         - -7.3630321467200188e-01
         - 4.6222460951247388e-03
         - 6.4637786861149782e-01
         - 3.4964784332886335e-02
         - 7.1193919007314388e-01
         - -2.5437498901829791e-01
         - -7.4590805175832442e-01
         - -3.4978246240307864e-01
         - -4.6978088094432144e-02
         - -2.6699305658579843e-02
         - -1.5249145016525475e-01
         - 3.3375832059402755e-01
         - -1.4744455424448646e-01
         - 1.1150498576561248e-01
         - 6.0749258478525726e-02
         - 6.9778317602968853e-01
         - -7.7464962658560022e-01
         - -2.4128356815331276e-01
         - -1.1150164236277099e-01
         - -4.1873157694799124e-01
         - 6.9735120327687516e-01
         - 2.8112627569913101e-01
         - -1.3609085167862930e-01
         - 2.1137210353694946e-01
         - 2.4747891253064513e-01
         - 5.0147264421547801e-02
         - -4.8036732572805552e-01
         - -9.8580187065680391e-02
         - 3.3757180819691196e-01
         - 3.3084430931247033e-01
         - 3.9588754279742144e-01
         - -1.2040436834801853e-01
         - -8.3462232728185448e-01
         - 1.0283365483787388e-02
         - -3.0776675634521328e-02
         - 4.3292450929662898e-03
         - 4.3227020856059323e-01
         - 1.7182777297250018e-01
         - -2.2073449671345940e-01
         - 1.6149164502753233e-01
         - -2.9636349452682692e-01
         - -6.8600936142993188e-02
         - -2.6390189821917043e-01
         - -8.4559813530472983e-01
         - 1.6462307451947249e-02
         - 9.1350918181877835e-02
         - 1.2525666976137353e-01
         - 1.0602504033098761e+00
         - 7.6046138958611814e-02
         - -5.0596708525089551e-01
         - -1.8669921948988526e-02
         - 1.1204140708662276e+00
         - -3.3761203632996056e-01
         - -8.1073668527244647e-01
         - -2.5963369634964117e-01
         - 4.0804769553405101e-01
         - -5.4193399567039635e-01
         - 8.6014719632499781e-01
         - 2.1155071371214956e-01
