<?xml version="1.0"?>
<opencv_storage>
<opencv_ml_ann_mlp>
  <format>3</format>
  <layer_sizes>
    120 256 31</layer_sizes>
  <activation_function>SIGMOID_SYM</activation_function>
  <f_param1>6.6666666666666663e-01</f_param1>
  <f_param2>1.7159000000000000e+00</f_param2>
  <min_val>-9.4999999999999996e-01</min_val>
  <max_val>9.4999999999999996e-01</max_val>
  <min_val1>-9.7999999999999998e-01</min_val1>
  <max_val1>9.7999999999999998e-01</max_val1>
  <training_params>
    <train_method>BACKPROP</train_method>
    <dw_scale>1.0000000000000001e-01</dw_scale>
    <moment_scale>1.0000000000000001e-01</moment_scale>
    <term_criteria>
      <epsilon>1.0000000000000000e-02</epsilon>
      <iterations>1000</iterations></term_criteria></training_params>
  <input_scale>
    3.7084635451174477e+00 -2.3112611475022140e+00
    5.5384270793510080e+00 -4.7788054681599963e+00
    6.0808342184408852e+00 -5.4084609214844246e+00
    6.0564454075323573e+00 -5.4728825599477506e+00
    8.1742579973979268e+00 -7.5747874227369270e+00
    8.5814953545246571e+00 -8.0324608182407342e+00
    6.1718585858561914e+00 -5.6646776721914724e+00
    5.7076175938142191e+00 -5.1786768743528890e+00
    5.0085746755165088e+00 -4.2374966358704986e+00
    3.5091631056557837e+00 -2.0721517581878626e+00
    5.2457743064453792e+00 -4.0751029758447030e+00
    6.5023732186519538e+00 -5.7567101460586203e+00
    6.2099039971786398e+00 -5.4614862653456999e+00
    6.8380570855366569e+00 -6.0988246372839114e+00
    7.0556860884350963e+00 -6.0170325414388808e+00
    7.5914741485533401e+00 -6.7366888106439573e+00
    7.5810014768790772e+00 -6.7044072575980467e+00
    6.7971381754643003e+00 -5.9236568187923249e+00
    6.4776252417160158e+00 -5.5759857127952763e+00
    5.1239868847927639e+00 -3.6750545320460906e+00
    1.0952731949604716e-02 -8.2210373180003848e-01
    1.1064141936246162e-02 -1.5347510519354088e+00
    1.0937123217785286e-02 -1.6552045003425215e+00
    1.0150649028937331e-02 -1.5416556242017390e+00
    1.0347619855020532e-02 -1.6759576020355669e+00
    1.1444815094023071e-02 -2.0047804682360932e+00
    1.1705475533758485e-02 -2.1651559101680298e+00
    1.1050512330481198e-02 -1.8441311883715101e+00
    9.9098618589777785e-03 -1.2446646302312214e+00
    1.1070611373391454e-02 -6.9093437694011428e-01
    9.5619633487918441e-03 -1.1329700675581311e+00
    1.1495602777189492e-02 -2.2009098906858267e+00
    1.2356669759143858e-02 -2.4538587146229798e+00
    1.1726870465036796e-02 -2.2495631765332900e+00
    1.2736557470455316e-02 -2.6165179608768132e+00
    1.4264748223018845e-02 -3.1146024600419988e+00
    1.4905327703093659e-02 -3.3324082319543864e+00
    1.3695985516517378e-02 -2.9409676697722755e+00
    1.0979696523141746e-02 -2.0265063749922811e+00
    9.3955679585755476e-03 -9.4330339280655351e-01
    9.3230823405790041e-03 -1.0279584426687831e+00
    1.0469665069167345e-02 -1.7575198103753389e+00
    1.1625340259454130e-02 -2.1363541398718620e+00
    1.2226546708223741e-02 -2.4077918965953313e+00
    1.2886185608210728e-02 -2.7168317689204815e+00
    1.3296890603182347e-02 -2.8383218195097997e+00
    1.3318476813920401e-02 -2.7980989305256188e+00
    1.3272326446141425e-02 -2.7584025087981123e+00
    1.1453950390912624e-02 -2.1902616621300104e+00
    9.1973533253988764e-03 -1.0669336460173811e+00
    9.2292953075146025e-03 -1.2094171390702657e+00
    1.1388956347287081e-02 -2.2014369268373417e+00
    1.2006122205140943e-02 -2.3460079559264728e+00
    1.3073532071641452e-02 -2.6490894568986683e+00
    1.3255613119975886e-02 -2.8101958415644721e+00
    1.3769810953927314e-02 -2.9092530296160048e+00
    1.2417717353764056e-02 -2.5601248841414095e+00
    1.1586912113599366e-02 -2.3213318078832619e+00
    1.0503940504196070e-02 -2.0062154870865805e+00
    8.9279198758735016e-03 -1.0485766902844003e+00
    9.4195016003111674e-03 -8.6543648964910203e-01
    9.9974767636915041e-03 -1.6355288578267202e+00
    1.0469381962757932e-02 -1.8980591458317091e+00
    1.2458683152146552e-02 -2.4702616500534398e+00
    1.2696609047062175e-02 -2.6781930757401824e+00
    1.4201624601725525e-02 -3.0787200961860068e+00
    1.3074996234842541e-02 -2.7615120363427583e+00
    1.2922128209597667e-02 -2.6906761558763446e+00
    1.0757013279385564e-02 -1.9983981707971168e+00
    9.2364200513346401e-03 -9.3715363817938202e-01
    9.2063339485061110e-03 -8.9855772936135503e-01
    1.0974559656794013e-02 -2.0457413693748112e+00
    1.2947203980332609e-02 -2.6875693836168413e+00
    1.3493537842233448e-02 -2.8719521864900774e+00
    1.5333729400530622e-02 -3.4148391624744918e+00
    1.5855987563664790e-02 -3.5707655954491475e+00
    1.6078758137817208e-02 -3.6545766203300838e+00
    1.4447051280724108e-02 -3.2003539748017857e+00
    1.1824127125927104e-02 -2.3319928246204573e+00
    9.2264872074756775e-03 -9.5753968961261948e-01
    8.9912254021073945e-03 -1.0288195754208906e+00
    1.1832079055123823e-02 -2.3670382767221825e+00
    1.3089924056369519e-02 -2.7170909294831809e+00
    1.2775037404082579e-02 -2.5901416575144816e+00
    1.3077876182622079e-02 -2.7123989290223700e+00
    1.2494935418521374e-02 -2.5305282336776420e+00
    1.2564456062684691e-02 -2.6294651468373638e+00
    1.2173666188909821e-02 -2.5455609600756071e+00
    1.0749113074112689e-02 -1.9774423863683215e+00
    9.2560021324513686e-03 -9.3427106581749075e-01
    9.1439526051783522e-03 -1.1175106639660188e+00
    1.1703372204542621e-02 -2.3084410152523347e+00
    1.1609352174791681e-02 -2.3232972253670860e+00
    1.2003473804746293e-02 -2.3383053526723345e+00
    1.2073647196798329e-02 -2.4127545280144780e+00
    1.1860736582559555e-02 -2.3704064833795462e+00
    1.1985305670381093e-02 -2.5057766520889859e+00
    1.1631205894143124e-02 -2.3937916438292257e+00
    1.0467583132326569e-02 -1.8903936848161793e+00
    9.4154644614359434e-03 -1.0162124945561664e+00
    8.9699759045737786e-03 -1.2127867421748086e+00
    1.0905466651034526e-02 -1.9856579183444001e+00
    1.0730916112732585e-02 -1.8909325853026724e+00
    1.1786508847375468e-02 -2.1722244008853813e+00
    1.2169642610439914e-02 -2.3438667107269020e+00
    1.1914586020757872e-02 -2.3235602325035107e+00
    1.1302713075017382e-02 -2.2462018605714249e+00
    1.1010233374571146e-02 -2.1246197154583037e+00
    1.0259005749138000e-02 -1.8211957535761982e+00
    9.2008806096728589e-03 -1.0409482579412954e+00
    1.0085588406829266e-02 -9.0211620052543995e-01
    1.0170631193802534e-02 -1.2079220729233699e+00
    9.8957973358072757e-03 -1.1276090446956946e+00
    9.8340544850772996e-03 -1.3446743519564273e+00
    1.0376700391247941e-02 -1.6005165810362771e+00
    1.0136059605337757e-02 -1.5735224308546283e+00
    9.9519502607246790e-03 -1.4773674561670129e+00
    9.8260178485272600e-03 -1.3471461782428267e+00
    9.1825544733303583e-03 -1.2636445276601329e+00
    9.4138474212784005e-03 -8.8243374799768604e-01</input_scale>
  <output_scale>
    5.2631578947368418e-01 4.9999999999999994e-01 5.2631578947368418e-01
    4.9999999999999994e-01 5.2631578947368418e-01 4.9999999999999994e-01
    5.2631578947368418e-01 4.9999999999999994e-01 5.2631578947368418e-01
    4.9999999999999994e-01 5.2631578947368418e-01 4.9999999999999994e-01
    5.2631578947368418e-01 4.9999999999999994e-01 5.2631578947368418e-01
    4.9999999999999994e-01 5.2631578947368418e-01 4.9999999999999994e-01
    5.2631578947368418e-01 4.9999999999999994e-01 5.2631578947368418e-01
    4.9999999999999994e-01 5.2631578947368418e-01 4.9999999999999994e-01
    5.2631578947368418e-01 4.9999999999999994e-01 5.2631578947368418e-01
    4.9999999999999994e-01 5.2631578947368418e-01 4.9999999999999994e-01
    5.2631578947368418e-01 4.9999999999999994e-01 5.2631578947368418e-01
    4.9999999999999994e-01 5.2631578947368418e-01 4.9999999999999994e-01
    5.2631578947368418e-01 4.9999999999999994e-01 5.2631578947368418e-01
    4.9999999999999994e-01 5.2631578947368418e-01 4.9999999999999994e-01
    5.2631578947368418e-01 4.9999999999999994e-01 5.2631578947368418e-01
    4.9999999999999994e-01 5.2631578947368418e-01 4.9999999999999994e-01
    5.2631578947368418e-01 4.9999999999999994e-01 5.2631578947368418e-01
    4.9999999999999994e-01 5.2631578947368418e-01 4.9999999999999994e-01
    5.2631578947368418e-01 4.9999999999999994e-01 5.2631578947368418e-01
    4.9999999999999994e-01 5.2631578947368418e-01 4.9999999999999994e-01
    5.2631578947368418e-01 4.9999999999999994e-01</output_scale>
  <inv_output_scale>
    1.8999999999999999e+00 -9.4999999999999996e-01
    1.8999999999999999e+00 -9.4999999999999996e-01
    1.8999999999999999e+00 -9.4999999999999996e-01
    1.8999999999999999e+00 -9.4999999999999996e-01
    1.8999999999999999e+00 -9.4999999999999996e-01
    1.8999999999999999e+00 -9.4999999999999996e-01
    1.8999999999999999e+00 -9.4999999999999996e-01
    1.8999999999999999e+00 -9.4999999999999996e-01
    1.8999999999999999e+00 -9.4999999999999996e-01
    1.8999999999999999e+00 -9.4999999999999996e-01
    1.8999999999999999e+00 -9.4999999999999996e-01
    1.8999999999999999e+00 -9.4999999999999996e-01
    1.8999999999999999e+00 -9.4999999999999996e-01
    1.8999999999999999e+00 -9.4999999999999996e-01
    1.8999999999999999e+00 -9.4999999999999996e-01
    1.8999999999999999e+00 -9.4999999999999996e-01
    1.8999999999999999e+00 -9.4999999999999996e-01
    1.8999999999999999e+00 -9.4999999999999996e-01
    1.8999999999999999e+00 -9.4999999999999996e-01
    1.8999999999999999e+00 -9.4999999999999996e-01
    1.8999999999999999e+00 -9.4999999999999996e-01
    1.8999999999999999e+00 -9.4999999999999996e-01
    1.8999999999999999e+00 -9.4999999999999996e-01
    1.8999999999999999e+00 -9.4999999999999996e-01
    1.8999999999999999e+00 -9.4999999999999996e-01
    1.8999999999999999e+00 -9.4999999999999996e-01
    1.8999999999999999e+00 -9.4999999999999996e-01
    1.8999999999999999e+00 -9.4999999999999996e-01
    1.8999999999999999e+00 -9.4999999999999996e-01
    1.8999999999999999e+00 -9.4999999999999996e-01
    1.8999999999999999e+00 -9.4999999999999996e-01</inv_output_scale>
  <weights>
    <_>
      -9.9109758587581170e-02 7.5273742990809397e-02
      -4.9749914993036531e-01 2.0778418702631241e-01
      -1.9316723336929659e-01 9.7649399646821983e-02
      3.8644191036535347e-01 -9.0217119755955130e-02
      -9.9234734087821053e-01 -1.5389609219514785e-01
      7.5173403050614174e-01 -3.3339507168397287e-01
      -1.3329105439797134e-01 -6.5372332654407128e-01
      5.0089243492301883e-01 2.9369830046623674e-01
      5.8147830817287216e-01 -4.3622049720994499e-01
      1.8193188077624656e-01 -1.8371991991426068e-01
      3.7310129684959747e-01 1.2766342246425566e-02
      -2.1247544487233114e-01 -2.2267260326778476e-01
      1.0281244990309482e-01 5.0460711233146582e-01
      -2.8816436201536083e-01 3.3818809803384131e-01
      -3.1904300817802400e-01 -8.5100856501444624e-02
      6.7027654017643634e-01 1.3431571071855553e-01
      -4.1091751032942897e-01 2.7783693099076360e-02
      -7.4868000926798128e-02 4.7111781509552664e-01
      -1.0383357833585831e+00 7.8263283363747105e-01
      4.9578574552358873e-01 -1.9078141348105322e-02
      -2.0058125884614963e-01 -5.0156717055138245e-01
      2.8667370637870143e-01 4.5408695022208662e-01
      9.0248218729088531e-02 5.0707718132556923e-01
      2.9006987158936685e-02 -5.6764574667922696e-01
      5.3602287163166888e-02 6.7306280502027516e-01
      1.0749228443314274e-01 4.7239598571971414e-01
      6.6225090498396727e-02 -9.3765847600384677e-01
      -3.8019384320004812e-01 -1.0159387902475528e-01
      -4.6830132284517563e-04 -5.4411606326167261e-01
      1.6661971931001021e-01 1.9176400166465507e-01
      -8.9969626209015899e-02 3.7361930474082011e-02
      7.4593018517264653e-01 -2.3807034237696603e-02
      -1.5013620668854516e-01 2.4969604242588223e-01
      -4.8018691411770625e-01 3.8557845223520482e-01
      -1.8731100934003417e-01 1.9684720807439651e-01
      -7.1262922155132491e-01 6.3098504463272842e-01
      -5.6008798911665027e-02 1.7712655263593677e-01
      2.7381588959191161e-01 -4.5385919030297445e-01
      7.6480273325227315e-03 -1.4173869980381748e-01
      -8.3151537424870414e-02 -4.7233316374514794e-01
      4.0123488024630422e-01 1.1741916543365566e-01
      -7.7405721696097907e-01 -5.2781204613975941e-01
      7.8440817502305638e-01 5.2516972115141702e-01
      1.8815258744236088e-01 2.9150004314138089e-01
      1.7802999658214957e-01 -7.6324123716130052e-02
      -1.8289536457183120e-01 1.7577953107208516e-01
      -1.7908822562596214e-02 3.9431485390465365e-01
      3.7983770498008568e-01 -8.3505525065577391e-01
      5.3528280295872777e-01 3.9350827630448315e-01
      -6.2608935131594406e-02 -1.6056936525901754e-02
      -2.0071814266617499e-01 7.0195539338549204e-02
      9.7080433674167022e-02 -1.7665459256169572e-01
      -3.0944628534781726e-01 3.3918469974215526e-01
      -1.0245804576865548e-01 -1.3126377292972499e-01
      4.8567805172556983e-01 6.2109423399930230e-03
      3.4804322721000747e-01 7.2945510423374105e-01
      -5.9936073520635880e-01 -2.0053672125057712e-01
      1.4862162680604857e-01 -4.7643009012139781e-01
      -4.5603053053485049e-01 9.4200228912192319e-01
      -2.9492159525480821e-01 6.6968052612470341e-01
      5.2372029594376160e-02 -4.9447645410478724e-01
      2.1250059698363305e-01 -5.6173279812967969e-01
      -1.1190709212913014e-02 6.3670445592849945e-01
      -3.6818841455341322e-01 8.4894974056477857e-01
      4.9491429845971235e-01 1.0845891581695799e+00
      -5.4682020104009799e-01 -6.9314288761744824e-01
      -2.5129785909881824e-01 -4.6916395057626537e-01
      -3.1468678437765479e-01 2.9200309875642416e-01
      -2.6334215731294197e-01 -5.4986746145272292e-01
      6.9915989277834645e-01 -3.8819984743433428e-01
      -4.0744970942271536e-01 -5.6910241659736416e-01
      4.0922163878823220e-01 1.1260765988831924e+00
      -2.2854175338066152e-02 -5.8973785508707766e-01
      -1.0663776829009840e-01 6.8909519838759858e-01
      2.3494117510299287e-01 -3.9333599220865778e-01
      2.9736801533405610e-01 -3.1332976096169396e-01
      5.9405677547299840e-01 -3.1333017016119541e-01
      -2.2510535448008692e-01 -3.6375771303247262e-03
      2.4873948545409852e-01 3.9471251897658760e-01
      2.6348643572435715e-01 2.8916663928123826e-01
      8.8960044293692558e-02 -4.8661632325699511e-01
      -8.8881912428055238e-02 -8.6437604899480580e-01
      -4.5865088367325535e-01 -2.3925447528650567e-01
      1.6488556436034493e-01 -5.1811075517173433e-01
      4.0823719030043687e-01 -1.0820402902333108e-01
      -7.8375033497029356e-01 -3.8512140718388760e-01
      -1.1658054591274745e+00 -4.3641571898939441e-01
      -9.8127965847544990e-02 4.9336274084612947e-01
      -8.0777394191792229e-01 -2.6045915219481330e-01
      1.1516803986773616e-01 -8.2329387455432579e-01
      -3.1988499962166755e-01 3.6956345041531569e-01
      -4.2864949438559263e-01 -5.6265784291965459e-01
      2.4463030790357487e-01 2.8285483292546010e-01
      4.4207172513329583e-02 -1.7183697447987090e-02
      7.7835638571271307e-02 2.4931309102656538e-01
      1.3809703886829669e-01 4.1660267695197511e-01
      -2.8024234867296915e-01 -1.7405587241149389e-01
      -1.1676577117578797e-01 -1.0386227234398961e-01
      -4.6249259306706419e-01 2.1264991148021295e-01
      -1.4140581238599678e-01 -2.2303762287514353e-01
      -7.9179615056186273e-02 -3.6947255335531382e-01
      6.7455989950243544e-01 4.8700515665209398e-01
      2.1589576768114146e-01 -1.2361605954842095e-01
      -9.2313170780824894e-03 -8.2495877993174371e-01
      1.0694322626462981e-01 -4.6127454567334886e-02
      1.5387009689108769e-01 1.3623828509115397e+00
      5.0072662053430332e-03 6.9164601274946103e-01
      -2.1640372608964714e-01 2.6000483639901956e-01
      2.1112561456054310e-01 -7.5430374498411601e-01
      6.3023437364608543e-03 -1.3381658029757168e-01
      6.1280172622997475e-01 -4.0788813495541359e-01
      -2.9495538902612117e-01 -2.6940183697591474e-01
      5.5279077933862719e-01 8.7330192252524058e-02
      3.7785454201853808e-01 3.1158301159283119e-01
      -1.2417237516503350e-01 5.1886410900626334e-01
      -5.2641121393757351e-01 -2.7780075124708625e-01
      4.2527024871461222e-01 3.3555296880523228e-01
      -8.8615992491636403e-02 3.0962954494441802e-01
      1.8124181209545701e-01 3.8306622249242556e-01
      2.6493294759928160e-01 7.1091992039642826e-01
      -4.2224001238347286e-01 4.9681055344882297e-01
      -3.4679148780178193e-02 -2.5301152994477016e-01
      -6.0797148540672485e-01 1.8138262259600041e-01
      2.9739344910104264e-02 5.1834981227870880e-01
      -9.9672214106525359e-01 3.6036648436198132e-01
      -2.7096508031237238e-01 -5.3391102529064538e-01
      -1.7604363902530351e-01 -2.9411669868701619e-02
      -4.0290168117191061e-01 -1.7240697071917499e-01
      7.0155068820865829e-01 3.3621981947277571e-02
      -3.2093741539472481e-01 -1.2913567616357938e-01
      9.7022705631404318e-02 -2.9433792957716914e-01
      -1.4068376611064939e-01 1.1175226482103706e-01
      -3.6483620116501408e-01 5.5353143714082231e-01
      7.1242191703993862e-01 2.5196430028968014e-01
      2.8199360059429424e-01 -6.7488972277339809e-01
      7.6994634052524576e-03 -7.2141791908561892e-01
      1.0631809587370006e-01 -1.0774602428612279e-01
      1.2593448865022486e-01 3.4128192391954354e-01
      5.1575405637565963e-01 1.1270119217582715e-01
      6.0597839773334439e-01 -2.1364789977426327e-01
      -1.6460791731447019e-01 8.5677527499146949e-02
      -9.7503288393838886e-02 6.1945157561077324e-01
      -5.5846387618691307e-01 2.5469114003128979e-01
      1.9031527878899476e-01 1.8936830616217495e-01
      -1.5510732794787824e-01 -2.6641786297350323e-01
      7.7489596443204425e-02 -8.9379398849921965e-01
      -2.9876575541021307e-02 -2.4384760571297229e-01
      4.3715306637056212e-01 -8.0075469710476965e-02
      5.6061961620696310e-01 6.9042160012596401e-02
      1.9625440502038030e-01 9.9037558961384753e-01
      4.1466608537438288e-01 5.2997102493437953e-01
      -1.6963902145836496e-01 1.9459631134161071e-01
      8.2723564261037019e-01 -3.1891329666406065e-01
      -1.8266949066949611e-03 3.6159331057001975e-01
      1.9302558052695137e-01 -3.1780418220023532e-01
      -7.5348953398828744e-01 -1.2441030752657756e-01
      6.4233513532306230e-01 5.7152650395577757e-02
      -1.1291673828264974e-01 -1.1261219350037681e-01
      2.3879416878572077e-01 3.0174823167623388e-01
      2.4382432148526123e-01 1.3034505606228902e-01
      -3.0338136418459499e-01 -3.6464665580337857e-01
      -4.6385934180950877e-01 4.7554957827078587e-01
      1.2662360096572243e+00 -1.4614697020413847e-01
      -3.7882204042614581e-01 2.3119033313325416e-01
      1.7356973497499426e-01 2.0252072479400268e-01
      -1.4312100646270495e-01 -9.2260584198534099e-02
      1.6350165594138025e-01 5.8707341025772367e-02
      -1.6596843774684511e-01 7.1042412164462734e-02
      -1.0896043991517081e-01 2.4801696076471644e-01
      6.1493898422363780e-01 1.3543142333244565e-01
      5.1138580935997802e-01 1.2010814075849617e-01
      -1.2724430620598456e-01 5.5387548008139398e-01
      -1.2721986673008640e-01 8.0306787871190888e-01
      -3.6156343386997580e-01 7.5505850010502237e-02
      1.6558137961711206e-01 2.2913287870341625e-01
      -3.6964724831431112e-01 -3.8967017326248710e-01
      6.4687431907619930e-01 -1.5247684273470605e-01
      1.7478273199910668e-01 2.0077956389570495e-01
      2.0165760504305902e-01 -1.4657536849822189e-01
      1.9827159823273269e-01 -9.8851844360180963e-02
      1.3972124941279052e-01 -7.5679946034459467e-01
      -2.7340695277941257e-01 6.6660819503574265e-01
      -4.6312186226243990e-01 -3.2085178074543930e-01
      -3.4482857745582740e-01 7.1958922748342979e-01
      -6.0677718677236547e-01 2.4418275627558697e-01
      -7.6490551132142481e-01 1.2904128330739612e-01
      -7.2992652678705583e-01 2.2661098170668559e-01
      2.7565372454761394e-01 -4.1060843277266668e-01
      -3.0247960138018448e-01 2.1720582809257094e-02
      5.8127110344654002e-02 -3.2408392595362606e-01
      -1.4147217509362475e-01 6.4388609304401756e-01
      3.9317931806310868e-01 8.5152313516881695e-01
      1.9883469979164216e-02 2.1560865076859154e-01
      3.9290130452396335e-02 -1.1187506539326513e+00
      7.8535437098024782e-02 6.8749969986887505e-01
      6.5253547037322390e-01 9.7296203544616577e-01
      -1.4081403936684150e-01 2.2389978745568900e-01
      1.3293179203422648e-01 -1.0062323638992479e-01
      2.9549557587988123e-01 -6.8779172781624132e-01
      5.4133212008242025e-02 5.1408725834158542e-01
      -1.6671250986560054e-01 -6.2938085597933913e-01
      3.0549108821731880e-01 3.9229765781033271e-01
      3.0914957104199786e-01 2.7385728278820607e-02
      5.5343099741731061e-01 2.3063873119316083e-01
      5.4324504162802356e-01 7.4359175162929270e-01
      2.4947163190285770e-01 -7.2423559768792201e-01
      1.5225173791395250e-01 6.0322101821219498e-01
      4.0252603881599160e-02 1.2057471995135476e-01
      -2.5084668328644366e-01 4.5267387704677385e-02
      -1.1525287709059689e-03 5.9818670350081610e-04
      -6.3073170235347598e-01 -7.5221479767517607e-01
      -4.5098655803435711e-01 -2.0786642076025932e-01
      2.7781579051670985e-01 -6.5373500143782362e-02
      -7.7776971602752853e-01 1.4862363630185437e-02
      -1.6161877071271052e-01 -8.0935269199100457e-01
      -2.2916388358301223e-01 1.7971021738160625e-01
      -7.4212290266697095e-02 -5.8684958857636393e-01
      1.3309654010536745e-01 -3.0553930958778769e-01
      -5.4434737961145596e-01 -7.7402786442408930e-02
      -4.8081321129364285e-01 -2.4134729971662358e-01
      -1.8117381854744619e-01 -1.3096168125694127e-01
      2.1213411955012143e-01 -1.9316554797724003e-01
      -6.0026536717234014e-02 3.2668717812310372e-01
      6.2848446104481603e-01 -2.7152697956661209e-01
      4.4958710549778591e-01 2.6168909832458137e-01
      -3.3098399584895832e-01 -4.6320766868977903e-01
      3.5319246867307430e-01 1.6993410938234035e-01
      4.0043717243002241e-01 4.7756135958562307e-01
      1.1927640549736622e-01 -5.2376466333678651e-01
      -4.2307954833542501e-02 -2.5124268283613332e-01
      -1.0094620259078425e-01 4.2019454271880774e-01
      4.7344601297329691e-01 -8.5755798948087103e-01
      8.9869523387511030e-02 8.5602403034834976e-02
      -3.0798185017506036e-01 1.9181730877628045e-01
      3.0254446365629094e-02 -6.8474400699718094e-02
      -4.3877532068227976e-01 4.2229377393312234e-01
      1.7697582674651488e-01 -3.4208877928508691e-01
      -6.4664188006642989e-02 1.6866779314274633e-01
      -1.0342123142980558e-01 -2.2540372085696631e-01
      -1.8633256477331858e-01 1.3233466496083554e-01
      7.7285570563625838e-01 1.2346248495417535e-01
      1.1348439868112389e-01 1.0138884291987873e+00
      3.0960290866014611e-01 1.4058232993559458e-01
      4.7331206474412142e-02 4.1760093449431901e-01
      1.7980677839401210e-01 -3.2880189972911970e-02
      6.8737250256879989e-01 -4.1957570387579762e-01
      1.3401896954446191e-01 -4.3636926082550126e-01
      3.6472262179736460e-02 -5.5393985968434889e-01
      3.3668839872612027e-01 1.4244861002869472e-01
      3.0139510899037314e-01 5.5921807647521549e-01
      5.2252924602782969e-01 7.2763626286118904e-02
      -6.1950338583278378e-02 3.3547681967512327e-01
      -7.4512730419321060e-01 -7.5406113571776034e-01
      -1.7283150843063311e-02 -3.4036480177046224e-01
      2.4568479968940649e-01 4.9931851689116818e-02
      -8.3479418735466637e-01 4.7631935042328122e-01
      -1.2477143834080229e-01 3.8755563175983782e-01
      7.0358284449316277e-01 -2.4241485238310728e-01
      2.0466271778896786e-01 2.7790071540070022e-01
      -1.5405933053677159e-01 5.6313069156742201e-01
      7.1731602816429924e-03 6.1765504816361982e-01
      3.1385619287412408e-01 2.4434814541134620e-01
      6.5060010451428374e-01 -4.8896658607621196e-01
      1.0516329034220395e-02 -1.1879379619402715e-01
      -2.9833686796811731e-01 -5.2178925363810680e-01
      4.5983182999511840e-01 4.2595289000912057e-01
      1.0409834928236948e-01 -7.8925667703112337e-02
      6.3656024471838202e-01 -2.2971619432083232e-01
      7.8502430693744657e-02 -2.2932999286695588e-01
      -7.5543851734804573e-02 4.8013133112367062e-01
      3.1012615545345740e-01 -3.5273717053850145e-01
      -4.6323883326513848e-01 -3.5837381683226360e-01
      -8.9691336895409546e-01 -4.3326669405274154e-01
      -4.7532498103851262e-01 -3.0784105634980180e-01
      4.5272447684696138e-01 1.3367097740371816e-02
      5.3529445334261994e-01 -4.0778943664725675e-01
      -2.1156204862032968e-01 -8.3692332312649054e-01
      2.3481713733778847e-01 5.8127622529975231e-01
      2.2604584575539322e-01 -2.5792961313711647e-02
      -1.4770320258320402e-01 -4.0938015075418725e-03
      -1.1442278642203658e-01 -5.9357575204408521e-02
      -7.0912238412646855e-01 -8.9683936850467230e-02
      7.4233449447191746e-01 8.7168937610086657e-03
      2.5300241136960244e-01 1.3381986521910685e-01
      2.9592786488072176e-01 -3.1169493969947098e-02
      7.3528318329446826e-02 7.6948917263952865e-01
      2.8153864935606615e-01 -3.4103990272956514e-01
      -8.7130195459063378e-02 -9.5160005679793807e-03
      3.4655404233979920e-01 2.3513659742524934e-01
      -3.8153055621287507e-01 3.0621567382350345e-01
      3.1833444755185986e-01 1.9455266741033472e-01
      -3.0176867122593759e-01 4.1728597302417048e-01
      1.0979660127901517e-01 5.0662268949153788e-01
      1.5305426244151416e-01 6.7163211026139724e-01
      2.1464002592799611e-01 3.2087362495727667e-01
      3.0577572745190196e-01 -9.4264080566616795e-02
      -3.5872848125378198e-01 5.7812218180433117e-01
      5.3552887890534284e-01 2.9459303284042154e-01
      -3.5147226246155638e-01 -1.8131985140935772e-01
      -1.1245483552179868e-01 -7.5762125501553854e-02
      6.2184325432109833e-02 3.5685941901068213e-01
      -5.0260282829282998e-01 2.9971804257290963e-01
      8.5636725495103108e-02 -5.0371781798724857e-01
      -4.3287131828216913e-01 1.5655263171833209e-01
      2.0716740184709165e-01 -5.3507694191047062e-01
      -3.7649708507409180e-01 -4.8017486474549709e-01
      5.5423637768729062e-01 3.4374339341380726e-02
      4.1223540985674306e-01 -3.9751084285533667e-01
      3.5051440011256824e-01 -2.5541999350665584e-01
      -7.3558765270147014e-02 8.5994552736881238e-02
      -2.0831420299523018e-01 -4.9628863289928377e-01
      -4.2758879012794976e-01 -2.2914900068501459e-01
      2.8087645445466197e-02 4.9715099345673902e-01
      -6.7760394049338549e-02 5.9399205444665193e-01
      2.5514968771160995e-01 1.4890573245413458e-01
      6.2855747332594281e-01 -1.0660384029087016e+00
      9.2353273544856767e-03 2.3393957171138094e-01
      1.0855016928088738e-01 9.2118734568793187e-02
      -2.0732007128731958e-01 2.4113717780528274e-01
      3.4906290537787432e-01 -4.9579269685409898e-02
      -2.8980902408486953e-01 2.1962164661329830e-02
      8.3649214521541160e-01 3.1438839313853370e-02
      -1.7435994041132019e-01 2.4880927069922845e-01
      9.6120757467199103e-01 6.7670211570185490e-01
      2.9901191844554637e-01 3.4513897083384454e-01
      -6.8897440325278769e-01 6.5321940042003890e-01
      -1.3706305152081108e-01 -5.6382697246000857e-01
      -1.8059903938983404e-01 2.8876337621416770e-01
      2.9600594559177562e-01 2.9960013990328244e-01
      1.2685901997811450e-01 1.5619895853957477e-01
      1.3199358970102592e-02 4.6973421176491947e-01
      6.9376176248949439e-01 5.7202962802796009e-01
      -1.7786177628517974e-01 1.5124477803733552e-01
      3.0683715598108513e-01 -1.3811793005294880e-02
      1.9088231721736793e-01 1.4225910657542512e-01
      -1.7384378751999993e-01 -1.6720143579663845e-02
      2.5218942793590049e-01 2.9353782606856293e-01
      -3.1467918620766211e-01 -3.2856073309954448e-01
      -7.3952604274439906e-02 -5.5684127586687526e-01
      -6.5641185278159775e-01 -1.0420438139122710e-03
      1.1333608231172740e-01 5.6634665755325153e-01
      -7.3560457463374182e-02 -4.4566548917019566e-01
      -6.5851516884990524e-01 -4.3745248615503224e-01
      -1.1578064162975467e-02 -4.2406448110482214e-01
      2.1186673706735010e-01 -2.1603343817437792e-01
      4.0370030403287965e-01 6.3048947834203686e-02
      9.5951759488588848e-02 -2.8453219988196343e-01
      -6.6957570112279963e-01 8.4428660823092472e-02
      -4.3035729156812241e-01 4.7529211018101097e-01
      5.0156827339577426e-01 -1.6856447029687616e-01
      -5.2800202823699094e-01 5.6016937327074279e-01
      3.1165405729852613e-01 -5.2766769554009396e-01
      -1.0176407605944252e-01 4.3295916363469317e-01
      9.3117907096840413e-01 -5.1784896172382623e-04
      1.0802395704105872e-02 6.9016761074884936e-01
      2.2595781580278168e-01 3.7948394585409190e-01
      1.5203868817508642e-01 2.5295180877908596e-01
      -4.7917545153950641e-01 -8.5216769359733619e-03
      -5.0235210039211997e-01 4.1276288342304096e-01
      1.2675754331364814e-01 -6.3979613353202472e-02
      -1.7709212419960979e-01 4.7696119268377835e-01
      -7.8491727091154193e-02 2.8229786087180797e-02
      -1.7613343268382889e-01 -4.8766494415266126e-01
      -7.7090261038528118e-01 6.1926850383973442e-01
      -1.2017773385171394e-02 -9.8409494958907842e-02
      -2.4397054525052259e-01 -3.0554110117155803e-01
      -4.9970162058960538e-01 -4.4365424235861117e-01
      2.9284795632650718e-01 -7.5544965988386470e-01
      1.6638521962931693e-01 -1.6889618295741532e-01
      -3.1862037433485541e-01 3.8614991823898159e-01
      8.2584780882164560e-02 -1.7460067493157559e-02
      -1.0242128981904744e-01 4.5539880929652921e-01
      1.7026344251451481e-01 -1.4698910539713378e-01
      6.0799810246226682e-01 -1.9478942686563602e-01
      -5.0500174416461363e-01 3.3362687752413644e-01
      -1.2197387918904939e-01 7.8892891852315062e-03
      5.7560667610441896e-01 -3.2754488854039943e-01
      4.6256208069886801e-01 2.4976404471244096e-01
      5.1955545217920596e-01 -6.0062881834983858e-02
      6.3854839609529770e-02 -5.6741972973737298e-01
      -8.1148033198184866e-01 -4.8932186178195847e-01
      7.1917702357509306e-01 -1.7903176015160635e-01
      3.5291102805731034e-01 1.4442546963334066e-01
      -6.6801710831096017e-01 4.1442163314016411e-01
      -4.9910984027310862e-01 -4.6497257271581077e-01
      3.1789700011973065e-01 2.1445728881765592e-02
      -3.6129925977096072e-01 3.3140485653547175e-01
      1.5747080219721019e-01 1.4862095685960391e-01
      3.6241519486197665e-02 2.4574168172642390e-02
      -4.2318121369442280e-01 -2.0356870275826119e-01
      4.3634404766765328e-01 3.2112528611568503e-01
      1.7736829364293061e-01 -3.8406554700806755e-02
      -2.2421197108594154e-01 -2.4248774797095299e-01
      5.3104723059652070e-01 4.0167694575588037e-01
      1.1467546735015008e-02 2.0966420855406634e-01
      3.6721844348004767e-01 2.9786199440125333e-01
      8.6458151947103279e-01 1.9396656280787933e-01
      5.7122416339588911e-01 3.5496456622422407e-01
      6.9739765924847852e-01 -5.3158474597177774e-01
      -6.0490516559013796e-01 -8.7937771502121342e-01
      -2.1331722868738848e-01 2.5985569779026901e-01
      1.7412476063789453e-02 -8.4545347913567281e-01
      6.4171541179869696e-01 2.2283545178006550e-01
      -5.5432881722033818e-02 -1.3471831398433393e-01
      -4.0258770613367711e-01 -5.9424507036725760e-01
      -2.9732317606302111e-01 -8.4573646020179152e-02
      -9.3643816881165090e-02 -1.5461509026504236e-01
      -5.3732197922883373e-01 -2.4511139292804601e-01
      -1.9455787863838117e-01 1.5188874703832958e-01
      2.2441340647753333e-01 1.7864722093359167e-01
      4.2918901600116388e-01 -8.3867098879973789e-02
      3.1881926997455456e-01 2.3733910934345315e-01
      -3.7359547910504293e-01 -3.8065644904209972e-01
      -2.8539111857483562e-01 4.6729583024892152e-01
      3.5805178293754025e-01 -2.9749239425489032e-01
      -9.0233290002797173e-01 1.6045973199500126e-02
      3.0711121609091252e-01 6.0950482457160393e-01
      1.0919663968999624e-01 -8.0223497568759849e-01
      -3.7855937162389365e-02 -1.3916920873258221e-01
      -7.7671634143139057e-01 -1.8183646094529973e-01
      5.1068068177557469e-01 -8.1452946422833183e-01
      8.2252410093276249e-03 -7.4661777197887622e-02
      2.7280244176204382e-01 -2.9966467827097704e-01
      -4.3686919618569930e-01 5.0990675209851832e-01
      -1.3895858789342902e-01 4.6904168398640117e-01
      -4.5979180082256177e-01 -7.8897303463587726e-02
      5.0010190095300322e-01 -3.9601870915881149e-01
      -3.4856989035636038e-01 -3.0026056924495959e-01
      -4.8030943179678036e-02 1.7119835584856197e-01
      -4.3765402903294853e-01 -4.6174194542420927e-01
      2.4285749603744899e-01 -1.0177012338322312e-01
      7.2990488455029076e-02 -5.6501213154204022e-01
      -1.6488684889486058e-01 -2.6088946580378508e-01
      -1.4611485517246262e-01 -2.6288694271221791e-01
      2.8279857990543911e-01 4.1644744124772121e-01
      1.0258997481683529e+00 7.6373581178878436e-02
      2.2659529789436414e-01 -4.4059161556506671e-01
      -3.2808620697902674e-01 1.8994042681444043e-01
      1.0699378664276181e-01 -3.6138272590177034e-01
      -2.6494250233885719e-01 -6.3617415970903657e-01
      -1.7971887284897008e-02 6.6117679096683646e-01
      -5.2272588064625869e-01 -3.7847593713220845e-01
      1.3791467242458574e-01 -4.0550746416334399e-01
      -6.0422230834422819e-01 -3.1124184603351379e-01
      -7.1454112871200459e-01 2.3745323382852282e-01
      2.3898452148513372e-01 -3.2440206126235543e-01
      -3.6607696432674497e-01 3.3627009863150779e-02
      7.5254032084810588e-02 -3.5811648305875665e-01
      3.3287665777052927e-01 6.8680394825490387e-01
      1.2795837792969361e-01 7.5470707325830699e-01
      2.3726984927587885e-03 -1.3542032483614994e-01
      -2.9446185865577360e-02 1.1105069190174972e-01
      1.3479306090045956e-01 2.3312833052974516e-01
      -2.6317771166040183e-01 -4.9183900434509092e-01
      4.1989493364275993e-01 2.6875306321010911e-01
      -5.1316666269760802e-01 -2.3889420627839643e-02
      7.4566255524453273e-01 -1.2908199847590635e-01
      -3.1591682478195415e-01 -1.3900400106797020e-01
      -6.7284450830216158e-01 2.2983274031031831e-01
      -2.2976596533867574e-01 -2.6231767819292640e-01
      -8.6364944975025704e-01 7.1338606959249082e-02
      -2.5610949817231082e-01 7.4096211370991338e-01
      -1.3832956563252280e-01 -1.3078762998424059e-01
      -7.3934407620188158e-01 2.0455187733096422e-01
      -4.5772279248987874e-01 1.4617021126818858e-01
      -1.0075585505399264e-01 5.9957840317019402e-02
      5.3449856302922327e-01 -5.2462976913879988e-01
      -6.5204092113542900e-01 -1.3716655632738167e-01
      7.3370976372597130e-01 3.3983028592374948e-01
      2.2816367981688521e-01 -3.4504120117589748e-01
      2.7072115265845700e-02 3.4491352787186930e-01
      -8.7327780348721795e-02 1.1965455119319794e-01
      -1.7097254745331233e-03 6.4585627563088485e-02
      4.8333216225082593e-01 -5.2117604160457041e-02
      7.7698455872143124e-01 -7.1910007606000326e-01
      -2.8112079412233676e-01 4.2098655664527873e-01
      7.8219427329681193e-02 2.0640536476113049e-02
      -1.6697497446241094e-01 3.2469854238099827e-01
      3.4156870465663430e-01 -4.7146043549935107e-01
      -2.3526921891690539e-01 -3.4585031363863544e-01
      -3.7854441491075702e-01 2.7659096352701390e-01
      7.4126944806322204e-01 1.2142160560081572e+00
      -3.5994622031118348e-02 -8.1232509710180223e-01
      8.3794200102864003e-01 -3.0229264459250463e-02
      2.0930071525816821e-01 6.7669335967734467e-01
      4.2234633678188194e-01 -1.9844065285171988e-01
      -5.7780633094889466e-01 5.4568428123763846e-01
      6.8211155882483457e-02 6.4322063112844396e-01
      -4.7259094042358202e-02 1.9294569266340711e-01
      -6.3321550922715897e-01 1.4110232640600651e-01
      5.0336576241189354e-02 2.0918650947083894e-01
      5.7014453751334915e-01 -6.3605174319212546e-02
      -1.7346260055658180e-01 -1.4973099478174762e-01
      -7.0699532810722732e-01 -7.0193269918791568e-01
      -3.5391083533759365e-01 2.0369149761024267e-02
      1.2512006831843689e-01 -2.2532156105743537e-01
      -6.1365819003621980e-01 -5.2524409865108435e-01
      -3.4893106205482893e-01 -2.7374624156050803e-01
      -3.6100344582878946e-02 -6.2134719338261024e-01
      3.4638675276412823e-01 -1.4891488527985117e-01
      -5.1330524995510225e-02 -5.9534940724899274e-02
      4.3549966688855124e-01 7.5905818817804645e-03
      -3.5961651440686304e-01 3.6313860975119050e-01
      -2.5032885365604468e-01 2.8611675620997440e-01
      2.4752748053965579e-01 -4.2920094886394600e-01
      -7.8599486159020804e-01 -1.0149136438756033e-01
      5.5329895462971679e-01 2.9736225084310308e-01
      -4.0427383769417330e-01 -1.0369168942807347e+00
      -4.8519600726039641e-01 1.1653296693579719e-01
      3.1756125551365216e-01 2.0303432816186551e-01
      8.2204228879415475e-01 3.7934859951033850e-01
      -6.0259475057751288e-01 -1.8541787497841042e-01
      -2.5309085781698387e-01 1.5885140963553618e-01
      -3.0307016931442332e-03 8.3615050833445526e-01
      -4.3054584842666860e-01 7.2733984603690098e-03
      3.0286313366819556e-02 -3.0692455911780343e-02
      -4.3690831042071004e-01 -1.9081964596883041e-01
      -3.5608087749141609e-01 4.2133059797841458e-03
      -3.9376073481955709e-01 -3.7395328830046698e-01
      -2.6106785370699742e-01 3.8811710907822439e-01
      -7.5110148608652672e-02 -5.2112059693955726e-01
      -6.6188101809994640e-02 2.0943248629977115e-01
      -2.4652604154326271e-01 -8.5373040178332815e-01
      -8.2252899305931701e-02 3.2223473552478504e-01
      -1.9029741000322895e-01 -2.6631209202477867e-02
      -3.1812127392812717e-01 4.3036343350082723e-01
      9.1763479379719778e-02 1.1556208918436663e-01
      -2.7924983815743343e-01 -6.4862040788187592e-01
      1.0434273843687951e-01 -3.1560724519654448e-01
      -2.0492065497013723e-01 4.8152547943808638e-01
      3.6606204694487318e-02 6.3860078548267762e-01
      8.5575502032827794e-02 -3.6493238899687669e-01
      -5.6451555400357165e-02 1.1555861216645316e-01
      -7.7772993419683856e-01 -3.7653073154462519e-01
      6.9404678389202890e-02 2.4091833769031856e-02
      -2.4284584267346604e-01 -1.1332011274420474e-01
      5.7095071977983143e-02 -5.8324179454714686e-01
      7.6899210138053853e-01 1.9754065778006946e-01
      -1.5969488535189735e-01 -9.7609007898147998e-02
      4.3985969569646549e-01 -6.5839176836573310e-01
      -1.5292903536118219e-01 -5.3686082930120005e-01
      -1.2595399630145382e-01 2.4941128614933647e-01
      5.0727321026340123e-02 -6.4216189703252080e-01
      -1.0442204432819333e+00 3.3253715963640457e-01
      5.9583977510001801e-02 6.5097075150094896e-01
      -2.8205052476794257e-01 6.7394221737052465e-02
      1.9857400638669068e-01 7.8764563511819555e-02
      -3.1379999595387320e-01 -4.0585846970966938e-01
      -1.6582812759207136e-01 1.0613523049431971e-01
      2.4932140674190892e-01 -2.7626340012258732e-01
      2.2794810284262715e-01 -4.3305516775123698e-01
      -2.4745560751796337e-02 2.0303602569288767e-01
      1.5077148316885627e-01 1.2994248968305250e-02
      1.4617565038017000e-01 2.0185036300096817e-01
      -2.0164899728575228e-02 -1.5529399934956123e-01
      1.4404241281959274e-01 -4.6359843066751200e-02
      3.4017737820110228e-01 -7.4439889142520019e-02
      -4.1458322166656447e-01 -5.3939719336154872e-02
      2.3012921113031407e-01 4.3227639924295908e-01
      -1.3664996039534943e-01 2.5110519849932855e-01
      -1.9090769521799683e-01 3.9185675034331263e-01
      -2.5292434869816877e-01 2.1858466591960771e-01
      1.7341318022020498e-02 4.1890311148322687e-02
      1.8420937712693289e-01 2.0824561952287460e-01
      3.4362939189579972e-01 7.3470503036280910e-01
      -6.5756900548591579e-01 -6.6148672465488323e-01
      -4.9750290146762044e-01 3.2174943034252451e-01
      -3.0840161170817870e-01 -2.6945408835038620e-01
      3.1174079349657613e-01 6.7236875132140150e-01
      -3.1864214874663255e-01 -8.8595739263945694e-01
      -2.6091680010270762e-01 -1.6177149716371941e-01
      -3.5518319300208795e-01 5.8902711644527894e-01
      5.4227875574323292e-01 1.2000987564774940e-01
      1.8503231569609913e-01 6.4929288659546044e-02
      -2.4040487724230719e-01 3.3237041919707705e-01
      -5.5344021839057544e-01 -8.3571717139401991e-01
      1.6410856006170010e-01 1.6182554690544260e-01
      -5.3584838688476422e-01 -6.0631989541587834e-02
      -1.0023767471834046e-01 -3.6523074047036835e-01
      4.8667907391816961e-01 -5.8219322496056580e-01
      -1.1207493671821608e-01 -2.8017201886707555e-01
      -5.0470557072626399e-01 -6.1821338611902399e-01
      -2.4365874329571120e-02 6.5382341107463859e-01
      2.5144283181028057e-02 1.0447835349332277e-02
      2.7987619812620745e-01 -4.9291469056719300e-01
      -6.5916108411702468e-01 -1.6869662504945085e-01
      -5.4984151719958718e-01 -8.4237146461412671e-02
      -5.2638510264404292e-01 -2.2576698936500950e-01
      -3.4470893432560745e-01 -3.7249153347357039e-01
      -3.7827338661425147e-01 1.3118288654792340e-01
      -7.6841137065273635e-01 3.7347521568651204e-02
      -1.0374125305350113e-01 8.1845381790190033e-02
      7.8542634978923581e-02 -3.0505050372901016e-01
      4.4391031067541392e-01 2.2949626311309604e-01
      -4.9337381849707862e-01 1.0374815496691743e+00
      6.3069824282176820e-02 -3.7085884035272958e-02
      4.6642223693623741e-01 -5.9179454073035498e-01
      3.5856387479007612e-01 -2.5867683209419323e-01
      -4.3773690878842542e-01 -9.5239665302152398e-03
      -3.9426418706368771e-01 -2.1555328548078126e-01
      9.7369200660682420e-01 1.0758896114554115e-01
      -8.7374167476835463e-02 1.6621694617266997e-02
      -2.8278732157051828e-01 -5.4270134203546327e-01
      -6.6391075329225835e-02 -1.2462955044991057e-02
      6.7148652667125130e-01 1.7039251215712781e-01
      -2.6089648566786805e-01 1.6599096025365126e-01
      -1.2794235879756683e-02 2.1475889262721104e-01
      2.2586197929040902e-01 -2.3789975111109016e-01
      -1.7667848095041175e-01 -1.8456757895515954e-01
      2.5906247587462583e-01 7.9940148427459401e-01
      -3.4622052403900441e-02 -5.1412237556273610e-01
      7.6426663587298738e-01 -4.9790505678185060e-01
      3.4491872387616043e-02 1.9471756366021656e-01
      -4.5146323816072240e-02 -3.5202568229830290e-02
      2.6817145703342476e-01 2.1527132621820805e-01
      -1.9084783212373849e-01 5.9898184686109424e-01
      8.4165457773375618e-01 -1.8788549130554508e-01
      3.7357308813807943e-02 -9.2510625529191010e-02
      2.7332487768826719e-01 -1.2438576917844495e-01
      6.3941383490985104e-01 -8.4210658916990011e-01
      -5.9607063171380967e-03 2.3201827995753339e-02
      3.6014536202847086e-02 -1.3814255516479262e-01
      -3.2385401816387112e-02 4.6505187948512833e-01
      5.9437816198030824e-01 7.3043483194501921e-02
      -4.0834905329260318e-01 1.0046132513188415e-01
      4.3096492132625541e-01 1.3820732804825145e-01
      -8.2612775662268023e-01 3.1919872346259237e-01
      -4.2969240121158730e-01 -2.5736342881044072e-01
      9.2703714067947141e-02 1.3569917886397351e-01
      -4.2284980816441962e-02 -8.0242790214450063e-02
      5.0684994954182350e-01 -5.5773068370248602e-01
      7.7782036782807012e-02 -2.2526376281630645e-01
      1.2975849823207611e-01 5.5789147495098135e-01
      3.1254586392780581e-01 2.1005966193574283e-01
      -1.0136415559754276e-01 2.3689602843954055e-01
      7.3275574372104205e-02 1.0964817963738331e-01
      -2.9610012758241649e-01 2.7183215895460317e-02
      -3.7674191020610676e-01 7.3874337415423652e-01
      8.9379520814026880e-01 2.8823918491948982e-02
      -4.1575292979107004e-01 3.8232819446097477e-01
      -1.0513660620635394e-01 -3.2339662471423676e-02
      1.6888801513961926e-01 -3.2167867587721483e-01
      -2.1781103258059670e-01 -3.5791808137755216e-01
      -3.2589449579472746e-01 5.3784579036306768e-01
      3.9061898708936049e-01 -9.4155358682832563e-02
      5.5488297106771237e-02 4.4742065002528031e-01
      1.9241786590283516e-01 -1.2828717360617761e-01
      5.8383752831057234e-01 2.4693066347602063e-01
      -2.0517457241026907e-01 5.7407242863558128e-01
      1.0657929915483926e+00 -8.3608934726295769e-01
      2.3386358853419809e-01 3.6248226880336126e-01
      3.6330801613158831e-01 6.2132445898030320e-01
      2.1258534794930592e-01 2.2910007792708478e-01
      -2.1453738196313854e-01 2.9022238649808585e-01
      -6.1005491993274312e-02 -1.1648396717550510e-01
      1.6972455583844281e-01 -7.8085670662516954e-02
      2.1918298522745480e-01 3.1322254686851891e-01
      2.2530688315776881e-01 2.3287583117617608e-01
      -1.6558315429494055e-01 -7.8785461838494095e-02
      -3.7999565477256159e-01 -2.5534477595544808e-02
      2.0718271396363416e-01 1.0809027523285532e-01
      6.8430546521586966e-01 3.8197921188897843e-01
      1.7653181490323405e-01 1.8303700627581604e-01
      -1.2572180882791559e-01 5.9525787084241844e-01
      9.1695140341557027e-02 -1.8084861572789468e-01
      -1.0137205554608734e-02 2.1021054324407035e-01
      4.1464739703349596e-01 3.0564749917530848e-01
      6.5287380836344744e-01 8.0067754821776679e-02
      5.1249586292235783e-01 2.3451652105410145e-01
      5.4689457447830825e-01 -1.8725197392406159e-01
      4.4801898993690903e-01 1.3215418141996405e-01
      -2.7749626050405943e-02 -2.1290746915873382e-01
      -4.1716269899347602e-01 -3.4251946644636139e-01
      -1.8122894184179897e-01 -9.0480602264828458e-02
      -3.9253761405934356e-01 -5.6197359122245980e-02
      2.7846841760556457e-01 -4.0650595786532046e-01
      2.9735182881447519e-01 5.8296220760427564e-01
      3.4810308903322751e-01 8.7618562648817358e-02
      -3.8146703517151231e-01 -5.2750952842887264e-02
      -4.1147379697845976e-01 2.9455745501814196e-01
      -4.7177956169968893e-01 3.9085228065988892e-01
      1.2430434620992860e-01 1.5927602164507140e-01
      1.8137258388178945e-01 4.4197529842429878e-01
      8.7184732993477759e-02 3.5465560301737981e-01
      4.4883266707413055e-05 -2.9838406137730616e-01
      3.7989493378252759e-01 3.0622677651443098e-01
      -2.7257671910674586e-01 -2.7009040435973086e-01
      4.4693576165249305e-01 1.4184442383929693e-01
      5.6207375793837243e-02 2.2807631770275186e-01
      7.1447489010643392e-02 2.4292395834632408e-01
      3.3873819508271463e-01 4.6903185673657932e-01
      3.9108818614255458e-01 -1.3346214981553741e+00
      -3.4406884384988745e-01 -7.4879648847214790e-03
      -2.5983657133898824e-01 -2.7905434749548852e-01
      7.8754094423569949e-04 4.6682943794466064e-01
      -7.3932289143845836e-02 2.5866726025125919e-01
      8.1500354260413715e-02 -1.3711177882049913e-01
      -4.8895567618474445e-01 -4.1266708233573930e-02
      5.8547436450865797e-02 2.6458542929697382e-01
      3.6514164923756637e-01 4.8980951613038663e-02
      5.5417002867878418e-01 -5.2962564925317834e-01
      -2.5083464732330907e-01 5.4333086885005022e-01
      -2.8103675668466815e-01 5.2755160638797871e-01
      1.4594807041023114e-01 8.5024276907694499e-02
      -9.2217572214994423e-02 7.3667419482425200e-01
      -9.5898565457160656e-01 -3.8740919327073581e-01
      -4.4388408594384053e-02 -3.0659073390293989e-01
      4.2193275497770016e-01 -4.2628640541931308e-02
      6.4372900666021027e-02 6.8050218153069741e-01
      -1.4327871765564387e-01 2.7222170945614216e-01
      -2.3663383085527737e-01 -6.4958650481824490e-02
      5.0255128488704881e-01 6.5692919601181177e-01
      -2.3999761091749228e-01 5.5006029977215576e-01
      1.8300199748530645e-04 -5.1224828448495123e-02
      2.8079499951584225e-01 -1.3285368091255118e-01
      -4.3096079573354207e-01 -1.2741105484815274e-01
      2.6691479271115792e-01 -1.4353166937583983e-01
      7.1236410090258750e-01 -2.8901103529720001e-01
      -9.5345637810668155e-02 1.1464105035238743e-01
      1.6867823317098146e-01 -5.0968915662206282e-01
      -6.0384001457083125e-01 2.0693827296472364e-01
      -3.5236567819476877e-01 -3.1031012801876168e-01
      -1.9163087666343964e-01 -1.0324623371575663e-01
      -2.3968124472563176e-01 5.1129215477373660e-02
      3.9564518030400192e-01 -2.6538151305744972e-01
      -6.1244592220530823e-02 4.0187618298094779e-02
      -3.8681371858774527e-01 -1.4833085599150705e-01
      4.0525984863217823e-01 2.8215712144776406e-01
      5.7235551836194731e-01 -4.3940309074311146e-01
      -4.9440899071423366e-01 -3.0066419525330557e-01
      1.4992240457602818e-01 -9.6674543413704017e-01
      -7.8073261168751340e-01 -1.6370558691589795e-01
      -3.2083360638575997e-01 1.3004045281070373e-01
      3.1869886438073070e-01 -8.6038984677650629e-02
      5.4333362518488404e-01 1.6465424051945912e-01
      1.4228269567436966e-01 4.0978437321382219e-03
      -2.7962932339144309e-01 2.7325703534155948e-01
      -5.9781576214018373e-01 -4.8546798140340963e-01
      2.4985243537293045e-01 1.9889449403655085e-01
      5.0141513849224273e-01 3.4783594872411205e-01
      -2.1519699872884354e-01 -4.2655652685518053e-01
      -5.8621873470853592e-01 4.9659447026006726e-01
      2.1928116538778339e-01 -1.2069035457985114e-01
      -2.1061674012518752e-01 3.9014529552235894e-01
      1.4878849809149675e-01 1.9257821668119438e-01
      1.1563788293514080e-01 -7.7267269256043603e-02
      -4.6569009906999047e-02 1.2346934826607122e-02
      3.2377640901996568e-01 1.4185119533239193e-01
      -4.0312033373344980e-01 2.4562144369325062e-01
      1.3735936462502335e-01 -2.6722158091950404e-01
      8.0142339208197685e-03 1.1010374603661652e-01
      2.7100701529585181e-01 -5.9169385067103930e-01
      -1.8424506929804402e-01 1.0684497972318745e+00
      1.4397019802745276e-01 5.0049939930025038e-02
      2.7569395517529954e-01 2.4370212502665772e-01
      -1.0686471364628054e-01 -4.4176568033927527e-01
      2.5591750023759513e-01 7.7740054056554586e-01
      -3.0184681268061225e-01 1.2174801362254717e-01
      1.5059313902753540e-03 -7.4124182417164464e-01
      3.3667613756955306e-01 1.2402623536127215e-01
      1.9015801209204988e-01 4.8491810708039718e-01
      -1.2191043191286242e-02 -4.5233007268972908e-01
      1.7299271313643266e-01 -9.7013105086081429e-03
      -2.3936722154543483e-01 1.6466842534120318e-03
      -5.3473414032186539e-01 -3.2743016155047028e-01
      -3.7332383718651452e-01 -1.5908681851162382e-01
      -1.6069273734916123e-01 1.5348153806516671e-01
      3.8113297965261243e-02 5.5362430960578479e-01
      8.7170033605691666e-01 4.4460903563661405e-02
      3.9623940565889004e-01 -3.2842606049131107e-01
      1.7839083165523145e-01 -6.6112440725980137e-01
      -1.0849801528868629e-01 -2.0882177347313091e-01
      2.1689695845870194e-01 -1.2449642076714985e-01
      -4.2031304760201449e-01 -2.4795947751404929e-01
      8.2725091388274663e-01 3.7252834509474542e-01
      -1.1346560725933989e-01 -1.8101908862284291e-01
      -6.1618993470268935e-01 8.7291972567042386e-01
      1.0072243972911719e+00 -1.2135637197682980e+00
      6.3014146899389212e-01 3.0024102561151128e-01
      2.2245507722798669e-01 5.4236978819050929e-01
      2.2300349164325353e-01 4.3749817189826179e-02
      3.2833009430739685e-01 -3.8774388515472996e-01
      -2.4855055018811381e-01 -2.6473131148063607e-02
      3.7724614528070938e-01 -2.8774035720540808e-01
      9.5663278440235130e-02 4.8827789227953905e-01
      3.0211509313583912e-01 -1.6599820048397396e-01
      3.4575769567047177e-01 -3.3671997699520639e-01
      -3.8910576470716007e-01 -2.7646954944847169e-01
      1.7652272982811792e-01 -2.9127174954793406e-01
      5.2506136303290596e-01 2.0664830144920801e-01
      -1.7444709865730462e-01 -1.4711977911222196e-01
      9.6163646459596697e-01 -1.7985770104075305e-01
      2.4755659932975244e-01 -3.8149723858475920e-01
      -1.1029131811852595e-01 7.7771321628549095e-01
      3.2681496724297521e-01 2.3677281499492744e-01
      -1.1098938665052548e-01 -9.3853518095265015e-02
      -7.4823587617386500e-02 2.2512299350978124e-01
      1.3168064725192319e-01 4.1761301626982394e-01
      1.1139432495242858e+00 4.6041686017903560e-01
      -2.6556425499174585e-01 -1.0443040005729302e-01
      -1.1380634420865397e-01 5.3147266494264800e-01
      8.1815302159960038e-02 4.6237340722737018e-02
      5.3860718130011187e-01 -3.5340357335233147e-01
      -3.3804451223905840e-01 -2.9050192299656835e-01
      9.9482825605637271e-01 2.8429253542092536e-01
      5.4881686621553716e-01 6.0245538851575564e-01
      1.8323788964655294e-02 -2.1265407282641379e-02
      -4.4109138057505604e-01 -4.0245957928337406e-02
      -3.2573970607654151e-01 5.0123335290494064e-01
      -2.1721410776015052e-01 -4.5777309108128067e-01
      -3.9751186057576310e-01 4.0656484647292346e-01
      -6.2617937468906162e-02 5.5264630873385581e-02
      1.7568090002409423e-01 1.3172119976448360e-01
      -5.4468973334772774e-01 -1.6250747540033345e-01
      -1.0637411147941640e+00 3.5907212120539395e-01
      2.7230239936652645e-01 -3.1420647405792296e-01
      8.2003363470513235e-02 5.2115855507345654e-01
      -3.6717605168353380e-02 -6.8021397289184704e-01
      5.5044114017554513e-01 -4.8933268046727590e-01
      3.6183774616454462e-01 -3.9152253378414881e-01
      -2.3227074623854718e-01 5.5288338929272228e-02
      3.2385706381427565e-01 1.1072478916949502e+00
      -4.0557133820270769e-01 -1.2743964158220658e-01
      5.2617235184271460e-01 2.8860302417935391e-01
      -3.5098627630129148e-01 -8.5109996688404099e-01
      -5.5744074992990889e-01 -2.4102474817732336e-01
      6.0024627780980133e-01 1.0218891519013620e-01
      -8.5683160014767046e-01 -5.7133393356375639e-01
      -6.1191582735034113e-03 -4.8261648387632344e-01
      -2.6776177303892096e-01 3.0868701848795072e-01
      1.3355519112767025e-01 5.6749538363688590e-01
      1.9268352125510757e-01 -5.2621392340369544e-01
      6.5016082812708015e-02 2.8585292556755459e-01
      -2.2174124632004569e-01 1.5022152129027602e-01
      -5.6739622010318669e-01 -4.8460123044586628e-01
      -3.0859518261570568e-01 -3.4544981208297748e-01
      -4.7158455548200068e-01 2.4698956493175597e-01
      2.1151737424315814e-01 -3.3608626238617800e-01
      -2.6353238372879723e-01 -8.9906150167547910e-02
      -6.3830382131165903e-02 6.0608640779531864e-01
      -1.5157521890872513e-01 3.5553190403044777e-01
      -1.3557410881917731e-01 3.1511096661802512e-01
      1.6250974334846685e-01 -7.5647866713563927e-01
      -5.0544168390582378e-01 -3.6735975327910658e-01
      -4.2883543232558474e-01 2.4226087887004361e-01
      5.6275215811048862e-01 7.4937963639039828e-01
      -4.1265405732468746e-01 -1.9449222078391275e-02
      1.7823818456340498e-01 -2.1220747388545791e-01
      -5.4654779341473925e-01 1.4330818356019531e-01
      1.2460070661447779e-01 -5.4868972470415756e-01
      3.4392008011038050e-01 -8.8173890059009918e-01
      3.2714613547381727e-01 -1.2211070312326826e-01
      3.0326038796516014e-01 3.2984450872974885e-01
      -4.3008328866086504e-01 -3.6705485201729382e-01
      -6.8896117856236438e-01 1.8000589033401226e-01
      4.2862841511802342e-02 -1.7323874804036821e-01
      4.4619758835865120e-01 -2.6434061422362215e-01
      -4.9029306483673357e-01 -1.6308675493152133e-01
      3.0928684185713223e-01 -2.4941461059206113e-01
      -1.1943805715257379e-01 -4.0685347433368912e-01
      -9.0704979201903291e-01 3.3288394334055393e-02
      1.6593270647687658e-01 1.6919953059857690e-01
      2.4455426400489491e-01 -3.9708514624720020e-01
      -8.1283079513033582e-02 6.4052871425475477e-01
      -3.5990100052430730e-02 -4.5584790551927948e-02
      -7.1357714131950786e-02 -2.5195760728112054e-01
      -5.6796235055433603e-02 -6.5485402946337978e-01
      -2.1265942538790042e-01 9.7232697146166530e-02
      -1.9678112744331377e-01 7.1974998831671731e-04
      5.2998694313958393e-02 6.3561920284650419e-01
      -1.4261361682648077e-01 -3.4358322784498019e-01
      2.5953223842703316e-01 2.0444237922282300e-02
      3.5783975708113459e-02 3.6542363896436852e-01
      4.6577881932285958e-01 -7.4194803766769513e-01
      -3.8258421564984241e-01 5.2693991058453946e-02
      -9.7170726472891183e-02 3.9563285490247013e-02
      -9.2368567707776572e-01 -3.8462225720729343e-01
      -3.8362832691590315e-01 -1.2789593636758902e+00
      -6.6931198241933568e-02 -4.7795940047284174e-01
      -1.2414485753199397e-01 -3.9462694037750257e-01
      -1.3307748548337980e-01 3.9597748388606474e-01
      -2.9138260267756401e-05 -2.7426725492310461e-01
      9.5462751757215997e-02 -5.9459968102867677e-01
      2.8435765395727430e-01 -6.5908243356097551e-01
      -3.6466057622379651e-02 3.3179866382148443e-01
      9.5523299701028588e-02 -2.8767116071320559e-01
      -6.9561812238835774e-01 -3.0233198954122675e-01
      -1.9529474522185664e-01 6.3033314765298565e-01
      -1.3521212873271571e-01 1.1960887524514879e-01
      3.7747863788048397e-01 -5.6054560023465316e-01
      6.5612076959635668e-01 -8.6163099647313224e-02
      -5.3582198582178409e-01 -5.3090910600002916e-01
      -1.1585564163057410e-01 -1.7123380295979174e-01
      2.5480298793502903e-01 -3.5037627325453391e-01
      -2.9855660210294260e-01 -1.6275915679476335e-01
      -3.0754980937936077e-01 2.1772996619070742e-01
      9.1624528696119001e-01 -1.4193061226025174e-02
      2.4177497896167149e-01 -1.9543254774900892e-01
      3.6559083921365404e-01 -5.0731545544583000e-02
      -2.5681264467795362e-01 4.8132778021122852e-01
      -6.1433799052413918e-01 -1.5536726622588223e-01
      4.1484012840324908e-01 -1.8010414414160075e-01
      4.2117807069165059e-01 3.3974800969660585e-01
      -1.8334133541357089e-01 -2.4249578464080676e-01
      -5.6350972507196329e-01 4.1500922914516292e-01
      1.0420782770759629e+00 -6.6509263332344326e-01
      4.3553011810446557e-01 1.7194691157583405e-01
      -8.1078237402101461e-02 2.8030166772652904e-01
      2.7946958426345242e-01 -4.1207348763207308e-01
      -2.7172839832569029e-01 2.5176470881892242e-03
      6.2896166419416616e-02 8.7104261267136510e-02
      3.5650830695774693e-01 -2.3226086025185289e-01
      3.8451620497650513e-01 4.6873020858321268e-01
      -1.0672525951686986e-01 -2.5715664858980058e-01
      2.8964868991675830e-01 -1.5791264040205757e-01
      -7.0203307373978208e-01 -3.1302490003993538e-01
      -2.5963329567068294e-01 -3.3232848398115028e-01
      -3.7467391976219205e-01 -3.8486042683017710e-02
      -8.9960105996477813e-01 1.6904370080620126e-01
      9.3177275816485206e-01 -3.0533384503392069e-01
      6.1780824480921898e-03 2.1755134908116686e-01
      -3.4964320168164464e-01 5.4189668116597467e-01
      6.2134398646262690e-02 2.4613182008082521e-01
      -8.3044327218210132e-02 -4.6599272386071566e-01
      -2.6415308154372491e-01 -4.4385406846938852e-01
      3.9057380408764719e-01 3.8936007324378291e-01
      7.5855553513974538e-01 3.1886929580883677e-01
      1.4850787872784832e-01 -1.0719312761128023e-01
      -4.0373748969966283e-01 3.2655199524438039e-01
      1.0755009560510244e-03 4.5735723281263322e-03
      -7.9381346288823290e-02 8.2930083476153535e-02
      -7.8743013613051394e-01 2.6307067594169970e-02
      7.5076448539248697e-01 2.7449373201950222e-01
      6.2179804597617905e-02 4.6367077334774359e-01
      -4.0846296998166920e-01 -9.6872937058330888e-01
      3.1516736821236258e-01 2.7926254573272724e-01
      -1.8830716372024556e-01 2.8102460233339871e-01
      4.1364402893874269e-01 -7.4592269669134359e-01
      -6.3481093939185240e-01 2.3048587528742009e-01
      -3.6220771802017104e-01 -1.2945739643610091e-01
      -6.6621599356242389e-01 6.1615472893803092e-01
      -3.2394382879681366e-01 -6.9375196301238076e-02
      -9.7348414298543839e-01 4.0205487486889308e-01
      2.0250573748650494e-01 -4.1323686931348030e-01
      -5.4949168376700530e-01 1.4790436846835703e-01
      -1.5755258404674338e-01 -6.0058567123086237e-01
      6.7837761291578846e-01 -3.9636429010809321e-01
      1.5929484775937888e-01 -3.1624826004490070e-02
      -4.3927602225199563e-02 3.6397044120397481e-01
      5.3292269012031745e-01 8.6305456884079712e-01
      -1.5370222257588976e-02 -5.5833448774157657e-01
      1.5508900978262849e-01 1.6297550594870952e-01
      -5.2576404216150263e-01 -1.8039488373639537e-01
      4.2146931775193207e-02 4.3948725862450744e-01
      6.1038308082525983e-01 1.8874034689960195e-01
      7.1355085585931705e-02 -4.5655912683433858e-01
      -6.1443450587766213e-01 3.5197050299541531e-02
      -2.3722772540301801e-01 5.3913102863116047e-01
      3.2777494630298193e-01 -9.2000896358610557e-02
      8.0980686334336893e-01 -1.1949870322196517e-01
      3.3229817740801576e-01 -1.8116886484993773e-02
      -6.9624849636644559e-02 -6.0538152766043171e-02
      2.5513441144828203e-01 3.0325303278156277e-02
      -5.2283090872142080e-01 -2.8070394768735046e-01
      -2.8422531797624911e-01 -3.9431080928742930e-02
      1.5839872471603011e-02 4.2918814219031093e-01
      -2.3785228369338016e-01 -1.5088267564366165e-01
      7.8535255906330148e-02 9.9530312457662244e-03
      -4.9829975437103702e-01 -3.8086572618496289e-01
      -4.1979321925697577e-01 2.7058895729489163e-02
      5.4890973343481357e-02 -7.6180815031614557e-01
      -5.4208477433825886e-01 -8.5662654735338883e-01
      -1.3556957675983636e-01 5.2607384130775714e-01
      -4.8984862960117992e-01 1.0349050454046165e+00
      2.8089792683030029e-01 1.9825639029936240e-01
      -2.6771224246292030e-01 -3.0926769646376095e-01
      6.4672442875676461e-01 3.5260310867061584e-01
      -7.9573667542620363e-01 -4.3758715604861287e-01
      1.7158976873310616e-01 -7.3410613003702907e-01
      5.7154032743427907e-01 -8.1331661913245076e-02
      -5.5602618608771526e-01 6.6096360268353271e-01
      1.7762128094637533e-01 -6.8950826953612221e-01
      -8.8468301461740104e-03 2.3327537092241252e-01
      3.2739920575692955e-01 4.6114187190471619e-02
      2.3576752590459615e-01 -5.6650639855290660e-02
      -2.2029157501836252e-01 -1.2035527975544483e-01
      4.5818810716986896e-01 -3.4074851710618537e-01
      -5.5725889369156109e-02 -1.7451849655219545e-01
      -7.0036387700827663e-01 5.4966463113502184e-01
      -4.6953332423668892e-01 -1.7832216158255387e-01
      2.0688019734114199e-01 -6.1130846423146301e-01
      -5.2384248651531351e-01 1.9575547095338719e-01
      5.0212420664023283e-01 7.1373680556627295e-02
      -3.3503743866853723e-02 2.1753049328395724e-02
      -1.5633210659341229e-01 -3.8885004226524822e-01
      -6.4557805425346892e-01 -1.3398864879122729e-01
      8.1866183024588501e-01 7.2528190675224347e-01
      -3.1383117213750100e-01 1.6011966797529739e-01
      -1.2834806375673394e-01 4.9997058497529501e-02
      3.6410673147598138e-01 -4.8244956353793661e-01
      -6.5132628360075595e-01 1.8861287868616228e-01
      3.3600379617279025e-01 -3.8270023762931865e-01
      -1.2122688837867407e-01 3.3430328878698728e-01
      1.4709061651792721e-01 4.2048754183234582e-01
      -7.7038104669310048e-01 -4.2580139684383561e-01
      -2.9513504165473359e-01 -1.0861425031313128e+00
      -8.3910018272741405e-01 2.0030385808029544e-01
      1.6306248572427816e-02 -5.4475823613971508e-01
      -2.1546278256648069e-01 -2.1499956694267089e-02
      -1.6208741929982659e-01 -1.6790133875320995e-01
      1.6457257577856052e-01 -4.6977297771942084e-01
      3.2620941366567352e-01 -3.6040218345155561e-01
      -2.9254224812947566e-01 -3.2607885538576603e-01
      4.3599802573339275e-01 3.7258528995494655e-01
      -3.4787709309498643e-01 3.5840246430235712e-01
      -2.9308630536442543e-01 -8.9157272190248105e-02
      -3.6194990673943767e-01 -5.1048488742864773e-01
      5.4439218387773558e-01 -4.2328287406786180e-01
      3.2934570989866668e-01 4.3878786438937900e-01
      -3.0481640422822520e-01 -3.2955643148012886e-01
      4.6842304339997309e-02 -1.8325314993698694e-01
      7.2070916519544270e-01 -5.6374174774504615e-01
      -6.4121488438759189e-01 -3.2661375570604567e-01
      -3.7441561476381940e-01 -7.1704971273561979e-01
      7.9488931173760005e-02 -3.8863519544594410e-01
      -8.9312075911385500e-02 7.9817856374360352e-01
      4.1684219986521648e-01 2.7715309824716927e-01
      4.8606592435421869e-01 -1.2436025841096841e+00
      -9.1121368552113913e-01 4.0757139625583680e-02
      -3.8434494176771894e-01 -3.8839001324792904e-01
      -4.5084202051309025e-01 -5.5319322503593671e-01
      -2.6057130925714583e-02 4.1977032748115611e-01
      4.3369685865608809e-01 -5.0842888072966830e-01
      -7.9546395542514827e-03 2.7733508176654514e-01
      -2.5917240813784770e-01 -1.0102924163493747e+00
      2.9134146908342778e-01 4.5248121076260917e-01
      4.0246429596703631e-01 1.0520957054860977e-01
      -3.5478854354614404e-02 -4.6746958442777631e-01
      -6.8692553278380297e-01 -1.0942323600488353e+00
      4.4678069474444093e-01 -6.8791131695123228e-02
      2.4313275634597456e-01 -2.1943162304891212e-01
      5.8793057180024766e-01 -3.0375958024374722e-01
      6.5196781369957202e-01 -6.0348272726874708e-01
      2.0265935422875159e-01 -3.5156154348485968e-01
      9.0327014002865816e-02 -4.6426782780579275e-02
      -2.2857068762973007e-01 -6.3317243125627265e-01
      -1.1776417919329405e+00 1.2078182279204769e-01
      -1.2905995206255311e-01 4.0880911249529789e-01
      5.7761595341279705e-02 9.6840694969068331e-02
      -9.1502807767431071e-01 9.2600393034633258e-02
      1.1403689985800540e-01 3.5620108877965662e-01
      4.3432646559420124e-01 -7.7797017955167547e-01
      -7.2345533006323237e-01 -6.4658692968994480e-01
      -9.4729587754527078e-01 -3.3723464858074276e-01
      -2.3167160166164302e-01 2.8811620370168778e-01
      -1.1672000417844615e+00 1.1638666456120010e+00
      4.8386386170504881e-03 3.7553432581886437e-01
      3.1296001366027554e-01 4.0588204948153028e-01
      -7.3167569340940164e-01 2.0016841709164512e-01
      3.4549724895800896e-02 5.5871558037683766e-01
      3.7973801161614767e-01 9.5357663101698242e-02
      -5.5410180561357414e-01 -2.6763094739235527e-01
      1.7195581905600538e-01 2.4661254697174528e-01
      8.3177333090290240e-01 6.3709672895753189e-01
      -4.6926468808807903e-01 5.0554665449573399e-01
      2.7096379077853616e-01 -7.9456128764371678e-02
      -4.8558125944762559e-01 -5.2779105103430246e-01
      4.9300644050849041e-01 5.2869573178739682e-01
      -5.6745766112973683e-01 6.6298202046228250e-01
      4.6872540741572044e-01 3.9602381023111644e-01
      -6.5567976985970566e-01 2.2972786706220991e-01
      -5.3900494444902046e-02 -1.7416363424481093e-01
      -1.0840493433637912e+00 -4.2661309268450220e-01
      -1.1751923904638319e-01 -5.4167173342297659e-01
      -3.6415527339278758e-01 -1.4265520149229753e+00
      -4.5904452786804167e-01 2.7522970316881007e-01
      8.9674823520876623e-01 -2.8991354288192345e-01
      4.0510294619334325e-01 -2.4299175499566444e-01
      -3.6111777688270102e-01 -4.1390212784493569e-01
      -1.1981849502958166e+00 5.0441694425873074e-01
      1.4436334442036652e-01 -1.5660883749343246e+00
      -2.5519830135602703e-02 -6.3055764666143765e-01
      -3.0681775141290307e-01 -7.0115037368611799e-02
      8.8035348642382083e-01 1.4299612507180146e-01
      -7.0301992488271092e-01 -2.9783287422324378e-01
      8.4325321996710545e-01 8.3911639826805884e-01
      -4.8759225248241500e-01 2.2139162502763121e-01
      -4.7358594278551958e-01 8.6518327532048434e-01
      2.3742998190348760e-01 -6.1422866974522183e-01
      6.4727390729161116e-01 -8.1993710699724476e-01
      -1.0042687178244116e+00 -8.6462217427562979e-02
      -3.5883194655044748e-01 1.0347458243298514e-01
      -2.2821371549864333e-01 -4.5115983767701630e-02
      5.6496148919078737e-01 -4.2094382430913058e-01
      -2.0928190315120037e-02 -1.1852764299900840e+00
      2.8769950040096881e-01 -2.3638666157193555e-01
      -5.7810317762006631e-02 -1.0610568632848016e+00
      -8.6883870340509972e-01 -3.5866738347628524e-01
      6.2631285869221887e-01 7.8016761846024197e-03
      -4.1183213869814478e-01 -5.4578892323150630e-01
      -7.6894325160561749e-01 5.9473937205887180e-02
      -4.8916074112506835e-01 -1.9183630493406098e-01
      -3.3945579425472761e-01 1.1435141087936350e-02
      -1.0686349270168476e+00 3.6874035278990358e-01
      -3.4254850509752588e-01 7.6843783584288383e-01
      -2.4110124702136401e-01 4.4915464933800880e-01
      3.9136266891674439e-02 -3.4631708393435601e-02
      8.9665398678721209e-01 -9.3477466069749171e-01
      7.7464396281831244e-02 -2.5851880006046246e-01
      1.8094116239390179e-01 -6.2664714115369746e-01
      -1.2884586038036261e-01 9.6398999232774729e-01
      1.0593638168242279e+00 4.6361343207281658e-01
      -8.7273060265840896e-01 -7.0069192646372647e-01
      -7.6911539306831478e-01 7.1343911933557866e-02
      1.2475467748369416e-01 2.4140428575437684e-01
      3.0005837120173157e-01 -7.6371188621069619e-01
      4.4530032344254150e-01 6.8606881062588299e-01
      -4.3346952805133698e-01 3.6515597630324770e-01
      -2.1377957187403937e-01 -4.2791084393184675e-01
      -9.2858409058269553e-01 4.1963405867004111e-01
      6.5298801800468287e-01 2.1067718107792621e-01
      -3.0247585879059885e-01 -2.1943873425656826e-01
      7.4358007426446038e-01 -3.7623614982786785e-01
      -2.8324711631084581e-01 -8.2270791857271575e-01
      1.1291568190477692e+00 8.3118055692699949e-02
      -5.0742526654679554e-01 1.6113691299609556e-01
      2.9920092240679916e-02 3.5015228685825245e-01
      -2.3908033741181545e-01 -2.4050493516362548e-01
      4.9368682574971912e-01 -2.9750493050931515e-01
      4.0947374974527329e-02 -5.0375386698851154e-01
      3.6585560994892230e-01 6.3311543008872428e-02
      4.7327410605485143e-01 -1.9782113243397795e-01
      -1.5334377954777340e-01 -4.6224790981435065e-01
      -9.5144214264019835e-03 2.2747659192435252e-01
      -3.0460803591915625e-01 -1.2894318016776027e-01
      2.8416924582141184e-01 -6.2457418389966983e-02
      -4.6427560644087124e-01 9.2521964950970967e-02
      5.1148848094180555e-01 2.5261735641875599e-01
      3.7291610642902367e-01 5.2573905552916156e-01
      -1.8187051244487523e-01 3.3559250952327924e-01
      -3.7986467333041762e-01 2.9531581274123681e-01
      -4.5320699713050860e-01 2.9616785249287103e-01
      4.4727786326768976e-01 1.7768280490203245e-01
      1.5273636380689448e-01 -5.0177142814686304e-01
      -6.7558311957586137e-01 -2.2640341179912088e-01
      7.5956640553879273e-01 2.0983367046363632e-01
      -3.4311380280889497e-01 -5.9148539897716423e-01
      6.8983682588518558e-01 -1.7565601134634751e-01
      -5.5522587694216186e-01 -2.2035174725693468e-01
      -4.0796096998924763e-01 -1.7516207912460549e-01
      -1.0333396091905163e+00 -2.8193018644709655e-01
      7.3895278507244241e-02 -2.5125687254500428e-01
      -5.9631442386029868e-02 -4.6598449999740235e-02
      1.3231565260298509e-02 -5.8141944938983108e-02
      5.7408242102079021e-01 3.9359564268687064e-01
      8.6996425436326918e-01 -3.7963225064039219e-01
      -1.7139862160543337e-01 1.1458400643901996e-01
      -2.8909481447173591e-01 -7.8208806435707690e-01
      -1.0540752165864244e-01 1.6990554716277248e-01
      2.2917237972216042e-01 -3.6327297309040441e-01
      3.5900154948695306e-01 -4.1523330531799879e-02
      -8.2270785442068586e-06 -3.8853780470374483e-01
      -7.5140572574500242e-01 -7.0062718863250262e-01
      -3.2698745986530664e-01 4.8300241047398235e-01
      3.8337875836726931e-01 3.9716344314847146e-01
      1.1028868821062317e-01 -1.9163730871345810e-01
      -6.0010300522052451e-01 -9.2754651811124619e-02
      -1.4824246411651959e-01 1.0202517428291157e-01
      -3.6691376455418340e-02 4.9604260527291277e-01
      2.3205283946592947e-01 4.2900351664400094e-01
      1.3643793842929979e-02 1.5880455202670543e-01
      -4.1026268934456145e-01 -5.5913097775999143e-01
      6.6437308445597543e-01 -1.0710022793283860e-01
      3.9350817508113423e-01 -6.3460128886878631e-01
      -2.5915138102354174e-01 3.6108462277864872e-01
      1.8858387280996594e-01 -2.4346656843510879e-03
      -3.4953286613254841e-01 3.5723465065105736e-01
      -5.2340038570166371e-02 3.5652491158638633e-01
      -8.6184147440309999e-02 2.9246828799689994e-01
      -1.7204480049260862e-01 -8.6756529956603153e-03
      1.8279160043992184e-02 3.2991371791542601e-01
      3.6782429408655354e-01 -4.3227132927737094e-01
      2.8119407641778799e-01 6.4787857354982326e-01
      -5.2334257706589404e-01 5.9782709755813235e-01
      2.1676226584401040e-01 -4.2220948424623672e-01
      2.0728566802535484e-01 -2.7784009109800090e-01
      -5.2636608393370143e-01 -1.3690929782618341e-01
      2.7220087721510988e-01 -2.3233769248506782e-02
      5.9132127022153347e-01 3.7532490082173708e-01
      4.2575460001141999e-02 -3.1847742419368091e-01
      1.4374575114974711e-01 1.7575208087120878e-01
      -3.8883789770903848e-01 -1.5005931437320197e-01
      -3.1041633202863772e-01 -6.0370771836587005e-02
      -6.1770950300757010e-01 -4.1146036197816017e-02
      5.2574476558651884e-01 -6.9681967994164218e-01
      5.9106932690398495e-01 6.5988312344374092e-02
      1.5269830524635863e-01 -5.2046956659670318e-01
      1.0214543287345038e-01 5.3910619876260457e-01
      -2.4957873065904257e-01 -1.3676501515135348e-01
      6.7862237402987169e-01 1.2200991937105930e-01
      4.3583712665467525e-02 -8.1103752166001097e-01
      1.1797728718940415e-01 -9.8500604736884781e-02
      3.5325553441301549e-01 -1.8179527222384370e-01
      -9.9683731072261139e-02 -3.7883302760109855e-01
      5.2444644188737477e-01 4.2600146072160039e-01
      8.9231813231582302e-01 1.7437344901142682e-01
      5.6779876104515969e-01 8.9381300135401254e-01
      -8.2725216224957410e-01 4.1308304500362669e-01
      3.8177832972144499e-01 -4.0761026879986406e-01
      7.9972852329058097e-01 -4.9055363099671051e-01
      3.9236813497558842e-01 -1.2005742033640614e-01
      -2.4775313835540698e-03 1.6424387684910369e-01
      -2.1917495531229214e-01 -3.4028285575191358e-01
      -1.6917848727780854e-01 6.8708992741552163e-02
      -2.7159489348679522e-01 -1.1562534766953962e-01
      -7.8537816560713891e-01 5.2511736771349438e-01
      -2.0551287528345447e-01 -6.5534619595748328e-02
      -1.7382237768628025e-01 3.0367493904749288e-01
      -5.3569423998108023e-01 7.0664474139606781e-01
      -4.1322112442002318e-01 2.0711593446084652e-02
      -9.3204945373549314e-02 5.8562776935935579e-01
      2.6855465156418762e-01 -6.7394424658381680e-01
      1.1544501410933869e-01 -4.6374602518612762e-01
      5.6661904335100488e-01 -4.0787303946218617e-01
      5.1424825478784753e-01 -6.3763894273802735e-01
      -1.1796911805443999e-01 -2.0134278440800016e-01
      4.7434307792632385e-01 4.8641544791317812e-02
      7.3218162325140806e-02 6.2015475600327295e-02
      -3.8507164378062703e-01 -1.8849851924464930e-01
      -1.8138171195896258e-01 -1.2613177568788270e-01
      5.1667467538969214e-01 1.2154934729474290e-01
      -5.4245769751540862e-01 5.6659519823519888e-01
      -1.9982338944966410e-01 6.0917227952166952e-01
      -5.4862036757804288e-02 2.0503820446859691e-01
      3.0006856130581988e-01 1.1030421570804175e-02
      2.6605702920589797e-01 -1.8306137865704741e-01
      2.0341772485514592e-01 -1.0971521513099785e+00
      2.4193627589913122e-01 -5.5555622002208496e-02
      2.2864821855494776e-02 5.1469055057801893e-01
      1.1849419011368384e-01 1.1360013084429614e+00
      -3.0822492618084989e-02 -4.2927605257286539e-01
      -1.8589597968798766e-05 3.1548979913107666e-01
      -2.3531138801724474e-01 -2.7738895857136686e-01
      8.0222880021996523e-01 -2.8844676120389423e-01
      -8.7123727347102420e-01 -2.1105237323991358e-01
      1.8050919860031131e-01 1.9028573108863497e-01
      -4.9067642322963109e-02 4.0340644981070523e-01
      -6.1538794405908603e-01 6.1717259659264811e-01
      -1.9905028618479137e-01 6.0243327084679631e-02
      -2.1859862760688600e-02 4.0887640834132211e-01
      4.0718406513707193e-02 -3.0841599538464609e-01
      -2.3284347293235610e-01 -2.6647097923686969e-01
      1.1773514514133308e-01 -2.4780834895864404e-01
      2.4283896471641814e-01 1.6161709077445874e-01
      1.7184982733128445e-01 -4.5176151142947041e-01
      -1.0926398048316978e-01 -2.3533423231519763e-02
      7.7731256913016009e-02 -2.1282600618083267e-01
      1.3908532681233396e-02 2.4566353132967986e-02
      9.1035696748180239e-02 -5.1930786957512180e-02
      3.9369944662457537e-02 -1.9389745149897347e-01
      3.0705145890836849e-01 -2.1250781573284316e-01
      -2.0518278078950827e-01 3.5586133105576052e-03
      -4.3525410078083399e-01 -3.0478691670906966e-01
      1.9418528566206053e-01 4.2295642922235016e-01
      -1.2163743708521696e-01 -3.8501270981268328e-02
      -1.9831987361387620e-02 4.0922605758687014e-01
      5.9104646862922894e-01 6.7108562984393655e-03
      4.4921654098730418e-01 1.4740498309035285e-01
      7.7881551157751194e-01 4.7936525641369077e-01
      -5.3739303052209773e-02 4.5690043767706084e-01
      2.2436810380208069e-01 -1.6110535560851108e-01
      1.4723069778165204e-01 4.0392910536621557e-01
      -3.5491592254442990e-02 1.6742838225815132e-01
      7.9317534652365587e-02 4.3707013036274467e-01
      -2.6865920894115461e-03 -7.0168632602661962e-01
      4.1771582312479599e-01 -1.1312208150516249e-01
      1.9347130964514409e-01 2.3606691378844377e-01
      -7.1896855852324781e-01 -2.1899335731833958e-01
      3.2985935621430257e-01 -2.9689342932014351e-01
      3.6931334457854341e-02 2.7042355336760374e-02
      2.9703203914166015e-01 -4.7939438940503304e-01
      -4.4752638113199356e-01 -2.9790512617864129e-01
      -3.3889880742048334e-01 3.1032362180493306e-01
      1.1180111371416700e-01 9.3521037821533815e-01
      -3.1133777631349274e-01 -4.6732700247579712e-01
      4.6064933710339206e-01 -4.2842973692355091e-01
      -5.8457596956519017e-02 1.0670270894441622e-01
      8.8876807302886340e-01 -1.0042941696043086e+00
      8.5700043567324330e-02 -2.2546337053170683e-02
      1.4978710017300950e-01 -1.9929278516022172e-01
      -5.5686362543338097e-01 -1.7142954961567602e-01
      9.6444118921207411e-02 8.2496751122650558e-01
      -3.3047151477382471e-02 -2.1339831244534008e-01
      -2.4230110934865620e-01 9.6317314920331187e-02
      -1.7830413650026297e-01 1.2519139257336628e-01
      8.5026459225747350e-02 -7.2657891214560191e-02
      6.3542265869729414e-02 1.9813206326148719e-01
      3.8542433355126360e-01 -1.6005165901040994e-01
      1.3818828570420566e-01 3.2593242577563630e-01
      3.5171826911772874e-01 -2.4793520926878496e-01
      2.2742518428099301e-01 -4.4093628300550913e-01
      5.3900706360537232e-01 -2.5301664568870197e-01
      -3.3092013689414351e-01 1.3824666461723387e-01
      2.3110738753676585e-01 -4.6092417682707659e-01
      -1.9029328955177935e-01 -3.7109559806427339e-01
      -5.0504075523146910e-02 1.2590865317945171e-01
      5.2123039262995108e-01 -4.2466902174365379e-01
      -2.0494340630129609e-01 -6.3345826676860029e-01
      1.0771563357762535e+00 -3.7718973004582784e-01
      9.4327412137605238e-01 5.7919109650671929e-02
      2.7362617051866708e-02 -3.1380236778319345e-02
      -3.2435166246738734e-01 -1.7293625869406867e-01
      -1.3156127152679640e-02 -2.4530090400321794e-01
      -3.0400778602190570e-01 3.2539506081332087e-01
      5.0637173646574862e-01 6.2498741386887124e-01
      -1.1642575739675509e+00 -2.6620264934762733e-01
      4.8428401965688916e-01 2.9185512132324808e-02
      1.3155782874177618e-01 3.9207739981686135e-01
      7.7708447702757144e-01 1.3117583302683344e-01
      -3.4285248392949175e-01 -2.8810960662206037e-01
      -1.8565542087813372e-01 6.1634645249583264e-01
      2.4647293136144133e-01 5.8108729354092548e-01
      6.3884199197798042e-01 2.9035334771390903e-01
      4.9250942792708730e-01 5.3658303959372444e-01
      5.4481776502856127e-01 7.4884236307873564e-01
      3.0143638661095978e-01 -2.0401531789113550e-01
      4.4881654709800556e-01 3.0593296836219658e-01
      7.6440121858318052e-03 -5.1419334073814849e-01
      3.0447088059994538e-02 -3.1791741786608041e-02
      -2.4404545616004264e-01 -5.3825327850852311e-01
      2.5375217088270924e-01 6.4021721440372201e-02
      2.1403814874746260e-01 1.5546444941835588e-01
      -9.9085023500770766e-02 5.6170441684351445e-02
      2.7169140517898166e-01 -7.3986231594321333e-03
      6.4566110621342110e-01 5.1318065197662543e-01
      -4.9755148035059243e-01 5.6870255992159369e-01
      -1.6589971944359777e-01 -3.8317478726648389e-02
      6.3108991354200991e-02 -2.8720101405252618e-01
      6.7171264818238152e-01 2.3889995184996071e-01
      -8.0695848035138673e-01 -5.4330899777319053e-01
      -8.9367869983749557e-02 -1.1907314866269413e-01
      -5.2401663158257061e-02 -6.9967607427241105e-02
      -3.9526100785590107e-01 4.7055749650805861e-02
      -3.5191526529248279e-01 2.9282862145491978e-01
      2.2427896067249439e-01 4.2550848464455659e-01
      -1.1461227496439574e-02 2.0438396825829563e-01
      -5.6988353934641256e-01 1.1891949642853424e-01
      -2.3501914233585253e-01 4.5485193744526803e-01
      1.1377875364762598e-01 4.1157659226590992e-01
      6.3035236635291125e-01 -3.4597905423895919e-01
      3.6246669643966789e-01 -6.3545612480108671e-01
      7.3329458348455367e-01 5.0775988332953914e-01
      3.9524377660749405e-01 -3.1957024815355173e-01
      2.5816907622944923e-01 7.0230258818411617e-01
      5.8709778975852844e-01 7.2811896209503429e-02
      7.2921262212539462e-01 -4.6105547507155065e-03
      1.2002451778709751e-01 4.7746338848314092e-02
      4.1671901638536452e-01 -2.3317147619378042e-01
      2.5830097749415054e-01 3.7712091936210856e-01
      1.3476207677535357e-01 2.8426705417729481e-01
      -2.1472931040689508e-01 5.1040926939945253e-01
      3.6782468118187023e-01 -1.3683895639628046e-01
      1.9552126333564893e-01 -8.0241072971528404e-01
      -3.6789817180234513e-01 -4.3954681146814212e-01
      2.6646265810121450e-01 -8.7197608141179717e-01
      5.0333032047859472e-01 2.4179769738729426e-01
      -2.7351765422304669e-01 -9.2401382898933226e-01
      1.6718345406987425e-01 8.5386513684259524e-01
      -3.8303986647316124e-01 -7.7418023105356348e-01
      -7.1085750785991142e-01 3.5008042782833815e-01
      -9.3933380119251994e-02 4.4966339358496804e-01
      -3.2512437018723822e-01 -4.5919502344294061e-01
      1.8030095666870863e-01 -2.4212817390812519e-01
      5.0256367708656202e-01 4.6915028524976310e-02
      3.6304775780867288e-01 6.2133347142570428e-01
      -1.5361313044419420e-01 5.0735150389268502e-01
      -3.8183842143995084e-01 -3.4338524891533884e-01
      2.7570553094587635e-01 7.2619846238720920e-02
      5.3411334096280405e-01 -2.9092762539513756e-01
      1.1443888548753446e-01 1.0814985338692564e+00
      -3.4746117237836105e-01 8.0468921064302579e-01
      -4.8122660830476960e-01 -5.0715007253881131e-02
      -3.7250184681794990e-01 5.2198851141448066e-01
      6.0305646236375732e-01 -2.8079989059054977e-03
      1.5938284343326972e-01 2.7703481181654799e-01
      -1.0390031144385271e-01 7.7406991647394688e-03
      4.3297070959485712e-01 1.0341979871900890e-01
      3.1850175711847351e-01 6.0454113576744919e-02
      -2.1021780462893819e-01 4.3523315868495359e-02
      -2.2880204803397791e-01 -1.8083963924047791e-01
      -9.1476680495296128e-02 2.8135340274861365e-01
      6.5013879131500918e-01 -3.7666538911945258e-01
      6.9434423020405911e-01 4.9534222742795592e-01
      -4.6701219085801454e-01 -5.6116473256768140e-01
      3.9922797037611879e-01 6.0651550877262883e-01
      -4.4764469008917140e-01 -3.8493123906233101e-01
      -3.4862601900082457e-01 -6.0315523989000819e-01
      5.5411189921450477e-01 5.9922306290678262e-01
      8.8135884667159728e-02 7.1037491619710158e-01
      5.6993015271018010e-01 -2.5673246183079773e-01
      1.7509999253613648e-01 2.3363539370842612e-01
      1.6449394939574599e-01 4.3022999783558380e-01
      9.0409168702410517e-02 -2.5214882490390172e-01
      3.9356931843596149e-01 1.2297935830023558e-01
      -1.0026396373432764e+00 -2.0562903745849781e-01
      7.6612360551682301e-02 2.0552015910278537e-01
      2.7075317688574957e-01 -4.2900219380807231e-01
      -7.4981117893715843e-01 2.8603607963671734e-01
      3.4843770157286114e-01 -5.5992961550811720e-03
      -2.0041429595481330e-01 1.7281588951348043e-01
      -2.6346848237112053e-01 -5.4920804632809117e-01
      1.3786873413738829e-01 -4.0947912374477650e-03
      -1.2782636062219405e-01 4.7944558436071538e-01
      2.0646875546781174e-01 5.8560029090339583e-01
      -1.1983627706183345e-01 1.7485150308991895e-01
      1.0047207555583315e+00 -3.3363237652371802e-01
      -3.5698306500204786e-02 -4.5662941227448919e-02
      -3.9864415716549972e-01 7.9919512801838594e-02
      8.8116471652616002e-01 4.4250227005822856e-01
      -1.4810259441590820e-01 1.5217555005205580e-01
      -7.3270951172470594e-02 -4.3898237440061792e-02
      -1.2045444066630773e-01 -6.2324968038085504e-01
      -1.9017931926387982e-01 2.4480492542347668e-01
      8.0828004017930999e-01 8.4366666172670177e-02
      -1.0337750328973503e+00 1.0251669746988661e+00
      -1.6807727015355123e-01 -3.9493912474070669e-01
      2.5425602789456608e-01 -5.3885626616247551e-01
      1.7935947445617800e-01 -6.1720042361074523e-01
      7.9065553341108763e-01 3.5452620990519590e-01
      4.7884869326472601e-01 -6.4146953055038217e-02
      -4.1582463253837666e-02 5.2512752010997721e-01
      -8.2817457213318346e-01 3.6861993601781845e-01
      2.2117493701528404e-01 1.9845135635405758e-01
      -4.4004079562687898e-01 -2.8635066698347506e-01
      6.3546532056657279e-01 -1.2046033818177990e-01
      2.3399790098480483e-01 5.1210810369531574e-02
      -4.4631265867705452e-02 -6.0976397102312740e-01
      4.8992374800415006e-01 -2.5084653229623688e-01
      -1.5230611301299582e-01 4.0982919152204111e-01
      -1.6734784609188821e-01 5.3989568456796111e-01
      3.4165897833656367e-01 -7.5751191841411936e-02
      7.3408047708043001e-01 5.6143746120802807e-01
      -3.8496356037024282e-01 1.2018765332230469e-01
      -2.3510661712027858e-01 7.7421451662209331e-02
      -6.0870608336631515e-01 2.3789774630610361e-01
      1.1856393423411793e-01 -1.6324841748443117e-01
      -7.7757477064147373e-01 1.9175792714576254e-01
      2.0651145774650423e-01 7.1957562635170502e-01
      -2.7295353594168836e-01 -3.8068408861645708e-01
      1.6275407783597162e-01 6.1465866903310495e-01
      -3.0664290674054634e-01 -4.5430838024074499e-01
      5.5771749120061953e-01 -3.0940052956005959e-01
      -1.4609922227971961e-01 -4.9819243797963653e-02
      -1.2147870511277874e-01 2.5234889587239833e-02
      2.3284413675772314e-01 1.4880202736793333e-01
      1.8426387093704077e-01 5.5533089625642151e-01
      2.8180868982306295e-01 -5.1151274729821505e-01
      -2.1337367520463268e-01 6.5372250301528456e-01
      -6.0017824900903405e-01 -2.1368084029373227e-01
      7.2457092716668170e-02 1.3480636745371870e+00
      -6.9475874576264057e-02 -3.3875114985232491e-01
      -3.7054627059916284e-01 -2.7093407879609982e-01
      5.9727217564080370e-01 5.4791866461381544e-01
      3.1801425951092160e-01 5.3122690471734069e-01
      -5.5678941576175212e-01 2.6273986504659719e-01
      -4.5660991749642177e-01 -5.0369774806167023e-01
      1.1222679645571731e-01 4.4647639965208896e-01
      6.6105621590923569e-01 -7.4326467754278558e-01
      -2.0016756239722930e-01 1.6780836393855111e-01
      1.1311750028757159e-01 -7.6035930954846154e-01
      -3.3401985827642611e-01 5.7679156210614957e-01
      6.9442402010363913e-01 -2.8757764570521249e-01
      9.1688625739034768e-01 1.8057031050033825e-01
      8.7523094880959856e-02 -8.2813530122761247e-01
      -4.3907034782294574e-01 1.1911122811015241e-01
      -8.1888388787175609e-02 1.5291621830994766e-02
      -2.2252175575572566e-01 4.3290465991375587e-01
      5.5640511503667289e-01 4.5889593961080921e-01
      -4.5792286842481150e-01 -3.8425653115902980e-01
      -4.4641908294918503e-01 -8.2295107080901997e-01
      -4.7851672627018332e-01 -1.2180712476779336e+00
      -3.7155051848553700e-01 2.2875452551107009e-01
      1.9514998274193882e-01 6.9346578478783694e-01
      -7.2721677536674328e-02 -5.3461957453393875e-02
      -1.4081457856650589e-01 3.1332607768809051e-01
      -2.8779259401222057e-01 -4.7149125185118851e-01
      2.9247585680702864e-01 -1.7010395694746458e-01
      -1.8163350325306266e-01 -4.6906645535524266e-01
      3.8160859611258691e-01 9.8609431042495832e-01
      3.6799514864502669e-01 8.4112372158176396e-01
      7.6002699577887257e-03 1.9305053821914742e-01
      5.1292941630107569e-01 -6.5278866713779127e-01
      -2.1824148623135253e-01 -3.3091912974418247e-01
      -2.2751371003400178e-01 -7.2642164271664283e-02
      -2.3815668394159620e-01 1.7261546557554802e-01
      3.0139623833609497e-01 9.0382467406990197e-01
      3.5859132861824317e-01 -5.1105679794370673e-01
      2.7238706954991349e-01 -9.4045708065614450e-02
      3.3381780620089208e-01 4.4524953395450800e-01
      4.9753429574300856e-01 4.8562893399694251e-01
      -4.6042552373947811e-02 2.5075092484054767e-01
      -1.7598829145590247e-01 4.0949671903139695e-02
      6.4527974409001237e-02 -1.8898052807640512e-02
      4.7695618431114761e-01 -1.2682043348654456e-01
      1.9628865653386424e-02 -2.0209416280410879e-02
      -6.4610857497877594e-01 3.7564701516323645e-01
      5.3908128610279929e-03 4.6831090502340647e-03
      4.5208492065617639e-01 -1.5214037738451838e-01
      1.9422100546992882e-01 -1.2497480099587915e-01
      7.4780975106095349e-01 -4.2465922287608449e-01
      2.8564778238165439e-01 6.0563129085176459e-01
      7.6504171026791479e-01 -5.7235851580266950e-01
      -8.4698089614220295e-01 6.4721549271049095e-01
      9.3521907320798028e-02 -5.3968184284552645e-01
      3.5605365393292576e-01 -4.0072980048243373e-01
      3.3537519503835794e-02 1.3816265709390266e-01
      4.5409608041801740e-02 2.3981156732502165e-01
      -4.2201377342918917e-03 -8.6865440722019815e-01
      2.4964517318287210e-01 1.0945467715976347e-01
      8.1276449002774631e-01 3.4234039635665614e-01
      4.6734640498439606e-01 -1.7476813564902632e-01
      3.2786005023396320e-02 1.0818026628690142e-01
      3.6401876301296821e-01 -1.1040403066078143e-01
      3.6169403169107356e-01 -1.1296873193169308e+00
      6.3218871203916760e-01 -3.7195511937456643e-01
      -1.8453680453333540e-01 3.3169724373033593e-01
      -2.9921342699721920e-01 -9.5238499693808848e-02
      4.4334724119647356e-01 -2.7498402394253818e-01
      1.9700178786940714e-01 -3.3043744584094908e-01
      4.6347780167375152e-01 5.5519586711650515e-01
      -4.6376874437757148e-02 -6.9095558274039570e-01
      8.3851874632416501e-02 -2.0520282902014661e-01
      -6.9334174301279583e-01 -5.6735236214592000e-01
      2.5281213930893709e-01 -4.1627338815381404e-01
      2.7009159177484576e-01 1.1062834341842795e+00
      -6.6142748432108223e-01 -3.7395029493398496e-01
      6.3443049765448636e-02 2.1414043319994405e-01
      -4.8744457800332548e-02 1.6692112100823899e-03
      4.2135657070288096e-01 -9.7395544108443732e-01
      -4.8695317491745305e-01 -9.5727372129289934e-01
      -1.2860057928884558e-01 6.3209867132683106e-01
      -2.9312965300448568e-01 1.0758535686710682e+00
      -2.1337902826194571e-01 4.0489587236271002e-01
      -1.3267127368870626e-01 2.8993107798289824e-01
      1.4694062645947548e-01 -7.1318621015697214e-01
      -1.4140089184371157e-02 -2.0911607251431280e-01
      -1.9303294729459405e-01 2.7644831158876382e-01
      1.8958599591220968e-02 2.1810312516198008e-01
      -8.2875398173476700e-01 -8.8670595674727556e-02
      -2.9835641877432412e-01 -5.4518432578284493e-01
      -7.1286440701626430e-02 2.0029602033445551e-01
      2.8559127794671735e-03 1.4123384385239407e-01
      -2.1931955522362009e-01 -1.7745597439009822e-01
      -2.5622165321615836e-01 -7.5582669761648180e-02
      -3.2917158107868061e-01 3.6930420793294394e-01
      -3.3887517154948021e-01 -3.3508040596210514e-01
      -1.1844568740647662e-01 7.5376370038622797e-02
      -6.0360537160376693e-01 4.4117237050026153e-01
      -5.4422333487111052e-01 2.8962554408962549e-01
      3.0376504182187830e-01 -4.7554896702378247e-01
      5.0615667038778200e-01 -7.7839756649345204e-01
      1.7856022344210874e-02 2.2787749421620557e-01
      -1.6161907650788859e-01 -1.5436292131788501e-01
      -1.8482257583334913e-01 2.7645806307663795e-01
      -3.2167162764925226e-02 4.0287377947066333e-01
      -5.0546564190415011e-01 -9.7721035940451575e-03
      -4.4947270456764644e-02 5.3485731632269451e-01
      -5.6907322623472067e-01 3.5076455312188493e-01
      -5.1610427421632321e-01 -8.5578909188240501e-03
      5.6515900920554141e-01 1.0261513142034887e-01
      -3.3187383110536889e-01 6.6628727081973804e-01
      1.5805557253580202e-03 2.4514210637678258e-01
      5.6245352885765221e-01 -1.6066249188058278e-02
      2.1326179060387893e-01 -5.0266724121638240e-01
      3.1463015126058885e-01 6.1069824093784378e-02
      6.8705086955461736e-01 -4.8435946843374755e-01
      6.6901752785142465e-01 5.2451022804764391e-01
      5.2912788090024787e-01 -3.4656987727779681e-01
      1.5282321212791597e-01 1.1378086459669161e-01
      4.5550658875948363e-01 -1.0262490117349242e-01
      -6.2785327173903249e-01 -8.7954322607338098e-02
      1.8481247071303084e-01 -2.4676807790936166e-02
      -2.3191252466385923e-01 -4.4170839024191322e-01
      -8.8726748068809091e-02 -3.5931975867597721e-01
      9.7070324600337002e-02 -1.3847782332571446e-01
      2.8376776963610428e-01 -2.4274227521162342e-01
      -3.2867018806201070e-01 2.0869600209053544e-02
      -8.8684981533774479e-02 -1.0130657297759865e-01
      -6.6818349347003991e-01 1.8830849511350634e-01
      4.7013524170816573e-01 6.1679814636867103e-01
      -5.4665398581781555e-01 1.5079991537400983e-01
      -1.5813044646755415e-02 6.0520063300529725e-01
      -1.0937959579037800e-01 6.7626674306879293e-04
      -3.4865403084907037e-01 -4.2940437543261989e-01
      3.3579552457008516e-01 1.2947208271673599e-01
      -1.9143875269151486e-01 -4.7065308018762747e-01
      3.0048805766826914e-01 -4.5430154690886110e-01
      -2.4863194222971893e-01 6.3288103185575484e-01
      3.6498474011266585e-01 4.4422581272968475e-01
      2.3690569677457007e-01 1.0143100647604737e-01
      -1.8049647666118410e-01 3.0126462306848084e-01
      7.4584584373827700e-02 -2.7957737457723059e-01
      3.3996914919146248e-02 -3.0379533140113391e-01
      7.5827942948417559e-01 -1.6684273213211528e-01
      5.0501011370810489e-01 -1.4714091517718234e-01
      2.4528311970451733e-02 -1.8797464738603209e-01
      -3.7259764994922429e-01 6.8966514923687305e-01
      3.8754730944487736e-01 -1.4127829483328791e-01
      -3.5574334224178211e-01 -3.9881090634332400e-01
      -5.2663963676210779e-01 1.4504621459815209e-01
      3.5632553821506380e-01 -8.7152664613458164e-02
      1.4640609871467758e-01 -3.7831558454971971e-02
      1.5970463966448318e+00 -2.6511856339527233e-02
      1.2190249962605557e+00 -7.4240514686025910e-02
      -1.0189123410547831e+00 -4.4450977641542411e-01
      2.7783570695526272e-01 4.0318953130068153e-01
      7.8726825763516098e-02 -9.0370928869873815e-02
      -1.2156203118611550e+00 -9.1059291315581914e-01
      -5.1355597620131177e-01 -3.5188573323015370e-04
      4.8370574059319765e-01 -2.3390270527070764e-01
      -1.1608582067578421e-02 -5.8235878166389443e-01
      7.2609306638066723e-02 -3.4677467482065460e-01
      -3.3781584506941775e-01 5.9797629789595919e-01
      3.8983253353664826e-01 2.7355374568662183e-01
      2.2787967670056122e-01 2.8779905658100496e-01
      -1.3471611758449584e-01 6.5314501491692850e-02
      -5.5035089260655157e-01 1.1049974828298323e-01
      -1.0384031201765521e-02 -1.0123979257528387e-01
      -1.5683282701950021e-01 -1.3673491996741435e-01
      4.2618771484503215e-01 4.9515977463054661e-01
      3.4796391792660092e-01 -7.4507333516950225e-01
      4.2189187817493652e-02 -2.2901642782470702e-01
      -2.7816248299540225e-01 1.1345284498068993e-01
      5.2867134610331323e-01 -1.3110946099850398e-01
      -1.8148682077950912e-01 -2.7371582128707683e-01
      5.9119601208545214e-01 -2.6500980022538528e-01
      7.5131025302009977e-02 -1.8293519760663818e-01
      -5.9147555024641951e-01 1.8565452839145982e-01
      7.7927869270481551e-02 -4.2556012286629596e-01
      -9.3777611038156489e-02 -9.6784614262237528e-02
      1.5384051785875783e+00 9.4296623237068292e-02
      2.8279770116327263e-01 7.6522850170401488e-02
      3.4629307431934053e-01 3.6534282098116971e-01
      5.8116857632750052e-01 1.8276542493363787e-01
      -1.2172949146617372e-01 -1.1261024500495787e-02
      1.6957800407743476e-01 -7.2575977240964040e-02
      -1.0651719303042587e-01 -2.0629892502562716e-01
      -4.5327080364486311e-01 -5.4825652329081154e-01
      6.1729606761175150e-02 7.0936794472994225e-01
      3.0723296719958304e-01 5.2916968767782335e-01
      -2.7621722377368185e-01 -4.5126459151428217e-01
      3.5001535581279575e-01 -4.2715306920533436e-01
      -8.1085944045398184e-01 9.0461002167502011e-02
      1.2379237670491845e-01 -4.7538557549201377e-01
      -6.1836617297555030e-01 1.6235216151592077e-01
      -3.4001452901627628e-02 -3.0664808995223905e-02
      6.2134371519077791e-01 6.5120092166904842e-02
      -2.8551403184531948e-01 -4.0950434867405627e-01
      3.5369102743313663e-01 1.1141515775131219e-01
      5.5942188463167253e-01 -3.2194684011248259e-01
      3.8319778893660489e-01 -1.1188148904544909e-01
      -3.6376748721587029e-03 -6.6675339058080396e-01
      2.8771810572155848e-01 -2.0774424795429433e-01
      -4.2487633435214300e-01 -1.4921784214435405e-01
      7.5401138891581365e-01 -2.0896125067928731e-01
      -2.0316579866319068e-01 3.8195646036706510e-01
      5.0066321137080338e-01 2.6794474932573664e-01
      -1.4324881253648658e-01 -7.9359298249545754e-02
      -7.0924475083901062e-01 1.4748054168400299e-01
      6.9467324894694413e-02 -9.6958407699552829e-02
      -3.0315296712197715e-01 5.1509400932887972e-01
      -1.2832318472745252e-01 1.7910759540849561e-01
      7.9912112738491192e-02 2.5176339207179974e-02
      -7.7051273678448481e-02 -5.6972784813124921e-01
      -2.1900432296529254e-01 -3.4107822688278194e-01
      -3.4952068549566501e-01 4.1609996921850284e-01
      -2.7260167606705638e-01 4.3000815978307677e-01
      -2.1249705365087385e-01 -8.7692119502423671e-02
      -1.2195024759659316e-01 -3.0623701277146009e-01
      1.7297168947271283e-01 1.5740154634161693e-01
      4.4220445840308570e-01 9.1886177193047744e-02
      -5.8986877913526159e-01 5.6182263685253941e-01
      -2.0218644331516988e-02 -2.8337433928186129e-01
      -3.0776099976686178e-01 -4.8773399482813029e-01
      -1.3331942778638009e-01 -2.3086693002228459e-01
      1.9100735590910742e-01 -3.2639147162945797e-01
      -9.1786803292068597e-01 1.3663269938781020e-01
      3.6519710333144390e-01 -3.8695078578662645e-01
      2.4874438680718369e-01 -2.7053346054127153e-01
      -3.5188126883699022e-01 5.2702937763761815e-01
      -2.0822208750118426e-03 -1.9392343950732399e-01
      4.7616509546704211e-01 -6.4673053213139087e-01
      2.9032260727191705e-01 -3.0028344980519200e-01
      -3.5039190424437355e-01 3.2635178774295243e-01
      -2.7211123783957192e-01 -8.0914564309831988e-02
      3.2908600734503718e-01 3.1277561785475749e-01
